tree
version=v4
num_class=3
num_tree_per_iteration=3
label_index=0
max_feature_idx=3
objective=multiclass num_class:3
feature_names=return volatility hurst ker
feature_infos=[-0.061507735318828471:0.0417632141140869] [0.024592764287052354:0.46717845727019691] none [0:1]
tree_sizes=865 961 978 899 1001 1004 1000 1004 1000 896 1006 1004 1002 1005 1000 898 1009 1002 900 1002 1002 899 1002 1001 793 1011 1002 1004 1002 1005 898 1002 1008 792 1004 1003 793 1009 1007 897 1001 1006 794 1004 1005 996 1006 1003 1005 1012 1003 889 1007 1006 796 1003 1004 797 1012 1006 899 1009 1004 788 1011 1010 1000 1003 1013 1005 1011 1003 794 1004 1008 895 1009 1010 795 899 1007 1006 1008 1006 797 1011 1002 786 1012 1006 793 1007 1005 1008 1011 1006 797 1007 1008 796 1008 1008 1007 1011 1006 795 1008 1002 795 997 1007 796 1001 1006 894 999 1008 797 1006 1001 899 997 1010 1008 1017 899 798 1004 1004 901 999 904 903 1011 899 1006 1015 907 797 999 1006 900 1014 906 1006 996 904 897 798 1004 798 796 906 896 799 1008 904 1017 911 797 801 897 1004 801 1000 897 802 910 794 800 1013 897 810 903 798 801 900 904 802 907 1004 811 999 799 799 1001 794 1015 904 891 813 900 798 811 900 1005 802 1003 802 803 902 797 809 1008 1006 801 899 796 801 899 1012 811 900 798 1011 1014 904 799 908 895 1018 1008 908 801 893 800 813 1000 1010 803 792 798 1017 1012 698 1014 902 1007 1014 786 693 898 1006 1007 1015 792 797 1007 1009 1009 893 796 699 1017 1014 800 1010 902 904 899 797 698 1015 1015 1009 1018 788 699 1007 1013 905 903 792 1008 907 898 1009 898 898 1008 1018 1011 798 907 898 700 901 998 1012 1009 801 797 901 797 1003 903 800 1013 896 797 800 1004 805 911 902 803 1011 1020 1014 700 894 793 1013 903 804 907 901 901 1007 896 792 700 1010 1013 1010 901 803 800 902 807 910 1019 804 899 1008 1013 702 898 800 1005 902 902 906 899 910 1011 900 805 790 1006 1014 1015 903 797 1012 894 803 1013 907 900 690 907 810 1006 896 900 1016 903 803 908 907 802 693 898 1015 1008 909 799 1012 1005 1011 1006 902 902 1019 907 803 1022 1024 903 1007 905 800 690 899 692 1009 1020 797 1003 1005 896 1001 899 804 1014 906 801 691 900 1023 1009 904 796 901 907 801 902 909 804 914 897 910 1005 1021 902 696 903 1018 788 904 800 904 901 794 912 906 803 1008 1019 899 1020 903 799 1009 1011 900 793 906 797

Tree=0
num_leaves=7
num_cat=0
split_feature=3 1 1 1 0 3
split_gain=12.7317 8.41605 9.52369 7.7249 21.4519 8.62828
threshold=0.73812139571402879 0.11354369943883279 0.046753542461689147 0.04741678464240081 0.0063890771437492564 0.19928370098591761
decision_type=2 2 2 2 2 2
left_child=3 2 -2 4 -1 -5
right_child=1 -3 -4 5 -6 -7
leaf_value=-1.6647946541079128 -1.6389281178127562 -1.6132997148320536 -1.6641402822299671 -1.6650650453927418 -1.5918985658338249 -1.6729889057776544
leaf_weight=289.89514550566673 24.579065427184105 5.5130614042282096 73.737196281552315 258.42475332319736 5.0536396205425254 489.05448873341084
leaf_count=1262 107 24 321 1125 22 2129
internal_value=-1.66719 -1.65547 -1.65784 -1.66835 -1.66355 -1.67025
internal_weight=1146.26 103.829 98.3163 1042.43 294.949 747.479
internal_count=4990 452 428 4538 1284 3254
is_linear=0
shrinkage=1


Tree=1
num_leaves=8
num_cat=0
split_feature=1 0 1 0 1 1 3
split_gain=57.0841 19.4473 19.3902 11.5076 10.359 7.22693 2.02321
threshold=0.10438482044404497 -0.01063216511838627 0.049643227282413417 -0.0079522013901073812 0.15897737986486413 0.028277959040450596 0.38450314838692107
decision_type=2 2 2 2 2 2 2
left_child=2 6 5 -4 -3 -1 -2
right_child=1 4 3 -5 -6 -7 -8
leaf_value=-1.2230019716341025 -1.1920793450721039 -1.1713686434229733 -1.2099394181708927 -1.187658436724681 -1.1497113307566384 -1.1962370091476668 -1.2158769424723517
leaf_weight=12.704645395278929 7.9404033720493343 122.28221192955971 29.538300544023514 827.70764750242233 34.937774837017059 539.94742929935455 9.8461001813411695
leaf_count=40 25 385 93 2606 110 1700 31
internal_value=-1.18938 -1.17049 -1.19173 -1.18843 -1.16656 -1.19685 -1.20525
internal_weight=1584.9 175.006 1409.9 857.246 157.22 552.652 17.7865
internal_count=4990 551 4439 2699 495 1740 56
is_linear=0
shrinkage=1


Tree=2
num_leaves=8
num_cat=0
split_feature=1 0 0 1 0 1 1
split_gain=49.9077 25.0033 23.6099 9.93272 5.83608 3.48397 2.78947
threshold=0.076417477935337791 -0.0072744876557391249 -0.011585959958426871 0.10756039729960844 0.0065393403898202926 0.1513747067837444 0.057589111920944507
decision_type=2 2 2 2 2 2 2
left_child=1 6 5 -4 -3 -2 -1
right_child=2 4 3 -5 -6 -7 -8
leaf_value=-0.63347154085345092 -0.64652582603725628 -0.67660230907655472 -0.68740801246490357 -0.6983078239330176 -0.68994210483925156 -0.67414793671603279 -0.65447384320698809
leaf_weight=13.49749267101288 16.122005134820942 1327.253445982933 284.19720679521561 161.22005134820938 41.617269068956375 8.6233980953693372 18.371587246656418
leaf_count=36 43 3540 758 430 111 23 49
internal_value=-0.679612 -0.676293 -0.689501 -0.691353 -0.677008 -0.656152 -0.645579
internal_weight=1870.9 1400.74 470.163 445.417 1368.87 24.7454 31.8691
internal_count=4990 3736 1254 1188 3651 66 85
is_linear=0
shrinkage=1


Tree=3
num_leaves=7
num_cat=0
split_feature=3 1 1 1 0 3
split_gain=12.0616 7.65211 8.8889 7.30719 19.2401 8.25339
threshold=0.73812139571402879 0.11354369943883279 0.05260923686867585 0.04741678464240081 0.0063890771437492564 0.19928370098591761
decision_type=2 2 2 2 2 2
left_child=3 2 -2 4 -1 -5
right_child=1 -3 -4 5 -6 -7
leaf_value=0.0023148847050777485 0.021130371495762308 0.050876260367169274 -9.8825025386435687e-05 0.0020728684181022931 0.06964439859964032 -0.0056791177242918713
leaf_weight=290.44947303831577 42.744612112641335 5.6995806097984305 56.139303475618362 258.73688878118992 5.3176322281360617 487.14944569766521
leaf_count=1262 184 24 244 1125 22 2129
internal_value=7.30456e-08 0.0113559 0.00907793 -0.00114006 0.00352541 -0.00299007
internal_weight=1146.24 104.583 98.8839 1041.65 295.767 745.886
internal_count=4990 452 428 4538 1284 3254
is_linear=0
shrinkage=0.0350769


Tree=4
num_leaves=8
num_cat=0
split_feature=1 1 0 0 1 1 3
split_gain=52.5172 18.2236 17.73 10.7537 9.51031 7.03234 1.98117
threshold=0.10438482044404497 0.049643227282413417 -0.01063216511838627 -0.0079522013901073812 0.15897737986486413 0.028277959040450596 0.38450314838692107
decision_type=2 2 2 2 2 2 2
left_child=1 5 6 -3 -4 -1 -2
right_child=2 3 4 -5 -6 -7 -8
leaf_value=-0.033239723625876287 -0.0023547354356551254 -0.020016882482481891 0.017099564189253468 0.0016687590762311736 0.037662949507211961 -0.0066415081002833059 -0.026020731691849572
leaf_weight=12.514899671077726 7.892645567655566 29.124629855155945 123.71919059753418 828.46457698941231 35.64524906873703 537.77992314100266 9.7025376856327039
leaf_count=40 25 93 385 2606 110 1700 31
internal_value=-7.19817e-07 -0.00226449 0.0180097 0.000932292 0.021699 -0.00724641 -0.0154049
internal_weight=1584.84 1407.88 176.96 857.589 159.364 550.295 17.5952
internal_count=4990 4439 551 2699 495 1740 56
is_linear=0
shrinkage=0.0350769


Tree=5
num_leaves=8
num_cat=0
split_feature=1 0 0 1 0 1 1
split_gain=46.4986 23.6035 22.0261 9.16755 5.44669 3.32873 2.68146
threshold=0.076417477935337791 -0.0072744876557391249 -0.011585959958426871 0.15897737986486413 0.0065393403898202926 0.1513747067837444 0.057589111920944507
decision_type=2 2 2 2 2 2 2
left_child=1 6 5 -4 -3 -2 -1
right_child=2 4 3 -5 -6 -7 -8
leaf_value=0.044944034585458092 0.032097452434814773 0.0029020723159807805 -0.0097169488684622357 -0.027006672125449712 -0.0099842698511246001 0.0050899975650976498 0.024340150122501798
leaf_weight=13.477606028318407 16.104467719793323 1327.1595755815506 403.84778249263763 41.621652513742447 41.622315675020218 8.6208053827285749 18.35706102848053
leaf_count=36 43 3540 1077 111 111 23 49
internal_value=5.65495e-07 0.00320466 -0.00954379 -0.0113324 0.00251022 0.0226809 0.0330631
internal_weight=1870.81 1400.62 470.195 445.469 1368.78 24.7253 31.8347
internal_count=4990 3736 1254 1188 3651 66 85
is_linear=0
shrinkage=0.0350769


Tree=6
num_leaves=8
num_cat=0
split_feature=3 1 1 1 3 1 0
split_gain=11.495 13.0404 11.9234 10.5866 6.09796 6.2035 4.28229
threshold=0.7081202509822403 0.045225061786528763 0.12966346163030953 0.043123028346437747 0.21913297750853869 0.047293795200049095 -0.0092931555029258078
decision_type=2 2 2 2 2 2 2
left_child=4 3 -3 -2 6 -6 -1
right_child=1 2 -4 -5 5 -7 -8
leaf_value=-0.021258053965994245 0.017638147491611331 0.0013703606170445948 0.057805785729132177 0.065800216809485793 0.0021525040715797581 -0.0055925469017678916 0.0027752817350847102
leaf_weight=9.3474378734827024 20.278563812375072 98.582371190190315 4.8319386839866629 7.7660922408103934 177.4526364505291 449.69195291399956 378.20904842019081
leaf_count=41 86 427 20 33 768 1973 1642
internal_value=9.30737e-07 0.00976042 0.00400725 0.0309751 -0.00126345 -0.00340106 0.00219562
internal_weight=1146.16 131.459 103.414 28.0447 1014.7 627.145 387.556
internal_count=4990 566 447 119 4424 2741 1683
is_linear=0
shrinkage=0.0350769


Tree=7
num_leaves=8
num_cat=0
split_feature=1 1 0 0 1 1 3
split_gain=48.6344 17.0829 16.2432 10.0497 8.45669 6.84906 1.93968
threshold=0.10438482044404497 0.049643227282413417 -0.01063216511838627 -0.0079522013901073812 0.15897737986486413 0.028277959040450596 0.38450314838692107
decision_type=2 2 2 2 2 2 2
left_child=1 5 6 -3 -4 -1 -2
right_child=2 3 4 -5 -6 -7 -8
leaf_value=-0.032882845975792052 -0.002031191257737393 -0.01950291095463904 0.016378131335364206 0.0016042040108251556 0.035598300103093346 -0.0064353018265926286 -0.025565375761601051
leaf_weight=12.324845165014265 7.8466899096965816 28.715674757957458 124.84741261601448 829.32177522778511 36.371847718954086 535.65788903832436 9.5572884678840619
leaf_count=40 25 93 385 2606 110 1700 31
internal_value=-1.74464e-06 -0.00219203 0.0172389 0.000897819 0.0207143 -0.00703014 -0.0149548
internal_weight=1584.64 1406.02 178.623 858.037 161.219 547.983 17.404
internal_count=4990 4439 551 2699 495 1740 56
is_linear=0
shrinkage=0.0350769


Tree=8
num_leaves=8
num_cat=0
split_feature=1 0 0 1 0 1 1
split_gain=43.356 22.3113 20.5571 8.27434 5.08174 3.18502 2.58923
threshold=0.076417477935337791 -0.0072744876557391249 -0.011585959958426871 0.15897737986486413 0.0065393403898202926 0.1513747067837444 0.057589111920944507
decision_type=2 2 2 2 2 2 2
left_child=1 6 5 -4 -3 -2 -1
right_child=2 4 3 -5 -6 -7 -8
leaf_value=0.043848980162391693 0.031164235287720023 0.002798925112117464 -0.0094090971896555846 -0.025843180627760969 -0.009648446084675761 0.0047331609326479833 0.023580181305278294
leaf_weight=13.439537554979326 16.072231620550159 1327.0497382879257 403.84697982668877 41.575707256793976 41.620862931013107 8.6169917583465558 18.331977486610413
leaf_count=36 43 3540 1077 111 111 23 49
internal_value=9.07739e-07 0.00309496 -0.00921615 -0.0109431 0.0024204 0.0219393 0.032154
internal_weight=1870.55 1400.44 470.112 445.423 1368.67 24.6892 31.7715
internal_count=4990 3736 1254 1188 3651 66 85
is_linear=0
shrinkage=0.0350769


Tree=9
num_leaves=7
num_cat=0
split_feature=3 1 0 3 1 1
split_gain=10.9344 6.57041 17.1057 7.57263 6.53738 7.93539
threshold=0.73812139571402879 0.04741678464240081 0.0063890771437492564 0.19928370098591761 0.11354369943883279 0.05260923686867585
decision_type=2 2 2 2 2 2
left_child=1 2 -1 -3 5 -2
right_child=4 3 -4 -5 -6 -7
leaf_value=0.0021501198068261652 0.019812139646721259 0.0019819374391964149 0.064015962860758391 -0.005447442348800631 0.046291345691445121 -0.00011780787553361524
leaf_weight=291.64580731093884 43.710542991757393 259.32407349348068 5.6046420037746421 483.59646189212799 6.0036467760801306 56.166504606604576
leaf_count=1262 184 1125 22 2129 24 244
internal_value=2.40795e-06 -0.00109072 0.0033166 -0.00285414 0.0107413 0.0086044
internal_weight=1146.05 1040.17 297.25 742.921 105.881 99.877
internal_count=4990 4538 1284 3254 452 428
is_linear=0
shrinkage=0.0350769


Tree=10
num_leaves=8
num_cat=0
split_feature=1 1 0 0 1 1 3
split_gain=45.0607 16.0281 14.9163 9.41671 7.56941 6.67137 1.88464
threshold=0.10438482044404497 0.049643227282413417 -0.01063216511838627 -0.0079522013901073812 0.15897737986486413 0.028277959040450596 0.38450314838692107
decision_type=2 2 2 2 2 2 2
left_child=1 5 6 -3 -4 -1 -2
right_child=2 3 4 -5 -6 -7 -8
leaf_value=-0.032541897502450901 -0.0018024137683479318 -0.0190232115520849 0.015694037692649869 0.0015448350346182202 0.033736597643989313 -0.0062372036937897966 -0.025111015043915986
leaf_weight=12.132618337869642 7.8135079741477993 28.322099894285202 125.91204458475113 830.10214212536812 37.021127641201019 533.60949701070786 9.4063277244567853
leaf_count=40 25 93 385 2606 110 1700 31
internal_value=-2.97057e-06 -0.00212187 0.0165124 0.000866231 0.0197936 -0.00682199 -0.0145347
internal_weight=1584.32 1404.17 180.153 858.424 162.933 545.742 17.2198
internal_count=4990 4439 551 2699 495 1740 56
is_linear=0
shrinkage=0.0350769


Tree=11
num_leaves=8
num_cat=0
split_feature=1 0 0 1 0 1 1
split_gain=40.4168 21.0583 19.1538 7.61445 4.83155 3.03741 2.51472
threshold=0.076417477935337791 -0.0072744876557391249 -0.011585959958426871 0.10756039729960844 0.0065393403898202926 0.1513747067837444 0.057589111920944507
decision_type=2 2 2 2 2 2 2
left_child=1 6 5 -4 -3 -2 -1
right_child=2 4 3 -5 -6 -7 -8
leaf_value=0.042816813198782722 0.030235744561327188 0.0027029835225333889 -0.0071132440838108293 -0.016659678377376134 -0.0094343064325559285 0.0044068036043786807 0.022809074608638354
leaf_weight=13.383603423833849 16.024257153272632 1326.9288488924503 284.23816418647766 161.04751870036125 41.619583457708359 8.6127350330352765 18.294638276100159
leaf_count=36 43 3540 758 430 111 23 49
internal_value=1.04088e-06 0.00298833 -0.00890018 -0.0105659 0.00233387 0.0212063 0.0312621
internal_weight=1870.15 1400.23 469.923 445.286 1368.55 24.637 31.6782
internal_count=4990 3736 1254 1188 3651 66 85
is_linear=0
shrinkage=0.0350769


Tree=12
num_leaves=8
num_cat=0
split_feature=3 1 1 1 3 1 0
split_gain=10.399 11.6462 10.4064 9.34659 5.57868 5.55204 4.02528
threshold=0.7081202509822403 0.045225061786528763 0.12966346163030953 0.043123028346437747 0.21913297750853869 0.047293795200049095 -0.0092931555029258078
decision_type=2 2 2 2 2 2 2
left_child=4 3 -3 -2 6 -6 -1
right_child=1 2 -4 -5 5 -7 -8
leaf_value=-0.02090724287838381 0.016415257148477864 0.0012379599311042938 0.052612187834475743 0.06073561295046153 0.0019745183388680896 -0.0053492385779142435 0.0026484972050849686
leaf_weight=9.1407904773950559 20.726641625165943 98.905172079801559 5.1014709323644629 8.1591152995824796 178.22320941090584 446.24185951054096 379.38748507201672
leaf_count=41 86 427 20 33 768 1973 1642
internal_value=4.51267e-06 0.00923019 0.00375784 0.0289341 -0.00120578 -0.00325903 0.00209431
internal_weight=1145.89 132.892 104.007 28.8858 1012.99 624.465 388.528
internal_count=4990 566 447 119 4424 2741 1683
is_linear=0
shrinkage=0.0350769


Tree=13
num_leaves=8
num_cat=0
split_feature=1 1 0 0 1 1 3
split_gain=41.5442 15.0548 13.6497 8.80209 7.04561 6.5032 1.84745
threshold=0.10438482044404497 0.049643227282413417 -0.01063216511838627 -0.0079522013901073812 0.15897737986486413 0.028277959040450596 0.38450314838692107
decision_type=2 2 2 2 2 2 2
left_child=1 5 6 -3 -4 -1 -2
right_child=2 3 4 -5 -6 -7 -8
leaf_value=-0.032218560884263989 -0.0015015749119750193 -0.018533197490735193 0.014927010810167049 0.0014933142903362569 0.032222199507809406 -0.006042583896045982 -0.024695628888548222
leaf_weight=11.940151512622831 7.7697823047637966 27.910491406917572 127.09660884737968 830.77291935682297 37.540866106748581 531.58745101094246 9.2623707950115186
leaf_count=40 25 93 385 2606 110 1700 31
internal_value=-4.48714e-06 -0.00204928 0.0157782 0.000842376 0.0188707 -0.00661761 -0.0141149
internal_weight=1583.88 1402.21 181.67 858.683 164.637 543.528 17.0322
internal_count=4990 4439 551 2699 495 1740 56
is_linear=0
shrinkage=0.0350769


Tree=14
num_leaves=8
num_cat=0
split_feature=1 0 0 1 1 1 1
split_gain=37.7077 20.0276 17.8906 6.96277 6.00303 4.3739 2.91515
threshold=0.076417477935337791 -0.0054772993359813995 -0.011585959958426871 0.15897737986486413 0.056612624696094564 0.028277959040450596 0.1513747067837444
decision_type=2 2 2 2 2 2 2
left_child=1 4 6 -4 -1 -3 -2
right_child=2 5 3 -5 -6 -7 -8
leaf_value=0.037493587338874763 0.029406720856345797 0.020918471627829796 -0.0088039470921006339 -0.023913985472217632 0.013670170818127996 0.0018428767934198249 0.0040815552805507785
leaf_weight=23.064113408327103 15.966395050287248 14.955593287944792 403.70263972878456 41.367515832185745 29.864971697330475 1332.0810769200325 8.6071599721908552
leaf_count=62 43 40 1077 111 80 3554 23
internal_value=1.03559e-06 0.0028863 -0.00859969 -0.0102084 0.0240513 0.00205467 0.0205363
internal_weight=1869.61 1399.97 469.644 445.07 52.9291 1347.04 24.5736
internal_count=4990 3736 1254 1188 142 3594 66
is_linear=0
shrinkage=0.0350769


Tree=15
num_leaves=7
num_cat=0
split_feature=3 0 1 1 0 3
split_gain=9.94403 6.0895 6.99322 5.91794 15.4449 6.94627
threshold=0.73812139571402879 0.0076071622474220843 0.11354369943883279 0.04741678464240081 0.0063890771437492564 0.19928370098591761
decision_type=2 2 2 2 2 2
left_child=3 2 -2 4 -1 -5
right_child=1 -3 -4 5 -6 -7
leaf_value=0.001998842374614623 0.0057595289703212078 0.042076620007917197 0.046479346811340368 0.0018957251018936758 0.059563492160323354 -0.0052236814323924638
leaf_weight=292.74433954060078 94.665039628744125 6.8929347842931739 5.4902444928884497 259.87608526647091 5.8493627309799185 480.17946556210518
leaf_count=1262 402 29 21 1125 22 2129
internal_value=7.28616e-06 0.0101864 0.00799168 -0.00104183 0.00312652 -0.00272365
internal_weight=1145.7 107.048 100.155 1038.65 298.594 740.056
internal_count=4990 452 423 4538 1284 3254
is_linear=0
shrinkage=0.0350769


Tree=16
num_leaves=8
num_cat=0
split_feature=1 0 1 1 0 1 1
split_gain=38.6189 11.9979 10.9779 10.3533 9.94526 6.24488 2.01478
threshold=0.085649431925119451 -0.011585959958426871 0.15897737986486413 0.049643227282413417 -0.0079522013901073812 0.028277959040450596 0.15897737986486413
decision_type=2 2 2 2 2 2 2
left_child=3 6 -3 5 -5 -1 -2
right_child=1 2 -4 4 -6 -7 -8
leaf_value=-0.031796362818366994 -0.025734480442976587 0.010039395072268215 0.030132702205678256 -0.024765493240129211 0.00067485376597776418 -0.0058593333882818333 -0.0015425422453717525
leaf_weight=11.673271179199217 11.41223204135895 260.72541132569313 38.379446774721146 19.427282750606537 705.32024803757668 529.67496427893639 6.7357583045959464
leaf_count=40 39 797 111 66 2215 1700 22
internal_value=-6.26785e-06 0.0109374 0.0126177 -0.00274849 -7.08966e-06 -0.00641862 -0.0167555
internal_weight=1583.35 317.253 299.105 1266.1 724.748 541.348 18.148
internal_count=4990 969 908 4021 2281 1740 61
is_linear=0
shrinkage=0.0350769


Tree=17
num_leaves=8
num_cat=0
split_feature=1 0 0 1 0 1 1
split_gain=35.1725 19.0724 16.6808 6.34928 4.48159 2.78784 2.3653
threshold=0.076417477935337791 -0.0072744876557391249 -0.011585959958426871 0.10756039729960844 0.0065393403898202926 0.1513747067837444 0.057589111920944507
decision_type=2 2 2 2 2 2 2
left_child=1 6 5 -4 -3 -2 -1
right_child=2 4 3 -5 -6 -7 -8
leaf_value=0.041078667162012417 0.028575821884992535 0.0025218821959359368 -0.0067111573742384507 -0.015436664727483078 -0.0091688606093986002 0.003784755393703698 0.021593592129790371
leaf_weight=13.237103521823885 15.894159346818926 1326.6348778903484 284.19376027584076 160.59026888012886 41.610433667898178 8.6014015078544599 18.210106432437897
leaf_count=36 43 3540 758 430 111 23 49
internal_value=8.43497e-07 0.0027871 -0.00830955 -0.00986152 0.00216635 0.0198707 0.0297955
internal_weight=1868.97 1399.69 469.28 444.784 1368.25 24.4956 31.4472
internal_count=4990 3736 1254 1188 3651 66 85
is_linear=0
shrinkage=0.0350769


Tree=18
num_leaves=7
num_cat=0
split_feature=0 1 3 1 1 3
split_gain=9.61539 15.1613 7.35069 6.40827 6.35644 2.73759
threshold=0.0096305370940877894 0.062018689087956873 0.73812139571402879 0.12240399894472027 0.046753542461689147 0.56808432861834224
decision_type=2 2 2 2 2 2
left_child=2 -2 3 -1 -4 -3
right_child=1 5 4 -5 -6 -7
leaf_value=-0.00069362790191434371 0.070035774376273466 -0.00030722615429152548 0.023208095071041081 -0.012480552355650341 0.0033100961912583978 0.030040720479161672
leaf_weight=954.87276741862297 5.9754723906517055 16.00911641120911 26.573637500405312 60.338178291916847 76.961443439126015 4.7400738894939414
leaf_count=4176 24 70 107 265 328 20
internal_value=1.05343e-05 0.0208038 -0.000486175 -0.00139417 0.00841718 0.00662565
internal_weight=1145.47 26.7247 1118.75 1015.21 103.535 20.7492
internal_count=4990 114 4876 4441 435 90
is_linear=0
shrinkage=0.0350769


Tree=19
num_leaves=8
num_cat=0
split_feature=1 1 0 0 1 1 3
split_gain=35.9742 13.0415 12.3247 7.30032 6.09455 6.04692 1.75663
threshold=0.1029780783190193 0.049643227282413417 -0.01063216511838627 -0.0079522013901073812 0.028277959040450596 0.15897737986486413 0.38450314838692107
decision_type=2 2 2 2 2 2 2
left_child=1 4 6 -3 -1 -4 -2
right_child=2 3 5 -5 -6 -7 -8
leaf_value=-0.031512277170959349 -0.001845445013628072 -0.017361996495450192 0.013615201925481673 0.0013182091218272077 -0.0056817721730109648 0.029385893883470647 -0.024301495841336576
leaf_weight=11.483257234096525 7.9412002563476589 26.567899316549301 134.39542359113693 826.73539689183235 527.81696340441704 38.478665113449097 9.3118101656436902
leaf_count=40 26 91 402 2589 1700 110 32
internal_value=-7.99638e-06 -0.00196198 0.0143041 0.000736594 -0.00623178 0.0171255 -0.0139654
internal_weight=1582.73 1392.6 190.127 853.303 539.3 172.874 17.253
internal_count=4990 4420 570 2680 1740 512 58
is_linear=0
shrinkage=0.0350769


Tree=20
num_leaves=8
num_cat=0
split_feature=1 0 0 1 1 0 1
split_gain=32.5981 18.1422 15.5192 5.923 5.74879 4.01569 2.62581
threshold=0.076417477935337791 -0.0054772993359813995 -0.011585959958426871 0.15897737986486413 0.056612624696094564 0.0065393403898202926 0.1513747067837444
decision_type=2 2 2 2 2 2 2
left_child=1 4 6 -4 -1 -3 -2
right_child=2 5 3 -5 -6 -7 -8
leaf_value=0.036106558205721957 0.027717808222638762 0.0022347273549699689 -0.0082084330290475467 -0.022196587528995518 0.012720112262115779 -0.0088364586810968319 0.0036312192122591007
leaf_weight=22.87729224562645 15.804196596145632 1305.1208431124687 403.41481700539589 41.032826393842697 29.751405358314514 41.594778895378113 8.5984334647655469
leaf_count=62 43 3483 1077 111 80 111 23
internal_value=3.14989e-07 0.00268233 -0.0080045 -0.00949986 0.022886 0.00189278 0.0192307
internal_weight=1868.19 1399.34 468.85 444.448 52.6287 1346.72 24.4026
internal_count=4990 3736 1254 1188 142 3594 66
is_linear=0
shrinkage=0.0350769


Tree=21
num_leaves=7
num_cat=0
split_feature=3 1 1 1 0 0
split_gain=8.99751 10.9632 7.87215 5.25685 6.11794 2.0776
threshold=0.7081202509822403 0.032060746779117931 0.12966346163030953 0.12240399894472027 0.0096305370940877894 -0.0072744876557391249
decision_type=2 2 2 2 2 2
left_child=3 -2 -3 4 -1 -5
right_child=1 2 -4 5 -6 -7
leaf_value=-0.00078273568986509962 0.055976843104046464 0.0046144207661362423 0.048045352122443381 0.0023755208691630001 0.023101869572356298 -0.013477943286718497
leaf_weight=929.34473690390587 5.7359546571969977 123.70979279279709 5.3573289364576331 12.464555785059927 13.385083973407744 55.269064739346504
leaf_count=4068 23 523 20 56 56 244
internal_value=1.38047e-05 0.00852595 0.00641716 -0.00112178 -0.000443617 -0.0105605
internal_weight=1145.27 134.803 129.067 1010.46 942.73 67.7336
internal_count=4990 566 543 4424 4124 300
is_linear=0
shrinkage=0.0350769


Tree=22
num_leaves=8
num_cat=0
split_feature=1 1 0 0 1 1 3
split_gain=33.2516 12.1313 11.5485 6.65387 5.94702 5.67287 1.77737
threshold=0.10184690130041031 0.049643227282413417 -0.01063216511838627 -0.0079522013901073812 0.028277959040450596 0.15897737986486413 0.38450314838692107
decision_type=2 2 2 2 2 2 2
left_child=1 4 6 -3 -1 -4 -2
right_child=2 3 5 -5 -6 -7 -8
leaf_value=-0.031239781044493761 -0.0016000532396086571 -0.016806646627618868 0.012820405374900219 0.0012366760804666398 -0.0055127046217253207 0.027944413829924294 -0.024145184231324258
leaf_weight=11.292348384857176 7.9011288881301907 25.941081613302231 141.15086609125137 821.32515379786491 526.03995141386986 38.931226223707199 9.44617912173271
leaf_count=40 26 90 420 2571 1700 110 33
internal_value=-1.02041e-05 -0.00193048 0.013457 0.000684237 -0.00605337 0.01609 -0.0138766
internal_weight=1582.03 1384.6 197.429 847.266 537.332 180.082 17.3473
internal_count=4990 4401 589 2661 1740 530 59
is_linear=0
shrinkage=0.0350769


Tree=23
num_leaves=8
num_cat=0
split_feature=1 0 0 1 0 1 1
split_gain=30.4894 17.325 14.4649 5.53693 3.83461 2.54561 2.28407
threshold=0.076417477935337791 -0.0072744876557391249 -0.011585959958426871 0.10756039729960844 0.0065393403898202926 0.1513747067837444 0.065685461243679452
decision_type=2 2 2 2 2 2 2
left_child=1 6 5 -4 -3 -2 -1
right_child=2 4 3 -5 -6 -7 -8
leaf_value=0.034281938976566423 0.026995699323733309 0.002333393430976246 -0.0062487750873179738 -0.014407307340355268 -0.0084848764159706422 0.0032480514487854798 0.012958213808021153
leaf_weight=22.645026832818989 15.715026825666429 1326.282442599535 284.0935620367527 159.98822340369225 41.576937615871429 8.5893828570842725 8.5006158351898176
leaf_count=62 43 3540 758 430 111 23 23
internal_value=1.78005e-07 0.00259358 -0.00774596 -0.00918803 0.00200457 0.0186031 0.028462
internal_weight=1867.39 1399.01 468.386 444.082 1367.86 24.3044 31.1456
internal_count=4990 3736 1254 1188 3651 66 85
is_linear=0
shrinkage=0.0350769


Tree=24
num_leaves=6
num_cat=0
split_feature=0 1 1 3 3
split_gain=8.81763 7.85527 7.67424 12.3661 4.9788
threshold=0.012750974992699173 0.10522702023528333 0.04741678464240081 0.63350456429155988 0.19928370098591761
decision_type=2 2 2 2 2
left_child=2 -2 3 -1 -4
right_child=1 -3 4 -5 -6
leaf_value=0.0011954110575480084 0.055570249056986147 0.0019335924489032299 0.0018793254014272326 0.019624088212413151 -0.0040495369921458137
leaf_weight=274.56971590220928 6.5978264063596708 6.8448587954044342 255.54377146065235 53.536265462636948 547.95089422166348
leaf_count=1180 27 30 1108 218 2427
internal_value=1.74706e-05 0.0282591 -0.000318022 0.00420237 -0.00216392
internal_weight=1145.04 13.4427 1131.6 328.106 803.495
internal_count=4990 57 4933 1398 3535
is_linear=0
shrinkage=0.0350769


Tree=25
num_leaves=8
num_cat=0
split_feature=1 0 1 0 1 1 1
split_gain=30.7733 9.41639 8.76151 8.85596 8.53056 5.67944 1.87584
threshold=0.085649431925119451 -0.011585959958426871 0.048617755753583444 -0.0079522013901073812 0.15897737986486413 0.028277959040450596 0.15897737986486413
decision_type=2 2 2 2 2 2 2
left_child=2 6 5 -4 -3 -1 -2
right_child=1 4 3 -5 -6 -7 -8
leaf_value=-0.030960161894968818 -0.024459195663684291 0.0088331565479359379 -0.023783206047876163 0.00045779508052260198 0.02628941054771692 -0.0055667907620929637 -0.00074491841107646639
leaf_weight=11.086671978235243 10.773066878318788 264.72360011935234 19.013982594013214 748.34280148148537 39.596348941326141 481.08576026558876 6.6297658979892722
leaf_count=40 39 797 68 2353 111 1560 22
internal_value=-1.27141e-05 0.00966941 -0.00248583 -0.000142862 0.0111045 -0.0061388 -0.015425
internal_weight=1581.25 321.723 1259.53 767.357 304.32 492.172 17.4028
internal_count=4990 969 4021 2421 908 1600 61
is_linear=0
shrinkage=0.0350769


Tree=26
num_leaves=8
num_cat=0
split_feature=1 0 0 1 1 1 1
split_gain=28.4324 16.5845 13.5739 5.53881 5.13879 3.62812 2.43742
threshold=0.076417477935337791 -0.0054772993359813995 -0.011585959958426871 0.056612624696094564 0.15897737986486413 0.028277959040450596 0.1513747067837444
decision_type=2 2 2 2 2 2 2
left_child=1 3 6 -1 -4 -3 -2
right_child=2 5 4 -5 -6 -7 -8
leaf_value=0.034939370652764298 0.026343309864828687 0.018991898188637828 -0.007681924356277659 0.011900946624124975 -0.020768666747540188 0.0015589535689628804 0.0030770877130274058
leaf_weight=22.661888539791107 15.622977137565615 14.852477937936781 403.02306604385376 29.623600274324417 40.640934228897095 1331.506476521492 8.5842100977897626
leaf_count=62 43 40 1077 80 111 3554 23
internal_value=5.30937e-08 0.00250398 -0.00748513 0.0218864 -0.00888071 0.00175127 0.0180928
internal_weight=1866.52 1398.64 467.871 52.2855 443.664 1346.36 24.2072
internal_count=4990 3736 1254 142 1188 3594 66
is_linear=0
shrinkage=0.0350769


Tree=27
num_leaves=8
num_cat=0
split_feature=3 1 1 1 0 3 1
split_gain=8.40534 5.20689 8.23563 5.16875 13.0089 6.43255 0.903896
threshold=0.73812139571402879 0.096004860938606454 0.05260923686867585 0.04741678464240081 0.0063890771437492564 0.19928370098591761 0.11354369943883279
decision_type=2 2 2 2 2 2 2
left_child=3 2 -2 4 -1 -5 -3
right_child=1 6 -4 5 -6 -7 -8
leaf_value=0.0018641126948324696 0.017135141861279266 0.02089119064544908 -0.0034943190650866094 0.0019048897957027518 0.053073699911406626 -0.0049572645132586676 0.039013650712707119
leaf_weight=293.71350356936455 45.746410667896271 7.0263667702674848 49.65445938706398 259.78809882700443 6.2330548763275138 476.09555274248123 6.5365346223115921
leaf_count=1262 184 30 214 1125 22 2129 24
internal_value=2.20375e-05 0.00928901 0.00639787 -0.000952799 0.00292828 -0.00253473 0.0296252
internal_weight=1144.79 108.964 95.4009 1035.83 299.947 735.884 13.5629
internal_count=4990 452 398 4538 1284 3254 54
is_linear=0
shrinkage=0.0350769


Tree=28
num_leaves=8
num_cat=0
split_feature=1 1 0 3 3 1 3
split_gain=28.6821 11.057 9.10669 6.70792 6.12555 5.5687 1.79529
threshold=0.10438482044404497 0.049643227282413417 -0.01063216511838627 0.84640101014697888 0.70021951588447073 0.028277959040450596 0.38450314838692107
decision_type=2 2 2 2 2 2 2
left_child=1 5 6 -3 -4 -1 -2
right_child=2 3 4 -5 -6 -7 -8
leaf_value=-0.030617681511613162 0.00027755599594758425 0.0012829092136964553 0.017211755330873445 -0.016176214145172098 -0.007355657412599588 -0.0051978249587515185 -0.023166447887460528
leaf_weight=10.823058068752287 7.4986734986305263 831.84802484512329 157.32587665319443 27.986981451511383 13.563877820968626 522.71612513065338 8.6607062816619855
leaf_count=40 25 2611 455 88 40 1700 31
internal_value=-1.54231e-05 -0.00174677 0.0128818 0.000714628 0.0152618 -0.00571348 -0.0122874
internal_weight=1580.42 1393.37 187.049 859.835 170.89 533.539 16.1594
internal_count=4990 4439 551 2699 495 1740 56
is_linear=0
shrinkage=0.0350769


Tree=29
num_leaves=8
num_cat=0
split_feature=1 0 0 1 0 1 1
split_gain=26.4142 15.7704 12.6235 4.86962 3.55104 2.29467 2.18521
threshold=0.076417477935337791 -0.0072744876557391249 -0.011585959958426871 0.10756039729960844 0.0065393403898202926 0.1513747067837444 0.065685461243679452
decision_type=2 2 2 2 2 2 2
left_child=1 6 5 -4 -3 -2 -1
right_child=2 4 3 -5 -6 -7 -8
leaf_value=0.032986012431659384 0.025567049018527722 0.0021699239391884985 -0.0058106210421313802 -0.013473514939916562 -0.0082425588885113466 0.0029588101503399064 0.012046943754383073
leaf_weight=22.338120758533481 15.502497464418413 1325.9010426104069 283.94188165664673 159.2696193754673 41.561639338731766 8.5812439024448377 8.4526692628860456
leaf_count=62 43 3540 758 430 111 23 23
internal_value=-4.56901e-07 0.00241244 -0.0072204 -0.00856431 0.00185345 0.0175115 0.0272378
internal_weight=1865.55 1398.25 467.295 443.212 1367.46 24.0837 30.7908
internal_count=4990 3736 1254 1188 3651 66 85
is_linear=0
shrinkage=0.0350769


Tree=30
num_leaves=7
num_cat=0
split_feature=0 1 3 1 1 3
split_gain=8.19463 12.5011 6.12478 5.43875 4.89381 2.43798
threshold=0.0096305370940877894 0.062018689087956873 0.7419228870173844 0.12240399894472027 0.051528107766587339 0.56808432861834224
decision_type=2 2 2 2 2 2
left_child=2 -2 3 -1 -4 -3
right_child=1 5 4 -5 -6 -7
leaf_value=-0.00061927962677406096 0.061662354316752988 -0.00071409302446692453 0.016940927903851054 -0.011545283610807954 0.0012724263620691708 0.027489398827363287
leaf_weight=956.4914532750845 6.4495643228292492 16.179002329707149 42.046154141426086 59.545158043503761 58.861618861556053 4.9172151982784262
leaf_count=4193 24 70 167 266 250 20
internal_value=2.50853e-05 0.0189253 -0.000441028 -0.0012596 0.00780116 0.00585972
internal_weight=1144.49 27.5458 1116.94 1016.04 100.908 21.0962
internal_count=4990 114 4876 4459 417 90
is_linear=0
shrinkage=0.0350769


Tree=31
num_leaves=8
num_cat=0
split_feature=1 1 0 3 1 1 3
split_gain=26.5658 10.095 9.08799 5.73785 5.43992 4.75598 1.73938
threshold=0.10184690130041031 0.049643227282413417 -0.01063216511838627 0.84640101014697888 0.028277959040450596 0.15897737986486413 0.38450314838692107
decision_type=2 2 2 2 2 2 2
left_child=1 4 6 -3 -1 -4 -2
right_child=2 3 5 -5 -6 -7 -8
leaf_value=-0.030379835630417924 -0.00058024771150520077 0.0011476152881664083 0.011207086767690243 -0.015317334270565532 -0.0050336622676954625 0.024909912344588482 -0.023239548826654625
leaf_weight=10.631209492683409 7.7327517867088345 820.80327823758125 143.73769825696945 26.895071536302567 520.97920995950699 39.792167037725449 9.0420877486467344
leaf_count=40 26 2576 420 85 1700 110 33
internal_value=-1.7677e-05 -0.00175117 0.0119192 0.000625229 -0.00554054 0.0141781 -0.0127942
internal_weight=1579.61 1379.31 200.305 847.698 531.61 183.53 16.7748
internal_count=4990 4401 589 2661 1740 530 59
is_linear=0
shrinkage=0.0350769


Tree=32
num_leaves=8
num_cat=0
split_feature=1 0 0 1 1 3 1
split_gain=24.6307 15.2258 11.87 5.36367 4.53928 3.40871 2.23383
threshold=0.076417477935337791 -0.0054772993359813995 -0.011585959958426871 0.068501545734827307 0.15897737986486413 0.47680272765076248 0.1513747067837444
decision_type=2 2 2 2 2 2 2
left_child=1 3 6 -1 -4 -3 -2
right_child=2 5 4 -5 -6 -7 -8
leaf_value=0.026977045380401448 0.025041470020711186 0.0028468372219937039 -0.0071567968625449521 -0.00020010963855599133 -0.019515947498765989 -0.00090953739216323003 0.0027045044129439277
leaf_weight=40.43318310379982 15.410424917936327 902.85884460806847 402.51850950717926 11.469605922698973 40.217011243104935 443.10673904418945 8.5732021033763868
leaf_count=111 43 2411 1077 31 111 1183 23
internal_value=-4.2244e-07 0.00232908 -0.00697749 0.0209714 -0.00827947 0.0016102 0.0170569
internal_weight=1864.59 1397.87 466.719 51.9028 442.736 1345.97 23.9836
internal_count=4990 3736 1254 142 1188 3594 66
is_linear=0
shrinkage=0.0350769


Tree=33
num_leaves=6
num_cat=0
split_feature=0 1 3 1 3
split_gain=7.89668 6.70128 12.9694 6.64586 4.80516
threshold=0.012750974992699173 0.047063360953162173 0.63350456429155988 0.10522702023528333 0.19928370098591761
decision_type=2 2 2 2 2
left_child=1 2 -1 -2 -3
right_child=3 4 -4 -5 -6
leaf_value=0.00085538104450126942 0.050554820208944168 0.0019654116328887972 0.01988513684527422 0.0018775805018606498 -0.003818448024215449
leaf_weight=263.26863127946854 6.9537998586893064 259.32250206172466 52.923085719347 6.8508464843034744 554.90862190723419
leaf_count=1128 27 1124 210 30 2471
internal_value=2.86435e-05 -0.000293374 0.00404052 0.0263977 -0.00197636
internal_weight=1144.23 1130.42 316.192 13.8046 814.231
internal_count=4990 4933 1338 57 3595
is_linear=0
shrinkage=0.0350769


Tree=34
num_leaves=8
num_cat=0
split_feature=1 0 1 0 1 1 1
split_gain=24.5775 7.74183 8.57482 7.52039 6.90213 1.7598 1.06256
threshold=0.085649431925119451 -0.0079522013901073812 0.048617755753583444 -0.011585959958426871 0.15897737986486413 0.15897737986486413 0.06912133701407594
decision_type=2 2 2 2 2 2 2
left_child=1 6 -3 5 -5 -2 -1
right_child=3 2 -4 4 -6 -7 -8
leaf_value=-0.03021733182766357 -0.02341120129455198 -0.0055294518169498822 0.00045839003459549138 0.0077779603688933963 0.023331136622593021 -0.0001119253386348234 -0.013757914002875189
leaf_weight=12.308588549494745 10.214290767908098 484.988510876894 748.22869449853897 268.10644397139549 40.395979940891266 6.5439875721931449 7.9379172027111045
leaf_count=47 39 1593 2353 797 111 22 28
internal_value=-2.02301e-05 -0.00224967 -0.00189645 0.00857141 0.00981453 -0.014313 -0.0237642
internal_weight=1578.72 1253.46 1233.22 325.261 308.502 16.7583 20.2465
internal_count=4990 4021 3946 969 908 61 75
is_linear=0
shrinkage=0.0350769


Tree=35
num_leaves=8
num_cat=0
split_feature=1 0 0 1 0 1 0
split_gain=23.046 14.7032 11.131 4.18159 3.19504 2.32906 2.18338
threshold=0.076417477935337791 -0.0072744876557391249 -0.013309289094256991 0.15897737986486413 0.0065393403898202926 0.15897737986486413 -0.0099516411099326834
decision_type=2 2 2 2 2 2 2
left_child=1 6 5 -4 -3 -2 -1
right_child=2 4 3 -5 -6 -7 -8
leaf_value=0.038484494892528115 0.031291412461158102 0.002015113710980807 -0.0067626657789342055 -0.018553702769120013 -0.0078664654522050976 0.0055393086639422993 0.019086122119640433
leaf_weight=11.407942503690721 10.303895980119707 1325.4961993694305 407.66268712282181 40.701331734657288 41.520295023918152 7.4421147406101218 19.078091681003571
leaf_count=32 29 3540 1092 113 111 20 53
internal_value=-4.48588e-07 0.00225228 -0.00675463 -0.00783303 0.00171498 0.0204918 0.026345
internal_weight=1863.61 1397.5 466.11 448.364 1367.02 17.746 30.486
internal_count=4990 3736 1254 1205 3651 49 85
is_linear=0
shrinkage=0.0350769


Tree=36
num_leaves=6
num_cat=0
split_feature=0 1 3 1 3
split_gain=7.40288 6.32382 10.1173 6.0187 4.41768
threshold=0.012750974992699173 0.04741678464240081 0.63350456429155988 0.10522702023528333 0.19928370098591761
decision_type=2 2 2 2 2
left_child=1 2 -1 -2 -3
right_child=3 4 -4 -5 -6
leaf_value=0.0010432875976843553 0.047863335088662855 0.0018298987626177363 0.017458312585946954 0.001872470800388139 -0.0037608200031892711
leaf_weight=275.57479393482208 7.1595217138528806 255.83013445138931 55.502509757876396 6.8515521138906479 543.01446597278118
leaf_count=1180 27 1108 218 30 2427
internal_value=3.31798e-05 -0.000281039 0.00379514 0.0253734 -0.00197039
internal_weight=1143.93 1129.92 331.077 14.0111 798.845
internal_count=4990 4933 1398 57 3535
is_linear=0
shrinkage=0.0350769


Tree=37
num_leaves=8
num_cat=0
split_feature=1 1 0 0 1 3 3
split_gain=22.9986 9.06822 7.73262 6.05248 5.33078 4.8158 1.67314
threshold=0.1029780783190193 0.049643227282413417 -0.01063216511838627 0.0011253594743906305 0.028277959040450596 0.70021951588447073 0.38450314838692107
decision_type=2 2 2 2 2 2 2
left_child=1 4 6 -3 -1 -4 -2
right_child=2 3 5 -5 -6 -7 -8
leaf_value=-0.030099255341302141 -2.1641537073549454e-05 0.0030022347152064621 0.015071680138819899 -0.0030392284778774227 -0.004729136399079732 -0.0056882930010371266 -0.022596525140410727
leaf_weight=10.394912987947462 7.6372935771942165 517.13805261254311 164.31509619951248 336.97766596078873 517.74046090245247 15.003945440053938 8.5747830122709257
leaf_count=40 26 1631 468 1049 1700 44 32
internal_value=-2.26232e-05 -0.00161543 0.0112373 0.000618672 -0.00522848 0.0133347 -0.0119618
internal_weight=1577.78 1382.25 195.531 854.116 528.135 179.319 16.2121
internal_count=4990 4420 570 2680 1740 512 58
is_linear=0
shrinkage=0.0350769


Tree=38
num_leaves=8
num_cat=0
split_feature=1 0 0 1 3 3 1
split_gain=21.4081 13.9588 10.4314 5.32596 4.01145 3.16222 2.21652
threshold=0.076417477935337791 -0.0054772993359813995 -0.013309289094256991 0.056612624696094564 0.17827857415415108 0.47680272765076248 0.15897737986486413
decision_type=2 2 2 2 2 2 2
left_child=1 3 6 -1 -4 -3 -2
right_child=2 5 4 -5 -6 -7 -8
leaf_value=0.033066933349286579 0.030571275396834682 0.0026750693331557777 -0.012366446829804836 0.010280783215427927 -0.005266099062861157 -0.00094335921838219596 0.0053880579020637587
leaf_weight=22.172752052545547 10.193844735622408 902.54916101694107 144.57438549399376 29.298175841569901 303.24977451562881 443.02888908982277 7.4378405511379233
leaf_count=62 29 2411 389 80 816 1183 20
internal_value=-1.21404e-06 0.00216946 -0.00651641 0.0200966 -0.00755836 0.00148371 0.0199479
internal_weight=1862.5 1397.05 465.456 51.4709 447.824 1345.58 17.6317
internal_count=4990 3736 1254 142 1205 3594 49
is_linear=0
shrinkage=0.0350769


Tree=39
num_leaves=7
num_cat=0
split_feature=0 1 3 1 1 3
split_gain=7.09331 11.9341 5.48156 5.11993 4.04957 3.48663
threshold=0.0096305370940877894 0.059078564735148581 0.7419228870173844 0.12240399894472027 0.051528107766587339 0.5791284056279703
decision_type=2 2 2 2 2 2
left_child=2 -2 3 -1 -4 -3
right_child=1 5 4 -5 -6 -7
leaf_value=-0.0005645357235042743 0.063807222038489098 -0.0012121679306588116 0.015525348386056769 -0.011229575195761364 0.0013640069870062197 0.031689587164477055
leaf_weight=954.86856995522976 5.4919507801532772 17.614235863089565 43.067421346902847 58.793640688061714 58.720263481140137 5.1132578253746024
leaf_count=4193 19 75 167 266 250 20
internal_value=3.54633e-05 0.0174033 -0.000403921 -0.00118312 0.00735582 0.00619011
internal_weight=1143.67 28.2194 1115.45 1013.66 101.788 22.7275
internal_count=4990 114 4876 4459 417 95
is_linear=0
shrinkage=0.0350769


Tree=40
num_leaves=8
num_cat=0
split_feature=1 1 0 3 3 1 3
split_gain=21.4517 8.60005 6.72124 6.17641 5.2929 5.20758 1.69718
threshold=0.10438482044404497 0.049643227282413417 -0.01063216511838627 0.84640101014697888 0.70021951588447073 0.028277959040450596 0.38450314838692107
decision_type=2 2 2 2 2 2 2
left_child=1 5 6 -3 -4 -1 -2
right_child=2 3 4 -5 -6 -7 -8
leaf_value=-0.029882746921444884 0.0011590501005548054 0.0011629083644323554 0.014781320207318427 -0.01568922353369261 -0.0079532609500910702 -0.0045798337720181067 -0.022051875119364232
leaf_weight=10.205635517835615 7.3576148450374594 832.95717489719391 160.75931656360626 27.647064462304115 13.6712309718132 516.14702540636063 8.1911171823739988
leaf_count=40 25 2611 455 88 40 1700 31
internal_value=-2.44434e-05 -0.00153858 0.0110296 0.000621531 0.0129995 -0.00507044 -0.0110685
internal_weight=1576.94 1386.96 189.979 860.604 174.431 526.353 15.5487
internal_count=4990 4439 551 2699 495 1740 56
is_linear=0
shrinkage=0.0350769


Tree=41
num_leaves=8
num_cat=0
split_feature=1 0 0 1 0 0 1
split_gain=19.9702 13.5165 9.83343 3.81894 2.98522 2.12469 2.04997
threshold=0.076417477935337791 -0.0072744876557391249 -0.011585959958426871 0.10756039729960844 0.0065393403898202926 -0.0099516411099326834 0.1513747067837444
decision_type=2 2 2 2 2 2 2
left_child=1 5 6 -4 -3 -1 -2
right_child=2 4 3 -5 -6 -7 -8
leaf_value=0.03744910199129127 0.02351185455252474 0.0018730674538954245 -0.0050454668442234431 -0.011854755899442663 -0.0076813585796290454 0.018169062100394685 0.0020145590596943154
leaf_weight=11.207585215568544 15.096189051866533 1325.0931135118008 283.54113939404488 157.70525923371315 41.495385497808456 18.879342764616013 8.5484093129634839
leaf_count=32 43 3540 758 430 111 53 23
internal_value=-1.08097e-06 0.00209496 -0.00629824 -0.00747917 0.00158295 0.025351 0.0157398
internal_weight=1861.57 1396.68 464.891 441.246 1366.59 30.0869 23.6446
internal_count=4990 3736 1254 1188 3651 85 66
is_linear=0
shrinkage=0.0350769


Tree=42
num_leaves=6
num_cat=0
split_feature=0 1 3 1 3
split_gain=6.69475 5.82678 11.1152 5.20029 4.41951
threshold=0.012750974992699173 0.047063360953162173 0.63350456429155988 0.10522702023528333 0.19928370098591761
decision_type=2 2 2 2 2
left_child=1 2 -1 -2 -3
right_child=3 4 -4 -5 -6
leaf_value=0.0007820129638429099 0.044169292966775846 0.0019331008665592218 0.018196594595004931 0.0018355122973348333 -0.003618089183148738
leaf_weight=263.72948171198368 7.4507032036781293 259.49910792708397 54.396950259804726 6.8549820631742477 551.43182119727135
leaf_count=1128 27 1124 210 30 2471
internal_value=3.87123e-05 -0.000263417 0.00375976 0.0238838 -0.0018417
internal_weight=1143.36 1129.06 318.126 14.3057 810.931
internal_count=4990 4933 1338 57 3595
is_linear=0
shrinkage=0.0350769


Tree=43
num_leaves=8
num_cat=0
split_feature=1 1 0 0 1 0 3
split_gain=19.7463 7.9259 6.79623 5.56333 5.08741 4.62186 1.64119
threshold=0.10184690130041031 0.049643227282413417 -0.01063216511838627 0.0011253594743906305 0.028277959040450596 0.010357004403952043 0.38450314838692107
decision_type=2 2 2 2 2 2 2
left_child=1 4 6 -3 -1 -4 -2
right_child=2 3 5 -5 -6 -7 -8
leaf_value=-0.029678896264709001 0.0002143202925872352 0.0028379581766670237 0.013751984365330082 -0.0029824476762993551 -0.0044441448981852932 -0.005960495257146016 -0.022189517178383744
leaf_weight=10.021075576543806 7.5952692329883602 515.9927854090929 170.99543303251266 332.10161885619164 514.70299768447876 16.004124522209167 8.5538212954997999
leaf_count=40 26 1626 485 1035 1700 45 33
internal_value=-2.72736e-05 -0.00153767 0.0101795 0.000558771 -0.00492607 0.0120649 -0.0116525
internal_weight=1575.97 1372.82 203.149 848.094 524.724 187 16.1491
internal_count=4990 4401 589 2661 1740 530 59
is_linear=0
shrinkage=0.0350769


Tree=44
num_leaves=8
num_cat=0
split_feature=1 0 0 1 3 3 1
split_gain=18.6931 13.0234 9.30516 5.16945 3.78077 2.93945 2.13181
threshold=0.076417477935337791 -0.0054772993359813995 -0.013309289094256991 0.056612624696094564 0.17827857415415108 0.47680272765076248 0.15897737986486413
decision_type=2 2 2 2 2 2 2
left_child=1 3 6 -1 -4 -3 -2
right_child=2 5 4 -5 -6 -7 -8
leaf_value=0.032277782164495672 0.029590793346033314 0.0025153981907061504 -0.011754226194423444 0.0097356287250384196 -0.0048522551095763347 -0.0009736965860110985 0.0047831686554313099
leaf_weight=21.925270467996597 10.02098533511162 902.2133466899395 144.16676330566406 29.169152438640594 302.64876079559326 442.94089767336845 7.4163373112678519
leaf_count=62 29 2411 389 80 816 1183 20
internal_value=-6.88159e-07 0.00202673 -0.00609818 0.0194088 -0.0070792 0.00136649 0.0190398
internal_weight=1860.5 1396.25 464.253 51.0944 446.816 1345.15 17.4373
internal_count=4990 3736 1254 142 1205 3594 49
is_linear=0
shrinkage=0.0350769


Tree=45
num_leaves=8
num_cat=0
split_feature=3 1 1 3 0 0 0
split_gain=6.44122 5.02389 6.32173 4.5154 4.31195 3.04561 1.04854
threshold=0.73812139571402879 0.096004860938606454 0.05260923686867585 0.046785047080399315 0.0096305370940877894 0.0040505529067832455 0.003067857770566285
decision_type=2 2 2 2 2 2 2
left_child=3 2 -2 5 -5 -1 -3
right_child=1 6 -4 4 -6 -7 -8
leaf_value=0.0092261234242448312 0.01431607040708088 0.036886833979174957 -0.0035344764387338482 -0.0018855191831806302 0.013646604084846808 -0.012755615378580741 0.017595719298524947
leaf_weight=75.426169261336327 48.000644132494926 7.3360808938741666 49.669349685311317 924.89816941320896 22.527094438672066 8.643925264477728 6.572492927312851
leaf_count=326 184 29 214 4084 91 37 25
internal_value=4.11309e-05 0.00804705 0.00523831 -0.000824882 -0.00151621 0.006966 0.0277708
internal_weight=1143.07 111.579 97.67 1031.5 947.425 84.0701 13.9086
internal_count=4990 452 398 4538 4175 363 54
is_linear=0
shrinkage=0.0350769


Tree=46
num_leaves=8
num_cat=0
split_feature=1 1 3 3 1 0 0
split_gain=18.4208 7.61348 6.12339 5.88942 4.9707 4.82045 1.39499
threshold=0.10438482044404497 0.049643227282413417 0.70021951588447073 0.84640101014697888 0.028277959040450596 -0.0068957603859243757 -0.00014570754571396891
decision_type=2 2 2 2 2 2 2
left_child=1 4 5 -3 -1 -2 -4
right_child=2 3 6 -5 -6 -7 -8
leaf_value=-0.029479049778544354 -0.0015901997281866688 0.0011154111829029568 -0.023443059781141549 -0.015398937506707648 -0.0043035737762811147 0.014525286170037338 -0.002139157194012743
leaf_weight=9.834387853741644 26.98384590446949 833.37498287856579 6.3989255726337424 27.444998249411583 513.1961714476347 148.60971090197563 9.2463487684726697
leaf_count=40 86 2611 21 88 1700 417 27
internal_value=-2.89856e-05 -0.00143914 0.0101752 0.000588894 -0.00477694 0.0120488 -0.0108525
internal_weight=1575.09 1383.85 191.239 860.82 523.031 175.594 15.6453
internal_count=4990 4439 551 2699 1740 503 48
is_linear=0
shrinkage=0.0350769


Tree=47
num_leaves=8
num_cat=0
split_feature=1 0 0 1 1 0 1
split_gain=17.4364 12.6754 8.75725 3.64864 2.77117 2.09292 2.08211
threshold=0.076417477935337791 -0.0072744876557391249 -0.013309289094256991 0.15897737986486413 0.028277959040450596 -0.0099516411099326834 0.15897737986486413
decision_type=2 2 2 2 2 2 2
left_child=1 5 6 -4 -3 -1 -2
right_child=2 4 3 -5 -6 -7 -8
leaf_value=0.036719308676891306 0.029078221143768054 0.016645374124614015 -0.0058492355525013003 -0.016954872862995282 0.0012992057389839119 0.01746103575395461 0.0044982418037615556
leaf_weight=11.039493978023531 9.9210870265960711 14.634659200906752 406.34804683923721 39.979945749044418 1351.4657775163651 18.711867094039917 7.4049780666828147
leaf_count=32 29 40 1092 113 3611 53 20
internal_value=-7.31784e-07 0.00195689 -0.00589423 -0.00684403 0.00146361 0.024607 0.018573
internal_weight=1859.51 1395.85 463.654 446.328 1366.1 29.7514 17.3261
internal_count=4990 3736 1254 1205 3651 85 49
is_linear=0
shrinkage=0.0350769


Tree=48
num_leaves=8
num_cat=0
split_feature=3 1 1 1 1 3 0
split_gain=6.07307 7.06473 7.94732 7.81065 4.46726 5.43431 2.11494
threshold=0.7081202509822403 0.045225061786528763 0.043123028346437747 0.12966346163030953 0.12240399894472027 0.046785047080399315 -0.0072744876557391249
decision_type=2 2 2 2 2 2 2
left_child=4 2 -2 -3 5 -1 -6
right_child=1 3 -4 -5 6 -7 -8
leaf_value=0.0086116003548440678 0.010308384861954517 0.00031092167756385721 0.04883883519166448 0.042560053677394488 0.003490910293980493 -0.0010890988596513823 -0.012745035314991804
leaf_weight=77.446909189224243 23.146566808223724 101.06727237999439 9.2061617970466596 5.6867920756340018 12.102182671427725 860.57844080030918 53.556464627385139
leaf_count=332 86 427 33 20 56 3792 244
internal_value=4.46552e-05 0.00691322 0.0212725 0.00256153 -0.000907302 -0.000288173 -0.00975243
internal_weight=1142.79 139.107 32.3527 106.754 1003.68 938.025 65.6586
internal_count=4990 566 119 447 4424 4124 300
is_linear=0
shrinkage=0.0350769


Tree=49
num_leaves=8
num_cat=0
split_feature=1 1 3 0 1 0 3
split_gain=17.1935 7.01672 6.01256 5.99149 5.43917 4.36177 1.58502
threshold=0.10184690130041031 0.048617755753583444 0.042320751455080317 -0.01063216511838627 0.038217244215846026 0.010357004403952043 0.38450314838692107
decision_type=2 2 2 2 2 2 2
left_child=1 4 -3 6 -1 -5 -2
right_child=3 2 -4 5 -6 -7 -8
leaf_value=0.00088449303040451753 0.00042430029410299994 -0.010702511951750001 0.0011424805931830367 0.012837985297354736 -0.0072981604692256797 -0.0062859215207281089 -0.021750067644300604
leaf_weight=142.12000970542431 7.5586131513118735 56.282221645116806 834.66360174119473 172.29056477546692 336.85646417737007 16.040245622396469 8.3451027870178205
leaf_count=480 26 177 2624 485 1120 45 33
internal_value=-3.09791e-05 -0.00144643 0.000394217 0.00946332 -0.00487024 0.0112092 -0.0112112
internal_weight=1574.16 1369.92 890.946 204.235 478.976 188.331 15.9037
internal_count=4990 4401 2801 589 1600 530 59
is_linear=0
shrinkage=0.0350769


Tree=50
num_leaves=8
num_cat=0
split_feature=1 0 0 3 0 1 1
split_gain=16.1913 12.2036 8.31541 3.56769 2.70585 2.07835 2.03045
threshold=0.076417477935337791 -0.0072744876557391249 -0.013309289094256991 0.17827857415415108 0.0065393403898202926 0.057589111920944507 0.15897737986486413
decision_type=2 2 2 2 2 2 2
left_child=1 5 6 -4 -3 -1 -2
right_child=2 4 3 -5 -6 -7 -8
leaf_value=0.035377566121421303 0.028662392452337863 0.0016783549300826211 -0.011158720405935713 -0.0044448802506069753 -0.0074229896558120735 0.016454674192763398 0.0043394915071545024
leaf_weight=12.072589427232744 9.8366480767726916 1324.4144221246243 143.72728770971298 302.02275487780571 41.44930499792099 17.483920603990555 7.3993045389652243
leaf_count=36 29 3540 389 816 111 49 20
internal_value=-1.21919e-06 0.0018847 -0.0056853 -0.00660969 0.00140216 0.0241839 0.0182207
internal_weight=1858.41 1395.42 462.986 445.75 1365.86 29.5565 17.236
internal_count=4990 3736 1254 1205 3651 85 49
is_linear=0
shrinkage=0.0350769


Tree=51
num_leaves=7
num_cat=0
split_feature=0 1 3 1 1 3
split_gain=6.03357 10.5725 4.49858 4.6611 3.49376 3.14908
threshold=0.0096305370940877894 0.059078564735148581 0.7419228870173844 0.12240399894472027 0.11354369943883279 0.5791284056279703
decision_type=2 2 2 2 2 2
left_child=2 -2 3 -1 -4 -3
right_child=1 5 4 -5 -6 -7
leaf_value=-0.00049018890743752542 0.058419297095302428 -0.001752991633740563 0.0050052019125265516 -0.01075896892293584 0.032549419336572849 0.029046583869732533
leaf_weight=952.66223502159119 5.7543881833553341 17.855576962232593 97.237412139773369 57.67959663271904 6.0165445506572715 5.295915648341178
leaf_count=4193 19 75 396 266 21 20
internal_value=4.69718e-05 0.0158686 -0.000363713 -0.00107643 0.00661019 0.00529243
internal_weight=1142.5 28.9059 1113.6 1010.34 103.254 23.1515
internal_count=4990 114 4876 4459 417 95
is_linear=0
shrinkage=0.0350769


Tree=52
num_leaves=8
num_cat=0
split_feature=1 1 3 3 1 0 0
split_gain=16.0153 6.77473 5.64903 5.5402 4.84283 4.24632 1.31974
threshold=0.10438482044404497 0.049643227282413417 0.84640101014697888 0.70021951588447073 0.028277959040450596 -0.0068957603859243757 -0.00014570754571396891
decision_type=2 2 2 2 2 2 2
left_child=1 4 -3 5 -1 -2 -5
right_child=3 2 -4 6 -6 -7 -8
leaf_value=-0.029219680192595646 -0.0016170900364192459 0.0010697020809506297 -0.015154118290665569 -0.023014079930955521 -0.0040507816408701684 0.013525019619435577 -0.0021925706309365153
leaf_weight=9.5827407538890821 26.876236066222191 833.73488254845142 27.270146042108536 6.2929933220148078 510.48752728104591 149.75387823581696 9.252094238996504
leaf_count=40 86 2611 88 21 1700 417 27
internal_value=-3.33295e-05 -0.0013535 0.000555854 0.00945413 -0.00451454 0.011221 -0.0106216
internal_weight=1573.25 1381.08 861.005 192.175 520.07 176.63 15.5451
internal_count=4990 4439 2699 551 1740 503 48
is_linear=0
shrinkage=0.0350769


Tree=53
num_leaves=8
num_cat=0
split_feature=1 0 0 1 1 3 1
split_gain=15.1297 11.8001 7.89439 4.97658 3.42987 2.70958 1.89476
threshold=0.076417477935337791 -0.0054772993359813995 -0.011585959958426871 0.056612624696094564 0.15897737986486413 0.47680272765076248 0.1513747067837444
decision_type=2 2 2 2 2 2 2
left_child=1 3 6 -1 -4 -3 -2
right_child=2 5 4 -5 -6 -7 -8
leaf_value=0.03125028380618762 0.022052455413438421 0.0023003353768536556 -0.0055874901079949824 0.0089796281390847835 -0.016502075052107941 -0.0010501919510235134 0.0012603412065879077
leaf_weight=21.514802157878876 14.711539775133135 901.72376024723053 400.31310528516769 28.967124283313751 38.863721132278442 442.8065787255764 8.5131200253963453
leaf_count=62 43 2411 1077 80 111 1183 23
internal_value=-6.62054e-07 0.00182199 -0.00549938 0.0184711 -0.00655335 0.00119688 0.014431
internal_weight=1857.41 1395.01 462.401 50.4819 439.177 1344.53 23.2247
internal_count=4990 3736 1254 142 1188 3594 66
is_linear=0
shrinkage=0.0350769


Tree=54
num_leaves=6
num_cat=0
split_feature=0 1 3 3 3
split_gain=5.81778 5.19641 9.49978 4.61294 4.13912
threshold=0.012750974992699173 0.047063360953162173 0.63350456429155988 0.4045568806092435 0.19928370098591761
decision_type=2 2 2 2 2
left_child=1 2 -1 -2 -3
right_child=3 4 -4 -5 -6
leaf_value=0.00077128882320028503 0.0044343020886659342 0.0019160684514425157 0.016713335360387004 0.043997012598982178 -0.0034604308177595979
leaf_weight=263.75376497209072 8.1765122562646848 259.54460436105728 55.703339427709579 6.5158472955226889 548.48825004696846
leaf_count=1128 33 1124 210 24 2471
internal_value=4.96011e-05 -0.000236172 0.00355108 0.0219798 -0.00173347
internal_weight=1142.18 1127.49 319.457 14.6924 808.033
internal_count=4990 4933 1338 57 3595
is_linear=0
shrinkage=0.0350769


Tree=55
num_leaves=8
num_cat=0
split_feature=1 0 1 1 1 1 1
split_gain=14.8545 6.66768 5.85927 4.87982 8.2507 5.99553 0.992254
threshold=0.085649431925119451 -0.0079522013901073812 0.048482508794541808 0.15897737986486413 0.14137458197733652 0.22668331716400944 0.06912133701407594
decision_type=2 2 2 2 2 2 2
left_child=1 6 -3 4 -2 -5 -1
right_child=3 2 -4 5 -6 -7 -8
leaf_value=-0.029187846466748414 0.0064740277390193503 -0.0045553781511090234 0.00043869477525000135 0.027680925939433085 -0.016900687304504107 0.002460604146018318 -0.012796984798751253
leaf_weight=11.158261746168138 263.39510279893875 468.87509389221668 753.6797803491354 27.324833393096924 19.989819884300232 20.149919837713242 7.6664116978645316
leaf_count=47 779 1574 2372 76 57 57 28
internal_value=-3.54382e-05 -0.00179563 -0.00147664 0.00656878 0.00482519 0.0169766 -0.0225126
internal_weight=1572.24 1241.38 1222.55 330.86 283.385 47.4748 18.8247
internal_count=4990 4021 3946 969 836 133 75
is_linear=0
shrinkage=0.0350769


Tree=56
num_leaves=8
num_cat=0
split_feature=1 0 0 3 1 0 1
split_gain=14.1284 11.4428 7.50055 3.44082 2.48845 2.09052 1.93728
threshold=0.076417477935337791 -0.0072744876557391249 -0.013309289094256991 0.17827857415415108 0.028277959040450596 -0.0099516411099326834 0.15897737986486413
decision_type=2 2 2 2 2 2 2
left_child=1 5 6 -4 -3 -1 -2
right_child=2 4 3 -5 -6 -7 -8
leaf_value=0.035762490392450975 0.027857492249612866 0.015736957991918384 -0.010668343118029429 -0.0040662538617812745 0.0011404962823710035 0.016310034146360126 0.0039923612102499232
leaf_weight=10.776659220457079 9.6589630544185656 14.525132298469542 143.31612786650658 301.36801370978355 1350.8639529943466 18.409161508083344 7.384859472513198
leaf_count=32 29 40 389 816 3611 53 20
internal_value=-5.04241e-07 0.00176031 -0.00531877 -0.00619402 0.00129577 0.0234927 0.0175171
internal_weight=1856.3 1394.57 461.728 444.684 1365.39 29.1858 17.0438
internal_count=4990 3736 1254 1205 3651 85 49
is_linear=0
shrinkage=0.0350769


Tree=57
num_leaves=6
num_cat=0
split_feature=0 1 3 1 3
split_gain=5.47799 4.91927 7.23525 4.41606 3.74754
threshold=0.012750974992699173 0.04741678464240081 0.63350456429155988 0.10522702023528333 0.19928370098591761
decision_type=2 2 2 2 2
left_child=1 2 -1 -2 -3
right_child=3 4 -4 -5 -6
leaf_value=0.00097328776690109328 0.039264601521867316 0.0017603064226200285 0.014580527840235238 0.00095358376570785187 -0.0033964139786940577
leaf_weight=275.98487322032452 7.8569230139255506 256.17254485189915 58.221752300858498 7.0002270042896271 536.62586338818073
leaf_count=1180 27 1108 218 30 2427
internal_value=5.34473e-05 -0.000225505 0.00334379 0.0212136 -0.00173015
internal_weight=1141.86 1127.01 334.207 14.8572 792.798
internal_count=4990 4933 1398 57 3535
is_linear=0
shrinkage=0.0350769


Tree=58
num_leaves=8
num_cat=0
split_feature=1 1 3 1 3 0 0
split_gain=14.0487 5.98343 5.8778 5.29884 5.15289 3.93029 1.26864
threshold=0.10438482044404497 0.048617755753583444 0.042320751455080317 0.038217244215846026 0.70021951588447073 -0.0068957603859243757 -0.00014570754571396891
decision_type=2 2 2 2 2 2 2
left_child=1 3 -3 -1 5 -2 -6
right_child=4 2 -4 -5 6 -7 -8
leaf_value=0.0012312794509654133 -0.0018329681618168112 -0.010471382451847847 0.0011332553930102302 -0.0068765955735750608 -0.022795056559984518 0.012728045673739547 -0.002331847037181368
leaf_weight=141.12504760921001 26.87993685901165 57.341017723083496 846.2923369705677 333.65257161855698 6.2379929870367041 150.55236783623695 9.2628412246704084
leaf_count=480 86 181 2658 1120 21 417 27
internal_value=-3.74402e-05 -0.00127829 0.000396871 -0.00446657 0.00882779 0.0105221 -0.0105668
internal_weight=1571.34 1378.41 903.633 474.778 192.933 177.432 15.5008
internal_count=4990 4439 2839 1600 551 503 48
is_linear=0
shrinkage=0.0350769


Tree=59
num_leaves=8
num_cat=0
split_feature=1 0 0 1 0 3 1
split_gain=13.1219 10.839 7.18155 4.86976 3.30715 2.53023 1.8557
threshold=0.076417477935337791 -0.0054772993359813995 -0.013309289094256991 0.056612624696094564 0.0047690312175440184 0.47680272765076248 0.15897737986486413
decision_type=2 2 2 2 2 2 2
left_child=1 3 6 -1 -4 -3 -2
right_child=2 5 4 -5 -6 -7 -8
leaf_value=0.03050234218857404 0.027470034828482429 0.0021657652781974799 -0.0074788089023815375 0.0083421208108942369 0.00014978096715785605 -0.0010723750965957099 0.0040671202995518508
leaf_weight=21.183397024869919 9.5686780810356158 901.38627162575722 357.23946020007133 28.77483195066452 86.936587363481522 442.72490763664246 7.3871410787105551
leaf_count=62 29 2411 968 80 237 1183 20
internal_value=-1.18457e-06 0.00169548 -0.00513044 0.0177385 -0.0059857 0.00109918 0.0172741
internal_weight=1855.2 1394.07 461.132 49.9582 444.176 1344.11 16.9558
internal_count=4990 3736 1254 142 1205 3594 49
is_linear=0
shrinkage=0.0350769


Tree=60
num_leaves=7
num_cat=0
split_feature=0 1 1 1 3 3
split_gain=5.32702 9.65044 4.22486 6.93671 6.57741 4.11406
threshold=0.0096305370940877894 0.057071089075853017 0.033098346754982237 0.036424359220734642 0.7236376449960672 0.60775585353991868
decision_type=2 2 2 2 2 2
left_child=2 -2 4 -4 -1 -3
right_child=1 5 3 -5 -6 -7
leaf_value=0.0049236670693512388 0.057319469218100487 -0.0026891542360245042 -0.015489832401056492 -0.00024882185944705127 0.044085276335563334 0.031738155892047627
leaf_weight=42.279838219285011 5.3678486943244961 18.426569625735286 38.107397153973579 1025.7852015644312 6.0293737649917594 5.5592506676912299
leaf_count=179 17 77 159 4517 21 20
internal_value=5.52178e-05 0.0148046 -0.000334055 -0.000794737 0.00981135 0.00529015
internal_weight=1141.56 29.3537 1112.2 1063.89 48.3092 23.9858
internal_count=4990 114 4876 4676 200 97
is_linear=0
shrinkage=0.0350769


Tree=61
num_leaves=8
num_cat=0
split_feature=1 1 3 3 0 0 1
split_gain=13.112 5.84102 5.53129 4.89813 3.68693 1.22615 1.09402e-05
threshold=0.10438482044404497 0.028277959040450596 0.84640101014697888 0.70021951588447073 -0.0068957603859243757 -0.00014570754571396891 0.026611041828723436
decision_type=2 2 2 2 2 2 2
left_child=1 6 -3 4 -2 -5 -1
right_child=3 2 -4 5 -6 -7 -8
leaf_value=-0.028903772183051391 -0.0018171571461280912 -0.00065948052668264373 -0.013744568324278547 -0.022525315179462883 0.012290741777264915 -0.0023561964447315043 -0.028979855076144607
leaf_weight=4.6301320195198041 26.843395918607712 1326.862292766571 40.975474968552589 6.183789297938346 151.01195222139359 9.265392601490019 4.6715252697467804
leaf_count=20 86 4263 136 21 417 27 20
internal_value=-3.90279e-05 -0.00123984 -0.00105146 0.00851582 0.0101615 -0.0104292 -0.028942
internal_weight=1570.44 1377.14 1367.84 193.305 177.855 15.4492 9.30166
internal_count=4990 4439 4399 551 503 48 40
is_linear=0
shrinkage=0.0350769


Tree=62
num_leaves=8
num_cat=0
split_feature=1 0 0 0 1 0 1
split_gain=12.2503 10.5191 6.81304 3.37086 2.42059 2.05584 1.75382
threshold=0.076417477935337791 -0.0072744876557391249 -0.011585959958426871 0.0047690312175440184 0.028277959040450596 -0.0099516411099326834 0.1513747067837444
decision_type=2 2 2 2 2 2 2
left_child=1 5 6 -4 -3 -1 -2
right_child=2 4 3 -5 -6 -7 -8
leaf_value=0.034982894676282399 0.021121472849560102 0.015458863799475003 -0.0074694881059363567 0.00024860789466106867 0.0010430773517629828 0.015506280761717128 0.0010381029331975693
leaf_weight=10.530748248100283 14.431094259023668 14.485029160976408 350.73754972219467 86.868707150220871 1350.467843234539 18.179593533277512 8.5018950998783094
leaf_count=32 43 40 951 237 3611 53 23
internal_value=-9.40269e-07 0.00163803 -0.00496071 -0.00593738 0.00119606 0.0226502 0.013676
internal_weight=1854.2 1393.66 460.539 437.606 1364.95 28.7103 22.933
internal_count=4990 3736 1254 1188 3651 85 66
is_linear=0
shrinkage=0.0350769


Tree=63
num_leaves=6
num_cat=0
split_feature=0 1 0 3 3
split_gain=5.09829 4.69301 8.3163 3.94893 3.73444
threshold=0.012750974992699173 0.047063360953162173 0.0065393403898202926 0.4045568806092435 0.19928370098591761
decision_type=2 2 2 2 2
left_child=1 2 -1 -2 -3
right_child=3 4 -4 -5 -6
leaf_value=0.0026076079914000359 0.0040380813025468415 0.0018172644426470437 0.044871186831883271 0.040196093434393475 -0.0032900843146081945
leaf_weight=314.74575054645538 8.2282457947731 260.143270149827 5.8346748650073996 6.7773026376962653 545.54546242952347
leaf_count=1319 33 1124 19 24 2471
internal_value=5.78724e-05 -0.000212737 0.00337682 0.020369 -0.00164101
internal_weight=1141.27 1126.27 320.58 15.0055 805.689
internal_count=4990 4933 1338 57 3595
is_linear=0
shrinkage=0.0350769


Tree=64
num_leaves=8
num_cat=0
split_feature=1 1 3 3 0 0 1
split_gain=12.278 5.59897 5.29761 4.63516 3.44648 1.18887 1.11664e-05
threshold=0.10438482044404497 0.028277959040450596 0.84640101014697888 0.70021951588447073 -0.0068957603859243757 -0.00014570754571396891 0.026611041828723436
decision_type=2 2 2 2 2 2 2
left_child=1 6 -3 4 -2 -5 -1
right_child=3 2 -4 5 -6 -7 -8
leaf_value=-0.028664927866414142 -0.0017723823907801464 -0.00063979222690865162 -0.01348740018303041 -0.022235060922587462 0.011876166055544687 -0.002313792872466794 -0.028742856784136149
leaf_weight=4.5025876015424711 26.791108563542366 1326.2289625257254 40.700970575213432 6.1235039830207816 151.43154910206795 9.2591886222362501 4.5469940900802612
leaf_count=20 86 4263 136 21 417 27 20
internal_value=-4.06855e-05 -0.00120439 -0.00102234 0.00822995 0.00982446 -0.010244 -0.0287041
internal_weight=1569.58 1375.98 1366.93 193.605 178.223 15.3827 9.04958
internal_count=4990 4439 4399 551 503 48 40
is_linear=0
shrinkage=0.0350769


Tree=65
num_leaves=8
num_cat=0
split_feature=1 0 0 3 0 0 1
split_gain=11.4582 10.1223 6.51124 3.21028 2.34866 2.01706 1.76169
threshold=0.076417477935337791 -0.0072744876557391249 -0.013309289094256991 0.17827857415415108 0.0065393403898202926 -0.0099516411099326834 0.15897737986486413
decision_type=2 2 2 2 2 2 2
left_child=1 5 6 -4 -3 -1 -2
right_child=2 4 3 -5 -6 -7 -8
leaf_value=0.034582479216029915 0.026736069965994536 0.0014087401025912518 -0.0099463244566715125 -0.0035564158082224471 -0.0070794723160673458 0.015198730113717761 0.003829948953013201
leaf_weight=10.401654958724977 9.3875712752342242 1323.3842336237431 142.66516536474228 300.49739193916321 41.361347436904907 18.097050994634628 7.3778312206268302
leaf_count=32 29 3540 389 816 111 53 20
internal_value=-1.18126e-06 0.00158354 -0.00480172 -0.00561349 0.00115149 0.0222735 0.0166559
internal_weight=1853.17 1393.24 459.928 443.163 1364.75 28.4987 16.7654
internal_count=4990 3736 1254 1205 3651 85 49
is_linear=0
shrinkage=0.0350769


Tree=66
num_leaves=8
num_cat=0
split_feature=3 1 1 3 0 0 0
split_gain=5.0027 4.47468 3.83443 3.72462 3.35955 2.87422 0.293862
threshold=0.75820110685919218 0.096004860938606454 0.046753542461689147 0.046785047080399315 0.0096305370940877894 0.0040505529067832455 0.003067857770566285
decision_type=2 2 2 2 2 2 2
left_child=3 2 -2 5 -5 -1 -3
right_child=1 6 -4 4 -6 -7 -8
leaf_value=0.0085609688465069743 0.016093589667152179 0.03336531366692097 -0.00019859553911775511 -0.0015936572139108351 0.011694315482498264 -0.012775869441042705 0.022329794125149065
leaf_weight=76.474119186401367 25.854487270116806 6.0133862644433957 56.869539469480515 937.24254766106606 24.00995084643364 8.6460812985897046 5.8641867786645889
leaf_count=326 91 23 241 4157 94 37 21
internal_value=5.93791e-05 0.00778403 0.00489335 -0.000639 -0.00126175 0.00639368 0.0279169
internal_weight=1140.97 94.6016 82.724 1046.37 961.252 85.1202 11.8776
internal_count=4990 376 332 4614 4251 363 44
is_linear=0
shrinkage=0.0350769


Tree=67
num_leaves=8
num_cat=0
split_feature=1 1 3 0 0 3 1
split_gain=11.4949 5.42561 4.63468 4.38895 3.95414 1.51892 1.0204e-05
threshold=0.10184690130041031 0.028277959040450596 0.84640101014697888 -0.01063216511838627 0.010357004403952043 0.38450314838692107 0.026611041828723436
decision_type=2 2 2 2 2 2 2
left_child=1 6 -3 5 -5 -2 -1
right_child=3 2 -4 4 -6 -7 -8
leaf_value=-0.028506910204648576 0.0010371406627070121 -0.0006750747665303391 -0.01285233039360952 0.010654505717761584 -0.0074822942753952695 -0.021013343437324181 -0.028582127245334193
leaf_weight=4.4163307696580869 7.4431814253330213 1313.7059357315302 39.615533977746964 174.95805358886719 16.155877679586411 7.9478428363800049 4.4603070169687271
leaf_count=20 26 4228 133 485 45 33 20
internal_value=-4.17321e-05 -0.00121082 -0.00103154 0.00767012 0.00912131 -0.0103496 -0.0285447
internal_weight=1568.7 1362.2 1353.32 206.505 191.114 15.391 8.87664
internal_count=4990 4401 4361 589 530 59 40
is_linear=0
shrinkage=0.0350769


Tree=68
num_leaves=8
num_cat=0
split_feature=1 0 0 1 0 3 1
split_gain=10.7477 9.76569 6.16974 4.81816 3.12269 2.40032 1.71448
threshold=0.076417477935337791 -0.0054772993359813995 -0.013309289094256991 0.068501545734827307 0.0047690312175440184 0.47680272765076248 0.15897737986486413
decision_type=2 2 2 2 2 2 2
left_child=1 3 6 -1 -4 -3 -2
right_child=2 5 4 -5 -6 -7 -8
leaf_value=0.022814391555386029 0.026334030380258555 0.0020097648708866881 -0.0068966470528851838 -0.0033602760317659945 0.00052778348990001735 -0.001144751746833479 0.0036753447056778635
leaf_weight=38.089828580617905 9.2826418280601519 900.96411794424057 355.97427177429199 11.196368008852003 86.672876417636871 442.57764250040054 7.3714616298675528
leaf_count=111 29 2411 968 31 237 1183 20
internal_value=-1.23344e-06 0.00153318 -0.00465434 0.0168683 -0.0054429 0.000970632 0.0163048
internal_weight=1852.13 1392.83 459.301 49.2862 442.647 1343.54 16.6541
internal_count=4990 3736 1254 142 1205 3594 49
is_linear=0
shrinkage=0.0350769


Tree=69
num_leaves=8
num_cat=0
split_feature=3 1 1 3 1 0 0
split_gain=4.68392 4.23049 3.69687 4.44861 3.61237 1.43689 0.268509
threshold=0.75820110685919218 0.096004860938606454 0.12240399894472027 0.046785047080399315 0.046753542461689147 -0.0072744876557391249 0.003067857770566285
decision_type=2 2 2 2 2 2 2
left_child=2 4 3 -1 -2 -4 -3
right_child=1 6 5 -5 -6 -7 -8
leaf_value=0.0079294733569171896 0.015507119734110529 0.032113137156435552 0.00193689332002699 -0.00077359121081366764 -0.00025326100138351067 -0.01119406458044527 0.021631874110235889
leaf_weight=78.563670694828033 26.092540115118027 6.1096637398004514 12.704179197549818 901.20964199304581 56.946407184004784 53.154402166604996 5.9223684668540955
leaf_count=332 91 23 59 3976 241 247 21
internal_value=6.12813e-05 0.00751555 -0.000616476 -7.57311e-05 0.00469897 -0.00866109 0.0269541
internal_weight=1140.7 95.071 1045.63 979.773 83.0389 65.8586 12.032
internal_count=4990 376 4614 4308 332 306 44
is_linear=0
shrinkage=0.0350769


Tree=70
num_leaves=8
num_cat=0
split_feature=1 1 0 1 3 1 0
split_gain=10.8022 5.30268 5.57516 4.75171 4.29886 3.5352 1.13249
threshold=0.10438482044404497 0.049643227282413417 0.0011253594743906305 0.038217244215846026 0.70021951588447073 0.15897737986486413 -0.00014570754571396891
decision_type=2 2 2 2 2 2 2
left_child=1 3 -3 -1 5 -2 -6
right_child=4 2 -4 -5 6 -7 -8
leaf_value=0.0015517934486688509 0.0064284652859237217 0.0028296428781649395 -0.0029468690740650626 -0.0060234389714700336 -0.021951909588895476 0.017911713943367366 -0.0024340473700313454
leaf_weight=140.0996665507555 135.16707479953766 520.29125480353832 339.85477566719055 373.48869358003139 6.0410509854555121 43.634134829044342 9.2713366150856
leaf_count=480 382 1641 1058 1260 21 121 27
internal_value=-4.22555e-05 -0.00113672 0.000547269 -0.00395702 0.00770322 0.0092308 -0.0101342
internal_weight=1567.85 1373.73 860.146 513.588 194.114 178.801 15.3124
internal_count=4990 4439 2699 1740 551 503 48
is_linear=0
shrinkage=0.0350769


Tree=71
num_leaves=8
num_cat=0
split_feature=1 0 0 3 1 1 1
split_gain=10.0173 9.44988 5.83076 3.02316 2.20953 2.02548 1.68397
threshold=0.076417477935337791 -0.0072744876557391249 -0.013309289094256991 0.17827857415415108 0.033098346754982237 0.057589111920944507 0.15897737986486413
decision_type=2 2 2 2 2 2 2
left_child=1 5 6 -4 -3 -1 -2
right_child=2 4 3 -5 -6 -7 -8
leaf_value=0.033193680610055093 0.02596824741580327 -0.0048242519602650653 -0.0094752089278470307 -0.0032656242394459496 0.001402666368511929 0.013955580326604693 0.0034479548471797483
leaf_weight=11.185971915721895 9.1820203959941882 74.141566663980484 142.20520865917206 299.92592468857765 1290.1750750541687 16.917006582021713 7.3600150346755973
leaf_count=36 29 200 389 816 3451 49 20
internal_value=-1.97378e-06 0.00147901 -0.00449787 -0.00526285 0.00106427 0.021613 0.0159483
internal_weight=1851.09 1392.42 458.673 442.131 1364.32 28.103 16.542
internal_count=4990 3736 1254 1205 3651 85 49
is_linear=0
shrinkage=0.0350769


Tree=72
num_leaves=6
num_cat=0
split_feature=0 1 3 1 1
split_gain=4.68651 4.35323 6.14992 3.65185 3.63393
threshold=0.012750974992699173 0.04741678464240081 0.63350456429155988 0.048482508794541808 0.10522702023528333
decision_type=2 2 2 2 2
left_child=1 2 -1 -3 -2
right_child=4 3 -4 -5 -6
leaf_value=0.00094662451127131746 0.035265911225072194 -0.011790019429210747 0.013393056993829195 -0.0010615315845627113 0.00085659634865042661
leaf_weight=276.07600779831409 8.1949857771396619 41.184584930539131 59.344856306910515 748.645801872015 7.0035893321037284
leaf_count=1180 27 180 218 3355 30
internal_value=6.21457e-05 -0.000199181 0.00314873 -0.00162095 0.0194099
internal_weight=1140.45 1125.25 335.421 789.83 15.1986
internal_count=4990 4933 1398 3535 57
is_linear=0
shrinkage=0.0350769


Tree=73
num_leaves=8
num_cat=0
split_feature=1 1 3 0 0 3 1
split_gain=10.0509 5.3134 4.41139 4.0091 3.73282 1.44937 1.05795e-05
threshold=0.10184690130041031 0.028277959040450596 0.84640101014697888 -0.01063216511838627 0.010357004403952043 0.38450314838692107 0.026611041828723436
decision_type=2 2 2 2 2 2 2
left_child=1 6 -3 5 -5 -2 -1
right_child=3 2 -4 4 -6 -7 -8
leaf_value=-0.028375924030543832 0.00090479538293319981 -0.00061694650876870463 -0.012545408907865648 0.010017391158913622 -0.0076034725327914473 -0.020730716916396174 -0.028453146164563979
leaf_weight=4.3427184373140317 7.45228563249111 1311.9129992425442 39.288279846310616 175.602573543787 16.152525186538696 7.7940306812524796 4.3889471441507339
leaf_count=20 26 4228 133 485 45 33 20
internal_value=-4.39995e-05 -0.00114004 -0.000963785 0.00715662 0.00853309 -0.0101554 -0.0284147
internal_weight=1566.93 1359.93 1351.2 207.001 191.755 15.2463 8.73167
internal_count=4990 4401 4361 589 530 59 40
is_linear=0
shrinkage=0.0350769


Tree=74
num_leaves=8
num_cat=0
split_feature=1 0 0 0 0 1 0
split_gain=9.33928 9.18829 5.66297 3.26945 2.2166 1.5944 1.21518
threshold=0.076417477935337791 -0.0079522013901073812 -0.011585959958426871 -0.0027411947014676637 0.0065393403898202926 0.1513747067837444 -0.0099516411099326834
decision_type=2 2 2 2 2 2 2
left_child=1 6 5 -4 -3 -2 -1
right_child=2 4 3 -5 -6 -7 -8
leaf_value=0.033829122397728936 0.020044468355884273 0.0013384455717742145 -0.010641925729370248 -0.0035252303775043059 -0.0069110144865913012 0.00078995324459884154 0.016237258577640148
leaf_weight=10.110565006732942 14.058278799057009 1331.3849310576916 104.49445107579231 331.06924563646317 41.319201678037643 8.4852044284343702 9.2524662315845472
leaf_count=32 43 3565 285 903 111 23 28
internal_value=-1.04261e-06 0.00142859 -0.00434532 -0.00523257 0.00109013 0.0127972 0.025423
internal_weight=1850.17 1392.07 458.107 435.564 1372.7 22.5435 19.363
internal_count=4990 3736 1254 1188 3676 66 60
is_linear=0
shrinkage=0.0350769


Tree=75
num_leaves=7
num_cat=0
split_feature=0 1 1 1 3 3
split_gain=4.42037 8.46899 3.72903 6.83874 5.59184 3.59282
threshold=0.0096305370940877894 0.057071089075853017 0.033098346754982237 0.036424359220734642 0.7236376449960672 0.60775585353991868
decision_type=2 2 2 2 2 2
left_child=2 -2 4 -4 -1 -3
right_child=1 5 3 -5 -6 -7
leaf_value=0.0046147504092048904 0.052323275898104399 -0.0030721818421696303 -0.015369415852089119 -0.00018927390165083139 0.040022700365772587 0.028616553406867414
leaf_weight=42.577779859304428 5.5845405757427242 18.591616451740268 37.865511566400528 1023.4606231451035 6.29971158504486 5.7679134309291831
leaf_count=179 17 77 159 4517 21 20
internal_value=6.40922e-05 0.013363 -0.000294602 -0.000730864 0.0091784 0.00443116
internal_weight=1140.15 29.9441 1110.2 1061.33 48.8775 24.3595
internal_count=4990 114 4876 4676 200 97
is_linear=0
shrinkage=0.0350769


Tree=76
num_leaves=8
num_cat=0
split_feature=1 1 3 3 1 0 1
split_gain=9.40111 5.17757 4.64314 3.96968 3.40945 1.07657 1.03495e-05
threshold=0.10438482044404497 0.028277959040450596 0.84640101014697888 0.70021951588447073 0.15897737986486413 -0.00014570754571396891 0.026611041828723436
decision_type=2 2 2 2 2 2 2
left_child=1 6 -3 4 -2 -5 -1
right_child=3 2 -4 5 -6 -7 -8
leaf_value=-0.028225266190760535 0.005886105723910324 -0.00054277349122895907 -0.012696954361192255 -0.02165836152513579 0.017153398600234158 -0.002550299103008006 -0.02830240730318442
leaf_weight=4.2561781853437406 135.63826550543308 1323.0920616686344 39.836845919489861 5.9548125416040412 43.686140716075897 9.2839165925979596 4.3036104142665863
leaf_count=20 382 4263 136 21 121 27 20
internal_value=-4.51974e-05 -0.00106882 -0.000898026 0.00717042 0.00863099 -0.0100171 -0.0282641
internal_weight=1566.05 1371.49 1362.93 194.563 179.324 15.2387 8.55979
internal_count=4990 4439 4399 551 503 48 40
is_linear=0
shrinkage=0.0350769


Tree=77
num_leaves=8
num_cat=0
split_feature=1 0 0 1 0 3 1
split_gain=8.74831 8.88332 5.36259 4.7539 2.92617 2.2648 1.58544
threshold=0.076417477935337791 -0.0054772993359813995 -0.013309289094256991 0.056612624696094564 0.0047690312175440184 0.47680272765076248 0.15897737986486413
decision_type=2 2 2 2 2 2 2
left_child=1 3 6 -1 -4 -3 -2
right_child=2 5 4 -5 -6 -7 -8
leaf_value=0.029020331970892561 0.025369015224095893 0.0018583986597328454 -0.0063514457945284195 0.0067942086327448274 0.00084525219089302698 -0.0012062860640880675 0.0034225716021844539
leaf_weight=20.382333159446716 9.0118651986122149 900.57509997487068 354.64910334348679 28.252711206674576 86.461772829294205 442.45145580172539 7.3559993207454673
leaf_count=62 29 2411 968 80 237 1183 20
internal_value=-1.23979e-06 0.00138206 -0.00420928 0.0161089 -0.00494083 0.000848758 0.0155059
internal_weight=1849.14 1391.66 457.479 48.635 441.111 1343.03 16.3679
internal_count=4990 3736 1254 142 1205 3594 49
is_linear=0
shrinkage=0.0350769


Tree=78
num_leaves=6
num_cat=0
split_feature=0 1 0 1 3
split_gain=4.28167 4.17916 5.71514 3.50939 3.34513
threshold=0.012750974992699173 0.04741678464240081 0.0065393403898202926 0.048482508794541808 0.4045568806092435
decision_type=2 2 2 2 2
left_child=1 2 -1 -3 -2
right_child=4 3 -4 -5 -6
leaf_value=0.0024451738396180072 0.0033898924464246171 -0.011590982377436132 0.035493008517924488 -0.0010343775707381869 0.036231345804644835
leaf_weight=329.13126516342163 8.3192977011203748 40.862695947289467 6.5669361352920523 747.93363359570503 7.0496436208486548
leaf_count=1377 33 180 21 3355 24
internal_value=6.50942e-05 -0.000186236 0.00309166 -0.00158125 0.0184541
internal_weight=1139.86 1124.49 335.698 788.796 15.3689
internal_count=4990 4933 1398 3535 57
is_linear=0
shrinkage=0.0350769


Tree=79
num_leaves=7
num_cat=0
split_feature=1 1 0 3 1 1
split_gain=8.83078 4.90692 4.9671 4.73406 4.29457 1.0555e-05
threshold=0.088306534379210933 0.028277959040450596 -0.0079522013901073812 0.84640101014697888 0.15897737986486413 0.026611041828723436
decision_type=2 2 2 2 2 2
left_child=1 5 -3 4 -2 -1
right_child=3 2 -4 -5 -6 -7
leaf_value=-0.02806898350295943 0.0041918255108669309 -0.019569441518734205 -0.0009062086542504452 -0.020993549076958808 0.015779646954715704 -0.028147732817017809
leaf_weight=4.1634588390588743 254.00273890793324 17.799569591879845 1230.2284473180771 8.2203446328639966 46.56523235142231 4.2134452164173126
leaf_count=20 736 77 3980 27 130 20
internal_value=-4.58029e-05 -0.00135198 -0.00117239 0.0052688 0.00598706 -0.0281086
internal_weight=1565.19 1256.4 1248.03 308.788 300.568 8.3769
internal_count=4990 4097 4057 893 866 40
is_linear=0
shrinkage=0.0350769


Tree=80
num_leaves=8
num_cat=0
split_feature=1 0 0 3 1 1 0
split_gain=8.18092 8.68925 5.15711 2.87674 2.10182 1.51588 1.20818
threshold=0.076417477935337791 -0.0079522013901073812 -0.013309289094256991 0.17827857415415108 0.033098346754982237 0.15897737986486413 -0.0099516411099326834
decision_type=2 2 2 2 2 2 2
left_child=1 6 5 -4 -3 -2 -1
right_child=2 4 3 -5 -6 -7 -8
leaf_value=0.033350166468875328 0.025041280014801645 -0.0047362004167703026 -0.0089088920876319467 -0.002839703760420077 0.0013374289224886888 0.0035331180070555523 0.015669174335967664
leaf_weight=9.9058557748794573 8.9166519045829791 74.10573422908783 141.58689492940903 299.04026865959167 1298.0848745703697 7.3595904409885398 9.1450014412403089
leaf_count=32 29 200 389 816 3476 20 28
internal_value=-1.35718e-06 0.00133605 -0.00407369 -0.00478992 0.00100942 0.015316 0.0248627
internal_weight=1848.14 1391.24 456.903 440.627 1372.19 16.2762 19.0509
internal_count=4990 3736 1254 1205 3676 49 60
is_linear=0
shrinkage=0.0350769


Tree=81
num_leaves=8
num_cat=0
split_feature=3 1 3 1 1 0 0
split_gain=4.10536 3.89575 3.36513 3.33966 3.02906 2.72697 0.297433
threshold=0.75820110685919218 0.096004860938606454 0.046785047080399315 0.052459606011953805 0.045566008504446094 0.0040505529067832455 0.003067857770566285
decision_type=2 2 2 2 2 2 2
left_child=2 3 5 -2 -4 -1 -3
right_child=1 6 4 -5 -6 -7 -8
leaf_value=0.0081796476275833585 0.011408480520380087 0.030891072981899522 0.0022631987360888493 -0.0026140444240879504 -0.0023008204317961313 -0.012647030181621445 0.01995808722321922
leaf_weight=77.073838174343109 41.267205655574799 6.1969695091247541 238.08344931900501 42.33590666949749 719.97839494049549 8.5983396470546705 6.051285594701767
leaf_count=326 151 23 1003 181 3248 37 21
internal_value=6.69663e-05 0.00701431 -0.000571043 0.00430759 -0.00116664 0.00608941 0.0254896
internal_weight=1139.59 95.8514 1043.73 83.6031 958.062 85.6722 12.2483
internal_count=4990 376 4614 332 4251 363 44
is_linear=0
shrinkage=0.0350769


Tree=82
num_leaves=8
num_cat=0
split_feature=1 1 3 3 1 0 1
split_gain=8.26506 4.90316 4.40879 3.68181 3.11166 1.0524 9.86534e-06
threshold=0.10438482044404497 0.028277959040450596 0.84640101014697888 0.70021951588447073 0.15897737986486413 -0.00014570754571396891 0.026611041828723436
decision_type=2 2 2 2 2 2 2
left_child=1 6 -3 4 -2 -5 -1
right_child=3 2 -4 5 -6 -7 -8
leaf_value=-0.027951955759002497 0.0054933904082157502 -0.0004998210174952339 -0.012391712541096748 -0.021456456126069286 0.016245147900948314 -0.002509924011255979 -0.028028735315458297
leaf_weight=4.0933591127395612 135.98641248047352 1321.6244500130415 39.50488768517971 5.9030853956937781 43.781713843345642 9.274361699819563 4.143059641122818
leaf_count=20 382 4263 136 21 121 27 20
internal_value=-4.62321e-05 -0.00100824 -0.000844967 0.00671126 0.00811193 -0.00987895 -0.0279906
internal_weight=1564.31 1369.37 1361.13 194.946 179.768 15.1774 8.23642
internal_count=4990 4439 4399 551 503 48 40
is_linear=0
shrinkage=0.0350769


Tree=83
num_leaves=8
num_cat=0
split_feature=1 0 0 0 1 1 0
split_gain=7.61883 8.23887 4.9667 3.1229 2.04621 1.43071 1.19902
threshold=0.076417477935337791 -0.0079522013901073812 -0.011585959958426871 0.00084115386097716194 0.028277959040450596 0.1513747067837444 -0.0099516411099326834
decision_type=2 2 2 2 2 2 2
left_child=1 6 5 -4 -3 -2 -1
right_child=2 4 3 -5 -6 -7 -8
leaf_value=0.032917582876587678 0.019219382039926236 0.014180375773496928 -0.0076037176302289899 -0.0016467260309283535 0.00083339935554959906 0.00090394339139815134 0.01518073207935481
leaf_weight=9.7230885028839129 13.755409419536592 14.281421720981596 227.10954648256302 206.94442585110664 1357.7431082427502 8.4842283725738508 9.057967394590376
leaf_count=32 43 40 621 567 3636 23 28
internal_value=-2.16155e-06 0.00128819 -0.00393522 -0.0047636 0.000972328 0.0122322 0.0243632
internal_weight=1847.1 1390.81 456.294 434.054 1372.02 22.2396 18.7811
internal_count=4990 3736 1254 1188 3676 66 60
is_linear=0
shrinkage=0.0350769


Tree=84
num_leaves=6
num_cat=0
split_feature=0 1 3 1 1
split_gain=4.08787 3.82724 5.47742 3.38672 3.10526
threshold=0.012750974992699173 0.04741678464240081 0.63350456429155988 0.048482508794541808 0.10522702023528333
decision_type=2 2 2 2 2
left_child=1 2 -1 -3 -2
right_child=4 3 -4 -5 -6
leaf_value=0.00086596202241778395 0.032326736948123033 -0.011390040806558647 0.012545515453169499 -0.00098000254623886469 0.00073696044768568935
leaf_weight=276.56046909093857 8.4367816746234876 40.539589405059814 60.149316981434822 746.60971085727215 7.0096890777349463
leaf_count=1180 27 180 218 3355 30
internal_value=6.89609e-05 -0.000177364 0.00295238 -0.00151614 0.0179911
internal_weight=1139.31 1123.86 336.71 787.149 15.4465
internal_count=4990 4933 1398 3535 57
is_linear=0
shrinkage=0.0350769


Tree=85
num_leaves=8
num_cat=0
split_feature=1 3 1 1 1 0 1
split_gain=7.91582 7.55673 6.45587 4.70058 6.09104 2.50492 2.25587
threshold=0.049643227282413417 0.84640101014697888 0.15897737986486413 0.038217244215846026 0.028277959040450596 -0.00018761257231686421 0.059289335132487055
decision_type=2 2 2 2 2 2 2
left_child=3 2 -2 4 -1 -5 -3
right_child=1 6 -4 5 -6 -7 -8
leaf_value=-0.027812521560862329 0.0015824934196791783 -0.0015402138232786472 0.014939977619690322 -0.0022215656960992212 0.0036788547768411115 -0.0080901819481479058 -0.022448681953157169
leaf_weight=8.0194956213235837 977.66219595074654 9.2777236700058001 46.643169984221458 150.98321236670017 131.03667286038399 219.71103031933308 20.113502770662308
leaf_count=40 3021 32 130 516 440 744 67
internal_value=-4.84303e-05 0.00168756 0.00219075 -0.00363688 0.00186272 -0.0056999 -0.0158487
internal_weight=1563.45 1053.7 1024.31 509.75 139.056 370.694 29.3912
internal_count=4990 3250 3151 1740 480 1260 99
is_linear=0
shrinkage=0.0350769


Tree=86
num_leaves=8
num_cat=0
split_feature=1 0 0 0 0 1 3
split_gain=7.15427 10.5743 4.59074 3.6232 3.00831 1.25308 1.06054
threshold=0.08075725390701656 -0.0079522013901073812 -0.011585959958426871 0.0040505529067832455 0.0065393403898202926 0.1513747067837444 0.48177825447477879
decision_type=2 2 2 2 2 2 2
left_child=1 6 5 -4 -3 -2 -1
right_child=2 4 3 -5 -6 -7 -8
leaf_value=0.030290969816570992 0.018341573629711339 0.0010612987639873313 -0.0071104551019526598 0.00092603955008004556 -0.0079101568366238811 0.0010335488814241509 0.013209890716439757
leaf_weight=15.530088156461717 13.073687732219698 1384.6240388154984 278.88340285420418 91.726438790559769 47.567288756370544 8.4881785511970502 6.2812683284282675
leaf_count=49 41 3710 766 253 128 23 20
internal_value=-1.54335e-06 0.00113248 -0.00420602 -0.00512141 0.00076333 0.011528 0.0253719
internal_weight=1846.17 1454 392.172 370.61 1432.19 21.5619 21.8114
internal_count=4990 3907 1083 1019 3838 64 69
is_linear=0
shrinkage=0.0350769


Tree=87
num_leaves=6
num_cat=0
split_feature=0 1 0 1 3
split_gain=3.92492 7.54147 3.37648 3.14753 3.14015
threshold=0.0096305370940877894 0.057071089075853017 0.0083444458659903704 0.033098346754982237 0.60775585353991868
decision_type=2 2 2 2 2
left_child=2 -2 3 -1 -3
right_child=1 4 -4 -5 -6
leaf_value=0.008553595018616876 0.048767375607703799 -0.003037348156900405 -0.021667093868977604 -0.000501913334211211 0.026308540033730527
leaf_weight=49.449973076581955 5.7307277321815517 18.542649999260906 9.0001839995384199 1050.36000610888 5.9183472394943228
leaf_count=200 17 77 38 4638 20
internal_value=6.99144e-05 0.0125483 -0.000269859 -9.4757e-05 0.0040629
internal_weight=1139 30.1917 1108.81 1099.81 24.461
internal_count=4990 114 4876 4838 97
is_linear=0
shrinkage=0.0350769


Tree=88
num_leaves=8
num_cat=0
split_feature=1 3 1 1 1 0 1
split_gain=7.4425 7.23345 6.10991 4.51808 5.90658 2.41131 2.1946
threshold=0.049643227282413417 0.84640101014697888 0.15897737986486413 0.038217244215846026 0.028277959040450596 -0.00018761257231686421 0.059289335132487055
decision_type=2 2 2 2 2 2 2
left_child=3 2 -2 4 -1 -5 -3
right_child=1 6 -4 5 -6 -7 -8
leaf_value=-0.027683652881796944 0.0015306454017241962 -0.0014860352314004866 0.014519031485499422 -0.0021487732712184744 0.0036255240346370595 -0.0079142748165905788 -0.022148863295407818
leaf_weight=7.8578455150127402 978.15249998867512 9.2669675648212451 46.689179748296738 150.74370858073235 131.16096261143684 218.79955543577671 19.916944265365601
leaf_count=40 3021 32 130 516 440 744 67
internal_value=-4.95223e-05 0.00163201 0.00212236 -0.00353459 0.00185582 -0.00556242 -0.0155877
internal_weight=1562.59 1054.03 1024.84 508.562 139.019 369.543 29.1839
internal_count=4990 3250 3151 1740 480 1260 99
is_linear=0
shrinkage=0.0350769


Tree=89
num_leaves=8
num_cat=0
split_feature=1 0 1 0 0 0 1
split_gain=6.73515 7.81288 4.7724 4.69721 2.72469 2.21425 1.3305
threshold=0.076417477935337791 -0.0054772993359813995 0.056612624696094564 -0.013309289094256991 0.0047690312175440184 -0.0017821352281210954 0.15897737986486413
decision_type=2 2 2 2 2 2 2
left_child=1 2 -1 6 -5 -3 -2
right_child=3 5 -4 4 -6 -7 -8
leaf_value=0.028280293986028465 0.02424498568243931 -0.0024882884884310018 0.005781276482486262 -0.0057507512529049931 0.0012069813174799232 0.0013491287774225183 0.0039800993385363422
leaf_weight=19.889651387929916 8.6755497455596942 221.58778616786003 27.83129158616066 352.9832615852356 86.152367442846298 1120.7097415626049 7.3749998509883872
leaf_count=62 29 593 80 968 237 3001 20
internal_value=-1.21928e-06 0.00121149 0.0151587 -0.00370451 -0.00438574 0.000715644 0.0149336
internal_weight=1845.2 1390.02 47.7209 455.186 439.136 1342.3 16.0505
internal_count=4990 3736 142 1254 1205 3594 49
is_linear=0
shrinkage=0.0350769


Tree=90
num_leaves=6
num_cat=0
split_feature=0 1 0 3 3
split_gain=3.80106 3.54883 6.78282 3.42308 2.85294
threshold=0.012750974992699173 0.047063360953162173 0.0065393403898202926 0.19928370098591761 0.4045568806092435
decision_type=2 2 2 2 2
left_child=1 2 -1 -3 -2
right_child=4 3 -4 -5 -6
leaf_value=0.0022276993957833229 0.0032807834134197106 0.0018902837952379822 0.039503338717624313 -0.0030112948325534852 0.03341400573127816
leaf_weight=317.23514907062054 8.3087391406297666 259.48111939430237 6.1221372187137595 540.36534889042377 7.2295530438423148
leaf_count=1319 33 1124 19 2471 24
internal_value=7.08418e-05 -0.000167518 0.00293344 -0.00142116 0.017301
internal_weight=1138.74 1123.2 323.357 799.846 15.5383
internal_count=4990 4933 1338 3595 57
is_linear=0
shrinkage=0.0350769


Tree=91
num_leaves=8
num_cat=0
split_feature=1 1 3 0 0 3 1
split_gain=6.99563 4.44463 3.51398 3.42976 3.45275 1.3745 8.01272e-06
threshold=0.10184690130041031 0.028277959040450596 0.84640101014697888 -0.01063216511838627 0.010357004403952043 0.300928319505674 0.026611041828723436
decision_type=2 2 2 2 2 2 2
left_child=1 6 -3 5 -5 -2 -1
right_child=3 2 -4 4 -6 -7 -8
leaf_value=-0.027519015642818768 0.0028970523465166155 -0.00051310875842196799 -0.011328133619645686 0.0086181931140689484 -0.008328799439167478 -0.018751484988676178 -0.027590609419606497
leaf_weight=3.8220276534557334 5.9784630537033072 1308.0778391063213 38.039518684148788 176.70294457674026 16.143162757158279 9.1029599010944349 3.8719197064638138
leaf_count=20 21 4228 133 485 45 38 20
internal_value=-5.06341e-05 -0.000970674 -0.000818727 0.00593973 0.00719956 -0.0101697 -0.027555
internal_weight=1561.74 1353.81 1346.12 207.928 192.846 15.0814 7.69395
internal_count=4990 4401 4361 589 530 59 40
is_linear=0
shrinkage=0.0350769


Tree=92
num_leaves=8
num_cat=0
split_feature=1 0 0 0 0 1 3
split_gain=6.33689 10.0597 4.2781 3.37909 2.80858 1.13579 1.05089
threshold=0.08075725390701656 -0.0079522013901073812 -0.011585959958426871 0.0040505529067832455 0.0065393403898202926 0.1513747067837444 0.48177825447477879
decision_type=2 2 2 2 2 2 2
left_child=1 6 5 -4 -3 -2 -1
right_child=2 4 3 -5 -6 -7 -8
leaf_value=0.029831635511211138 0.017842188259253104 0.00099615628866115877 -0.0067709064626538841 0.0009958670756085627 -0.0076789678304194199 0.0013271577761953389 0.012714412023454255
leaf_weight=15.282043129205706 12.90281465649605 1384.1435571908951 278.13694825768471 91.627684563398361 47.49296772480011 8.4983746409416181 6.2047325372695914
leaf_count=49 41 3710 766 253 128 23 20
internal_value=-8.63709e-07 0.00106591 -0.00396378 -0.0048463 0.000708369 0.0112841 0.0248887
internal_weight=1844.29 1453.12 391.166 369.765 1431.64 21.4012 21.4868
internal_count=4990 3907 1083 1019 3838 64 69
is_linear=0
shrinkage=0.0350769


Tree=93
num_leaves=8
num_cat=0
split_feature=3 1 1 3 1 0 0
split_gain=3.64088 3.63427 3.17675 4.00686 3.08387 1.47358 0.31442
threshold=0.75820110685919218 0.096004860938606454 0.12240399894472027 0.046785047080399315 0.052459606011953805 -0.0072744876557391249 0.003067857770566285
decision_type=2 2 2 2 2 2 2
left_child=2 4 3 -1 -2 -4 -3
right_child=1 6 5 -5 -6 -7 -8
leaf_value=0.0075286637997200277 0.010746598787253902 0.02983006985136118 0.0027844649738796644 -0.00070104017400109814 -0.0026899290220991005 -0.010670224616581316 0.018665267373829317
leaf_weight=79.209072828292847 41.701974257826805 6.2725611925125104 12.405502736568449 898.33897945284843 42.369920998811722 51.983142733573914 6.1427512615919113
leaf_count=332 151 23 59 3976 181 247 21
internal_value=7.23693e-05 0.00659102 -0.000531282 -3.42011e-05 0.00397496 -0.00807796 0.024306
internal_weight=1138.42 96.4872 1041.94 977.548 84.0719 64.3886 12.4153
internal_count=4990 376 4614 4308 332 306 44
is_linear=0
shrinkage=0.0350769


Tree=94
num_leaves=8
num_cat=0
split_feature=1 3 3 1 1 3 0
split_gain=6.7547 6.85925 7.21733 4.39245 5.59236 3.09962 2.31789
threshold=0.049643227282413417 0.61580221806065494 0.49717317197592792 0.038217244215846026 0.028277959040450596 0.84640101014697888 -0.00018761257231686421
decision_type=2 2 2 2 2 2 2
left_child=3 2 -2 4 -1 -3 -5
right_child=1 5 -4 6 -6 -7 -8
leaf_value=-0.027436367725143167 0.001585604215537554 -0.0026444649838327176 0.010926982300315975 -0.0020349655354841216 0.003629244370434187 -0.015170842393158728 -0.0076980326876270391
leaf_weight=7.5396877229213706 752.71864546835423 154.9388535618782 117.67343945801258 150.35012157261372 131.1477569937706 28.827330097556114 217.67150942981243
leaf_count=40 2307 483 361 516 440 99 744
internal_value=-5.14008e-05 0.00154841 0.00284852 -0.00337964 0.00194037 -0.00460947 -0.00538447
internal_weight=1560.87 1054.16 870.392 506.709 138.687 183.766 368.022
internal_count=4990 3250 2668 1740 480 582 1260
is_linear=0
shrinkage=0.0350769


Tree=95
num_leaves=8
num_cat=0
split_feature=1 0 1 0 3 3 1
split_gain=5.95822 7.2985 4.67866 4.3148 2.6724 2.16116 1.2509
threshold=0.076417477935337791 -0.0054772993359813995 0.056612624696094564 -0.013309289094256991 0.17827857415415108 0.47680272765076248 0.15897737986486413
decision_type=2 2 2 2 2 2 2
left_child=1 2 -1 6 -5 -3 -2
right_child=3 5 -4 4 -6 -7 -8
leaf_value=0.027792396942128237 0.023663066182934112 0.0016483997467504118 0.0053960348098550858 -0.0081249277423182369 -0.0022569737124231307 -0.0013465554495167306 0.0039110908120893626
leaf_weight=19.607630282640457 8.4894183576107007 899.83591192960739 27.674531877040863 140.61585992574692 297.58027783036232 442.0952921807766 7.3694888353347769
leaf_count=62 29 2411 80 389 816 1183 20
internal_value=-1.17016e-06 0.00113896 0.0146837 -0.00348948 -0.00413998 0.000661721 0.0144845
internal_weight=1843.27 1389.21 47.2822 454.055 438.196 1341.93 15.8589
internal_count=4990 3736 142 1254 1205 3594 49
is_linear=0
shrinkage=0.0350769


Tree=96
num_leaves=6
num_cat=0
split_feature=0 1 3 3 1
split_gain=3.57493 3.32789 6.40788 3.22546 2.66023
threshold=0.012750974992699173 0.047063360953162173 0.63350456429155988 0.19928370098591761 0.10522702023528333
decision_type=2 2 2 2 2
left_child=1 2 -1 -3 -2
right_child=4 3 -4 -5 -6
leaf_value=0.00051659948479105806 0.029754343033603352 0.0018337211220690207 0.013320421226965234 -0.0029245063902974319 0.00066318309179643484
leaf_weight=265.19531172513962 8.6360270082950574 259.80282132327557 58.745830163359642 538.80677017569542 7.0044702440500251
leaf_count=1128 27 1124 210 2471 30
internal_value=7.18558e-05 -0.000160188 0.00283854 -0.00137656 0.0167261
internal_weight=1138.19 1122.55 323.941 798.61 15.6405
internal_count=4990 4933 1338 3595 57
is_linear=0
shrinkage=0.0350769


Tree=97
num_leaves=8
num_cat=0
split_feature=1 1 1 1 0 3 0
split_gain=6.55381 5.75977 6.17374 5.45044 5.31257 1.53901 0.954792
threshold=0.15897737986486413 0.14137458197733652 0.10438482044404497 0.22668331716400944 -0.0042847560817875765 0.45161893452755275 -0.0035004014723148953
decision_type=2 2 2 2 2 2 2
left_child=1 2 -1 4 -2 -3 -5
right_child=3 5 -4 6 -6 -7 -8
leaf_value=-0.00089374679686149764 -0.00014282851478841956 -0.026570475553330603 0.0071802019918051256 0.0092267652125452189 0.033235608395654703 -0.0066662125631402232 -0.0067080976275531133
leaf_weight=1364.6902659982443 8.4907979816198367 12.594118192791941 127.40313656628132 7.160747796297076 18.985854238271713 7.7029386460781089 13.072703778743742
leaf_count=4439 25 35 361 22 51 22 35
internal_value=-5.30204e-05 -0.000456819 -0.000204349 0.0127472 0.022921 -0.0190166 -0.00106865
internal_weight=1560.1 1512.39 1492.09 47.7101 27.4767 20.2971 20.2335
internal_count=4990 4857 4800 133 76 57 57
is_linear=0
shrinkage=0.0350769


Tree=98
num_leaves=8
num_cat=0
split_feature=0 1 1 0 3 1 3
split_gain=5.68691 6.66329 5.12843 4.59681 3.06765 2.00107 0.122047
threshold=-0.0079522013901073812 0.076417477935337791 0.06912133701407594 -0.0061784886343026471 0.60775585353991868 0.033098346754982237 0.3656145662928752
decision_type=2 2 2 2 2 2 2
left_child=2 5 6 -3 -4 -2 -1
right_child=1 3 4 -5 -6 -7 -8
leaf_value=0.032326688733108587 -0.0047932584408650995 -0.022438278301692448 0.00031260896839195975 -0.0035106233825164986 0.022491871530968332 0.0011405202841488292 0.025605537341634694
leaf_weight=7.9728366136550886 73.911575764417648 16.443121820688248 35.986566781997681 395.753123909235 9.7520543932914716 1296.9467352032661 5.7012199759483337
leaf_count=27 200 46 104 1088 29 3476 20
internal_value=5.05381e-07 -0.000355221 0.0106763 -0.00426568 0.00504151 0.000820593 0.0295244
internal_weight=1842.47 1783.05 59.4127 412.196 45.7386 1370.86 13.6741
internal_count=4990 4810 180 1134 133 3676 47
is_linear=0
shrinkage=0.0350769


Tree=99
num_leaves=6
num_cat=0
split_feature=0 1 0 3 1
split_gain=3.43537 6.77962 3.28279 2.85357 2.80246
threshold=0.0096305370940877894 0.057071089075853017 0.0083444458659903704 0.23324889296279108 0.033098346754982237
decision_type=2 2 2 2 2
left_child=2 -2 4 -3 -1
right_child=1 3 -4 -5 -6
leaf_value=0.008043991293203212 0.045640972945413735 0.023240850207114493 -0.021493373884399373 -0.0036521394069863847 -0.00046142779592976544
leaf_weight=49.933496966958046 5.848950624465945 6.6556419134140041 8.8756277263164503 17.939586043357849 1048.6292921677232
leaf_count=200 17 28 38 69 4638
internal_value=7.30721e-05 0.0116974 -0.000246487 0.00362529 -7.48269e-05
internal_weight=1137.88 30.4442 1107.44 24.5952 1098.56
internal_count=4990 114 4876 97 4838
is_linear=0
shrinkage=0.0350769


Tree=100
num_leaves=8
num_cat=0
split_feature=1 1 1 1 0 3 0
split_gain=6.19233 5.54597 5.76851 5.20131 5.07742 1.48477 0.910501
threshold=0.15897737986486413 0.14137458197733652 0.10438482044404497 0.22668331716400944 -0.0042847560817875765 0.45161893452755275 -0.0035004014723148953
decision_type=2 2 2 2 2 2 2
left_child=1 2 -1 4 -2 -3 -5
right_child=3 5 -4 6 -6 -7 -8
leaf_value=-0.00086604252349032197 -0.00021184346104104372 -0.02612524961509783 0.0069328372874802894 0.0089463789982434389 0.032428583990245674 -0.0065522152223241939 -0.0066088159316832129
leaf_weight=1363.8344591408968 8.4880215376615542 12.545109093189241 127.61049893498421 7.1688861250877407 18.96551176905632 7.6925871670246115 13.072587877511976
leaf_count=4439 25 35 361 22 51 22 35
internal_value=-5.36211e-05 -0.000446247 -0.000198757 0.0123906 0.0223369 -0.0186853 -0.00109966
internal_weight=1559.38 1511.68 1491.44 47.695 27.4535 20.2377 20.2415
internal_count=4990 4857 4800 133 76 57 57
is_linear=0
shrinkage=0.0350769


Tree=101
num_leaves=8
num_cat=0
split_feature=0 1 1 0 3 1 3
split_gain=5.45434 6.26501 4.98988 4.41663 2.9334 1.88776 0.120875
threshold=-0.0079522013901073812 0.076417477935337791 0.06912133701407594 -0.0061784886343026471 0.60775585353991868 0.033098346754982237 0.3656145662928752
decision_type=2 2 2 2 2 2 2
left_child=2 5 6 -3 -4 -2 -1
right_child=1 3 4 -5 -6 -7 -8
