tree
version=v4
num_class=3
num_tree_per_iteration=3
label_index=0
max_feature_idx=3
objective=multiclass num_class:3
feature_names=return volatility hurst ker
feature_infos=[-0.021618350593151647:0.019219644956947057] [0.0088236199214762126:0.077392190993368845] none [0.00058788947679119048:1]
tree_sizes=1379 1611 1265 1425 1754 1309 1413 1754 1306 1412 1757 1307 1417 1756 1311 1415 1759 1309 1418 1756 1312 1207 1755 1310 1634 1760 1310 1737 1754 1412 1418 1860 1417 1208 1866 1313 1423 1758 1417 1850 1871 1312 1529 1762 1416 1418 1755 1419 1423 1436 1316 1852 1643 1418 1435 1641 1524 1420 1439 1317 1214 1333 1523 1217 1648 1418 1646 1541 1326 1643 1438 1417 1217 1436 1317 1536 1442 1414 1540 1426 1317 1638 1550 1424 1219 1424 1421 1211 1550 1320 1211 1546 1527 1113 1543 1112 1209 1537 1324 1011 1646 1529 1011 1642 1331 1327 1545 1531 1009 1646 1335 1107 1324 1421 1220 1225 1218 1007 1328 1632 1217 1334 1433 1010 1765 1004 1214 1330 1115 1325 1532 1638 904 1431 1109 1218 1327 1629 1213 1322 795 903 1326 1332 1107 1113 1530 1640 1324 1110 1638 1120 798 1107 1541 1748 1210 1120 1637 1101 1447 1325 1220 1209 801 1858 1328 1754 1215 1319 1856 1223 1443 798 1641 1540 1538 1319 1325 1749 1110 1211 792 1320 1331 1649 1856 1646 1753 1219 1436 1118 1861 1434 1866 1104 1013 801 1114 1443 1752 1651 1333 1859 1323 1335 1120 1437 1545 1217 903 1431 1648 1855 1318 1639 1654 1227 1119 1008 1434 1220 1770 1320 1009 1855 1340 1644 1324 1432 1212 1009 1329 1008 1435 1234 1539 1009 1543 906 1013 1025 1538 1746 1541 1118 1010 1753 1759 1427 1435 1220 1018 1332 907 1213 1008 1756 1761 1432 1543 1006 1535 1009 1013 1324 1543 1448 1321 1119 1010 1869 1218 1019 1126 1756 1761 1329 1112 903 1771 1539 1005 1226 1115 1860 1659 1010 1855 1225 1537 1760 1329 1012 1551 1553 1341 1438 1322 1751

Tree=0
num_leaves=12
num_cat=0
split_feature=1 0 1 1 3 0 0 1 1 0 3
split_gain=43.275 20.6741 15.6749 13.8965 10.0327 9.99987 7.36328 6.86889 6.55499 5.27549 1.51311
threshold=0.023802105561916927 0.0031534079272943498 0.034858156331648286 0.014360373991658302 0.45373514323039371 0.0029714166316827666 0.0036441355930331158 0.011314715174147647 0.026312015516871227 -0.00063216923540093662 0.29401150364191403
decision_type=2 2 2 2 2 2 2 2 2 2 2
left_child=1 3 5 7 -5 8 9 -1 -2 -4 -7
right_child=2 -3 6 4 -6 10 -8 -9 -10 -11 -12
leaf_value=-1.0695407614608878 -1.1321824248387062 -1.0459150612467498 -1.1291878639067425 -1.1098622372866631 -1.1222041428168481 -1.0987941565574946 -1.0955351576342651 -1.1009173312546325 -1.1190125701506957 -1.1498252326518585 -1.068532023698936
leaf_weight=19.826758503913879 140.10909342765808 12.556947052478789 45.601544559001923 653.95258465409279 220.07701939344406 8.2611493766307849 8.5915953516960126 145.06578305363655 290.1315661072731 96.490224719047546 8.2611493766307813
leaf_count=60 424 38 138 1979 666 25 26 439 878 292 25
internal_value=-1.11579 -1.10969 -1.12654 -1.11046 -1.11297 -1.12184 -1.14048 -1.09714 -1.1233 -1.1432 -1.08366
internal_weight=1648.93 1051.48 597.446 1038.92 874.03 446.763 150.683 164.893 430.241 142.092 16.5223
internal_count=4990 3182 1808 3144 2645 1352 456 499 1302 430 50
is_linear=0
shrinkage=1


Tree=1
num_leaves=14
num_cat=0
split_feature=1 1 0 0 0 0 3 1 0 1 1 3 0
split_gain=78.6941 34.8161 12.9644 12.2358 9.25618 7.46262 7.00691 5.99284 4.5184 0.722042 0.991816 0.67787 0.528354
threshold=0.024603260866118873 0.013567079728965219 -0.0027416468991739436 0.0033765616901110245 0.0027847433478594978 -0.0035482916813159289 0.87265887627921124 0.011314715174147647 0.00064381541818403509 0.034594749006012317 0.030123051713164973 0.42760782431940308 0.0036441355930331158
decision_type=2 2 2 2 2 2 2 2 2 2 2 2 2
left_child=1 7 9 6 5 -3 -4 -1 -9 10 -2 -5 -6
right_child=2 4 3 11 12 -7 -8 8 -10 -11 -12 -13 -14
leaf_value=-0.93777843210972256 -0.89023196555038764 -0.93180641215540994 -0.86181614799388284 -0.90935985439609712 -0.91119331102278256 -0.88441659361431046 -0.90791833233815955 -0.91411894635770896 -0.88660641799139694 -0.88283584853004671 -0.90935985439609712 -0.891992945793326 -0.92721255065209252
leaf_weight=21.840983033180237 18.928851962089542 8.3723768293857557 528.55178940296173 10.556475132703783 11.284507900476457 1069.1161194741726 8.3723768293857557 76.079424232244492 18.564835578203201 12.740573436021803 10.556475132703779 12.012540668249128 9.4644259810447675
leaf_count=60 52 23 1452 29 31 2937 23 209 51 35 29 33 26
internal_value=-0.880854 -0.888179 -0.866067 -0.864051 -0.885422 -0.884785 -0.862535 -0.91417 -0.908722 -0.892782 -0.89708 -0.900116 -0.9185
internal_weight=1816.44 1214.72 601.719 559.493 1098.24 1077.49 536.924 116.485 94.6443 42.2259 29.4853 22.569 20.7489
internal_count=4990 3337 1653 1537 3017 2960 1475 320 260 116 81 62 57
is_linear=0
shrinkage=1


Tree=2
num_leaves=11
num_cat=0
split_feature=0 1 1 3 1 1 3 3 3 3
split_gain=35.6062 27.5719 21.1182 9.1196 8.22904 7.07192 4.18325 3.27811 3.25098 2.80978
threshold=-0.0035482916813159289 0.018607721735564461 0.061774057599975764 0.84881189510029553 0.024970110089216475 0.012146201772906198 0.56568238001959492 0.32007734713805458 0.37761931332511961 0.43968372811423373
decision_type=2 2 2 2 2 2 2 2 2 2
left_child=4 5 3 -3 -1 9 -4 -7 -6 -2
right_child=1 2 6 -5 8 7 -8 -9 -10 -11
leaf_value=-1.2476508173747198 -1.3181854763559824 -1.3628722943314648 -1.2694207738504182 -1.3283277149023078 -1.3419872954360794 -1.3443953324752447 -1.3232053722021435 -1.3530701823691622 -1.2955447216212561 -1.3565005997532116
leaf_weight=6.8902294635772732 28.70928943157196 894.58145868778229 5.7418578863143912 19.522316813468933 6.0289507806301144 256.08686172962189 9.7611584067344648 189.48131024837494 10.048251301050184 5.7418578863143912
leaf_count=24 100 3116 20 68 21 892 34 660 35 20
internal_value=-1.35512 -1.35613 -1.36115 -1.36213 -1.29337 -1.3464 -1.30329 -1.34808 -1.31296 -1.32457
internal_weight=1432.59 1409.63 929.607 914.104 22.9674 480.019 15.503 445.568 16.0772 34.4511
internal_count=4990 4910 3238 3184 80 1672 54 1552 56 120
is_linear=0
shrinkage=1


Tree=3
num_leaves=12
num_cat=0
split_feature=1 0 1 1 3 0 0 1 1 0 3
split_gain=38.8297 18.1834 14.7446 12.4521 9.38888 9.05401 6.77816 6.3194 5.93561 5.08064 1.35582
threshold=0.023802105561916927 0.0031534079272943498 0.034858156331648286 0.014360373991658302 0.45373514323039371 0.0029714166316827666 0.0036441355930331158 0.026312015516871227 0.011314715174147647 -0.00063216923540093662 0.29401150364191403
decision_type=2 2 2 2 2 2 2 2 2 2 2
left_child=1 3 5 8 -5 7 9 -2 -1 -4 -7
right_child=2 -3 6 4 -6 10 -8 -9 -10 -11 -12
leaf_value=0.042905402602311113 -0.01583558301115184 0.064642282566004475 -0.012709832753803786 0.0056394157311273731 -0.0063011219691585345 0.016096436898942849 0.01902428953147554 -0.002865992324047017 0.014043681650504109 -0.03307199970877929 0.044554931594414343
leaf_weight=20.286885499954224 139.13304647803307 12.948901623487471 45.222122728824615 655.80377557873726 219.80802941322327 8.3260007500648516 8.6814256906509382 289.02911895513535 146.14013668894768 94.967678189277649 8.4153339564800245
leaf_count=60 424 38 138 1979 666 25 26 878 439 292 25
internal_value=5.99079e-08 0.00575658 -0.0102278 0.00502484 0.00264194 -0.00567009 -0.0238487 -0.00708051 0.0175618 -0.0265036 0.0304016
internal_weight=1648.76 1054.99 593.775 1042.04 875.612 444.904 148.871 428.162 166.427 140.19 16.7413
internal_count=4990 3182 1808 3144 2645 1352 456 1302 499 430 50
is_linear=0
shrinkage=0.05


Tree=4
num_leaves=15
num_cat=0
split_feature=1 1 0 0 0 0 3 1 0 1 1 3 0 3
split_gain=70.9388 31.683 11.7393 10.9542 8.33968 6.66132 6.43936 5.51607 4.29043 0.68963 0.921382 0.6578 0.478675 0.00011991
threshold=0.024603260866118873 0.013567079728965219 -0.0027416468991739436 0.0033765616901110245 0.0027847433478594978 -0.0035482916813159289 0.87265887627921124 0.011314715174147647 0.00064381541818403509 0.034594749006012317 0.030123051713164973 0.42760782431940308 0.0036441355930331158 0.33954154912002882
decision_type=2 2 2 2 2 2 2 2 2 2 2 2 2 2
left_child=1 7 9 6 5 -3 -4 13 -9 10 -2 -5 -6 -1
right_child=2 4 3 11 12 -7 -8 8 -10 -11 -12 -13 -14 -15
leaf_value=-0.054699038727513805 -0.0090738395522673692 -0.04861159686912251 0.018018324565756076 -0.027458930522398735 -0.028972443353074469 -0.0034068058338571276 -0.026281995588528763 -0.031968211864252451 -0.0050973998159840259 -0.0017364842222893147 -0.02755174929037776 -0.010301313337821793 -0.044317596945258532 -0.054949767215958345
leaf_weight=14.281961917877199 18.896487772464756 8.2121623158454877 530.98427626490593 10.486019194126131 11.182480335235597 1068.2296821177006 8.3316392600536329 75.423595666885376 18.498671501874924 12.723616898059843 10.492453157901762 11.955122947692869 9.3157124817371351 7.1588472723960868
leaf_count=40 52 23 1452 29 31 2937 23 209 51 35 29 33 26 20
internal_value=-3.23378e-07 -0.0069746 0.0140009 0.0159097 -0.00435328 -0.00375167 0.0173339 -0.0318996 -0.0266758 -0.0114608 -0.0156708 -0.0183185 -0.0359463 -0.0547828
internal_weight=1816.17 1212.3 603.87 561.757 1096.94 1076.44 539.316 115.363 93.9223 42.1126 29.3889 22.4411 20.4982 21.4408
internal_count=4990 3337 1653 1537 3017 2960 1475 320 260 116 81 62 57 60
is_linear=0
shrinkage=0.05


Tree=5
num_leaves=11
num_cat=0
split_feature=0 1 1 3 3 1 1 3 3 3
split_gain=31.4664 25.3649 19.2076 8.8059 7.15496 6.25892 6.06077 3.62022 3.09188 2.53558
threshold=-0.0035482916813159289 0.018607721735564461 0.061774057599975764 0.22844376737362884 0.31293287159299366 0.012146201772906198 0.032170354143077111 0.56568238001959492 0.32505249822915078 0.43968372811423373
decision_type=2 2 2 2 2 2 2 2 2 2
left_child=4 5 3 -3 -1 9 -6 -4 -7 -2
right_child=1 2 7 -5 6 8 -8 -9 -10 -11
leaf_value=0.013505502129274281 0.034617100324395841 -0.012747206253766331 0.079372827571647833 -0.0027199817868781865 0.096827314656373509 0.010228578131716543 0.034871374691665319 0.030140952817558492 0.001787699373091511 -0.0016531261941627939
leaf_weight=6.7700922489166286 29.344860196113586 366.54631108045578 5.9828677773475638 543.77215877175331 10.838215947151186 262.33224725723267 6.2084651589393607 9.9343585371971113 184.99553716182709 5.7652238905429831
leaf_count=23 100 1283 20 1901 36 909 21 34 643 20
internal_value=3.41045e-07 -0.000963231 -0.00580542 -0.00675752 0.056992 0.00833331 0.0742627 0.0486459 0.00673779 0.0286614
internal_weight=1432.49 1408.67 926.236 910.318 23.8168 482.438 17.0467 15.9172 447.328 35.1101
internal_count=4990 4910 3238 3184 80 1672 57 54 1552 120
is_linear=0
shrinkage=0.05


Tree=6
num_leaves=12
num_cat=0
split_feature=1 0 1 3 0 1 0 0 1 3 1
split_gain=35.1212 18.8039 17.8786 9.44783 7.13925 6.49953 6.34717 4.68532 4.8798 4.17082 1.98035
threshold=0.034318460759526249 0.0031534079272943498 0.015789308733392213 0.23393375519425416 0.0036441355930331158 0.011314715174147647 -0.00063216923540093662 0.0045983122951884789 0.022302859802591925 0.35951471499847637 0.037993816968701598
decision_type=2 2 2 2 2 2 2 2 2 2 2
left_child=1 2 5 -4 6 -1 9 8 -3 -2 -8
right_child=4 7 3 -5 -6 -7 10 -9 -10 -11 -12
leaf_value=0.039973667496860238 -0.025012789241474861 0.063107627328517754 0.004257115403238104 -0.0048130511822419564 0.02068501092888643 0.010847335926156896 -0.02466022944140207 0.078722582198147095 0.010704854631072715 0.0036489957993900875 -0.038791025254243446
leaf_weight=20.679114043712616 25.079652339220047 7.3326766788959565 490.82420149445534 691.7296430170536 9.1110319495201093 259.63730159401894 46.31141671538353 7.2586524784564963 11.271475464105604 25.698869466781616 53.364007413387299
leaf_count=60 77 21 1484 2098 27 779 144 21 33 79 167
internal_value=4.94712e-07 0.00238994 0.00164277 -0.00104844 -0.0222929 0.012996 -0.0248955 0.044652 0.031359 -0.0105071 -0.0322255
internal_weight=1648.3 1488.73 1462.87 1182.55 159.565 280.316 150.454 25.8628 18.6042 50.7785 99.6754
internal_count=4990 4496 4421 3582 494 839 467 75 54 156 311
is_linear=0
shrinkage=0.05


Tree=7
num_leaves=15
num_cat=0
split_feature=1 1 0 0 0 0 3 1 0 3 1 3 0 3
split_gain=64.0459 28.8883 10.5679 9.81909 7.53968 6.04943 6.02844 5.13364 4.07892 0.63788 0.631473 0.889604 0.438402 0.000356255
threshold=0.024603260866118873 0.013567079728965219 -0.0027416468991739436 0.0033765616901110245 0.0027847433478594978 -0.0035482916813159289 0.87265887627921124 0.011314715174147647 0.00064381541818403509 0.42760782431940308 0.034594749006012317 0.52824249528331346 0.0036441355930331158 0.33954154912002882
decision_type=2 2 2 2 2 2 2 2 2 2 2 2 2 2
left_child=1 7 10 6 5 -3 -4 13 -9 -5 11 -2 -6 -1
right_child=2 4 3 9 12 -7 -8 8 -10 -11 -12 -13 -14 -15
leaf_value=-0.052782529915414357 -0.0091596438469731326 -0.046769529094880045 0.017070536674968783 -0.026473130796275574 -0.027708097518319603 -0.0032592545368243862 -0.025852436334069889 -0.030749585689583438 -0.004488486383356317 -0.0095263603430490382 -0.001631578185892306 -0.028043982452048893 -0.042498525892274389 -0.053219165997872589
leaf_weight=13.962117433547975 20.242773652076725 8.0488476455211622 533.07969054579735 10.412308335304262 11.073423385620119 1067.3640678524971 8.307708412408827 74.725106745958328 18.433951944112778 11.89740541577339 12.715589493513106 9.0131590664386732 9.1500999927520734 7.0205559134483329
leaf_count=40 56 23 1452 29 31 2937 23 209 51 33 35 25 26 20
internal_value=-2.62376e-06 -0.00664753 0.0132701 0.0150723 -0.0041537 -0.0035849 0.0164119 -0.0305856 -0.0255531 -0.0174357 -0.0109343 -0.0149775 -0.0344 -0.0529286
internal_weight=1815.45 1209.78 605.669 563.697 1095.64 1075.41 541.387 114.142 93.1591 22.3097 41.9715 29.2559 20.2235 20.9827
internal_count=4990 3337 1653 1537 3017 2960 1475 320 260 62 116 81 57 60
is_linear=0
shrinkage=0.05


Tree=8
num_leaves=11
num_cat=0
split_feature=0 1 1 3 3 1 1 3 3 3
split_gain=27.9441 23.3448 17.5182 8.26377 6.22969 5.57207 5.04691 3.17228 2.9138 2.29622
threshold=-0.0035482916813159289 0.018607721735564461 0.061774057599975764 0.22844376737362884 0.31293287159299366 0.012146201772906198 0.032170354143077111 0.56568238001959492 0.32505249822915078 0.43968372811423373
decision_type=2 2 2 2 2 2 2 2 2 2
left_child=4 5 3 -3 -1 9 -6 -4 -7 -2
right_child=1 2 7 -5 6 8 -8 -9 -10 -11
leaf_value=0.01240441455103009 0.032551245945546925 -0.01234001823107727 0.07395942032121687 -0.0026013135375975607 0.088446692661547754 0.0098308988789960611 0.032754959788985391 0.028513967674989777 0.0016497686554341881 -0.001865028035267281
leaf_weight=6.8567974865436581 29.920110166072845 363.85275766253471 6.197433918714526 542.7724392414093 11.378550827503206 263.64108347892761 6.3317442238330832 10.094895750284193 185.35327333211899 5.7832590639591208
leaf_count=23 100 1283 20 1901 36 909 21 34 643 20
internal_value=2.75715e-06 -0.000919923 -0.00558627 -0.00650971 0.0528693 0.00796531 0.0685359 0.0458009 0.00645358 0.0269765
internal_weight=1432.18 1407.62 922.918 906.625 24.5671 484.698 17.7103 16.2923 448.994 35.7034
internal_count=4990 4910 3238 3184 80 1672 57 54 1552 120
is_linear=0
shrinkage=0.05


Tree=9
num_leaves=12
num_cat=0
split_feature=1 0 1 3 0 0 1 1 3 1 1
split_gain=32.4288 16.8156 16.0681 8.81989 6.93071 7.82859 5.68925 3.83138 3.02316 1.61916 0.964139
threshold=0.034053806953049624 0.0031534079272943498 0.015789308733392213 0.23393375519425416 0.0036441355930331158 -0.00063216923540093662 0.011314715174147647 0.022302859802591925 0.35951471499847637 0.049657982783970066 0.026941690318661126
decision_type=2 2 2 2 2 2 2 2 2 2 2
left_child=1 2 6 -4 5 8 -1 -3 -2 -7 -9
right_child=4 7 3 -5 -6 9 -8 10 -10 -11 -12
leaf_value=0.037379824337494996 -0.020135991170083779 0.065985950304917967 0.0041944365159397512 -0.0045911643451769383 0.019470133946478521 -0.028740358875144992 0.010334924329278503 0.04023470537818221 0.0037328375200267072 -0.044662177167229353 0.014980462483578871
leaf_weight=21.012356579303741 26.42942276597023 10.355486035346987 488.71640831232071 687.56720551848412 9.891885578632353 81.118793725967407 260.81521767377853 6.9806588292121878 26.635276079177856 19.881232768297195 8.2408557534217817
leaf_count=60 82 29 1475 2090 29 256 779 20 82 64 24
internal_value=1.36516e-06 0.00233319 0.0016282 -0.000940967 -0.0211 -0.0237048 0.0123513 0.0425239 -0.00815528 -0.0318745 0.0265622
internal_weight=1647.64 1483.69 1458.11 1176.28 163.957 154.065 281.828 25.577 53.0647 101 15.2215
internal_count=4990 4477 4404 3565 513 484 839 73 164 320 44
is_linear=0
shrinkage=0.05


Tree=10
num_leaves=15
num_cat=0
split_feature=1 1 0 0 0 3 0 1 0 3 1 1 0 3
split_gain=58.3179 26.4096 9.50052 8.80041 6.83893 5.6525 5.50696 4.80906 3.88026 0.613128 0.58203 0.880007 0.395847 0.000602235
threshold=0.024603260866118873 0.013567079728965219 -0.0027416468991739436 0.0033765616901110245 0.0027847433478594978 0.87265887627921124 -0.0035482916813159289 0.011314715174147647 0.00064381541818403509 0.42760782431940308 0.034594749006012317 0.030123051713164973 0.0036441355930331158 0.33954154912002882
decision_type=2 2 2 2 2 2 2 2 2 2 2 2 2 2
left_child=1 7 10 5 6 -4 -3 13 -9 -5 11 -2 -6 -1
right_child=2 4 3 9 12 -7 -8 8 -10 -11 -12 -13 -14 -15
leaf_value=-0.051116990829647505 -0.007794740400595055 -0.045119409916387167 0.016232143521029526 -0.025447390130135424 -0.026636011032544524 -0.025396077069964631 -0.0031416292514887569 -0.02963574660631025 -0.0039655325641888501 -0.0087768264331562068 -0.0014324684299059233 -0.025949959582157841 -0.040799276157632354 -0.051691259945979708
leaf_weight=13.611955642700197 18.740851104259495 7.8705689907073966 534.79226052761078 10.328076452016832 10.97049516439438 8.2809071838855726 1066.6573970615864 74.017196089029312 18.37589156627655 11.836940318346022 12.699768245220183 10.366666764020918 8.9646792113780958 6.8692605495452872
leaf_count=40 52 23 1452 29 31 23 2937 209 51 33 35 29 26 20
internal_value=-6.01088e-06 -0.00636229 0.0126358 0.014337 -0.00398745 0.0155974 -0.0034491 -0.0293894 -0.0245302 -0.0165447 -0.0103639 -0.0142607 -0.0330051 -0.0513096
internal_weight=1814.38 1207.34 607.045 565.238 1094.46 543.073 1074.53 112.874 92.3931 22.165 41.8073 29.1075 19.9352 20.4812
internal_count=4990 3337 1653 1537 3017 1475 2960 320 260 62 116 81 57 60
is_linear=0
shrinkage=0.05


Tree=11
num_leaves=11
num_cat=0
split_feature=0 1 1 3 3 1 1 1 3 1
split_gain=24.9909 21.4491 15.9735 7.7557 5.49351 4.98059 4.21937 2.8586 2.79627 2.20197
threshold=-0.0035482916813159289 0.018607721735564461 0.061774057599975764 0.84881189510029553 0.31293287159299366 0.012146201772906198 0.032170354143077111 0.018574699730211783 0.56568238001959492 0.010741141601729244
decision_type=2 2 2 2 2 2 2 2 2 2
left_child=4 5 3 -3 -1 9 -6 -7 -4 -2
right_child=1 2 8 -5 6 7 -8 -9 -10 -11
leaf_value=0.011453471101220192 0.0079404499823911134 -0.0069628097650768581 0.069115511047054864 0.024536166865586673 0.081430289399168521 0.0057185988243866389 0.031116010749778475 0.041050127691073801 0.026979341361828776 0.034117582139414501
leaf_weight=6.9317266047000912 12.018321692943571 882.98054778575897 6.3943077921867397 19.984250336885452 11.844779640436174 444.83620628714561 6.4281524121761313 5.7995475828647605 10.247426509857176 24.229527026414871
leaf_count=23 40 3116 20 68 36 1532 21 20 34 80
internal_value=6.04623e-06 -0.00087827 -0.00537107 -0.00626568 0.0493534 0.00760756 0.0637305 0.00617331 0.0431695 0.0254383
internal_weight=1431.69 1406.49 919.607 902.965 25.2047 486.884 18.2729 450.636 16.6417 36.2478
internal_count=4990 4910 3238 3184 80 1672 57 1552 54 120
is_linear=0
shrinkage=0.05


Tree=12
num_leaves=12
num_cat=0
split_feature=1 0 1 3 0 0 1 0 1 3 1
split_gain=29.9103 15.092 14.58 8.20845 6.38097 7.51026 4.97048 3.54246 3.62281 2.86481 1.56221
threshold=0.034053806953049624 0.0031534079272943498 0.015789308733392213 0.23393375519425416 0.0036441355930331158 -0.00063216923540093662 0.010741141601729244 0.0045983122951884789 0.022302859802591925 0.35951471499847637 0.049657982783970066
decision_type=2 2 2 2 2 2 2 2 2 2 2
left_child=1 2 6 -4 5 9 -1 8 -3 -2 -7
right_child=4 7 3 -5 -6 10 -8 -9 -10 -11 -12
leaf_value=0.040543045918650239 -0.01943940839404629 0.055177418359996469 0.0040510380172568408 -0.0044246353107360156 0.01834587059083025 -0.027948945265187066 0.010217588846091787 0.069925883592967933 0.010408029164670797 0.0038657236855511833 -0.043779052300604179
leaf_weight=14.226777434349058 26.154968231916428 7.6153171360492768 489.36962431669235 686.24987035989761 9.9745399653911573 79.953568607568741 268.99208229780197 7.1769739091396323 11.113194316625593 26.595139056444168 19.35878774523735
leaf_count=40 82 21 1475 2090 29 256 799 20 32 82 64
internal_value=2.5807e-06 0.00222868 0.00155692 -0.000896506 -0.0203951 -0.0229363 0.0117409 0.0400578 0.028612 -0.00768961 -0.0310347
internal_weight=1646.78 1484.74 1458.84 1175.62 162.037 152.062 283.219 25.9055 18.7285 52.7501 99.3124
internal_count=4990 4477 4404 3565 513 484 839 73 53 164 320
is_linear=0
shrinkage=0.05


Tree=13
num_leaves=15
num_cat=0
split_feature=1 1 0 0 0 3 0 1 0 3 1 1 0 3
split_gain=53.0593 24.1943 8.54656 7.9459 6.16053 5.20993 5.02737 4.56484 3.6954 0.587755 0.540431 0.835765 0.36229 0.0004629
threshold=0.024603260866118873 0.013567079728965219 -0.0027416468991739436 0.0033765616901110245 0.0027847433478594978 0.87265887627921124 -0.0035482916813159289 0.011314715174147647 0.00064381541818403509 0.42760782431940308 0.034594749006012317 0.030123051713164973 0.0036441355930331158 0.33954154912002882
decision_type=2 2 2 2 2 2 2 2 2 2 2 2 2 2
left_child=1 7 10 5 6 -4 -3 13 -9 -5 11 -2 -6 -1
right_child=2 4 3 9 12 -7 -8 8 -10 -11 -12 -13 -14 -15
leaf_value=-0.049758668055936608 -0.0072992244046762664 -0.04362467130488052 0.015432329656656592 -0.024555916191592798 -0.025491596639948152 -0.02464299728148385 -0.0030268327229216758 -0.028567181256465204 -0.0034588157662529986 -0.0081845452033482841 -0.0012273340121775995 -0.025048012993809238 -0.039162476070007224 -0.050268509908858942
leaf_weight=13.267872720956804 18.671229124069217 7.6805700957775107 536.29455322027206 10.249720185995104 10.849141001701357 8.2344692349433881 1065.9523056745529 73.276711106300354 18.317538112401962 11.786890864372252 12.682546108961104 10.286901712417601 8.7586380541324598 6.7002749145030966
leaf_count=40 52 23 1452 29 31 23 2937 209 51 33 35 29 26 20
internal_value=-1.053e-05 -0.00608794 0.0120283 0.0136351 -0.0038245 0.0148263 -0.00331726 -0.0282682 -0.0235459 -0.0157992 -0.00983456 -0.0136042 -0.0315983 -0.0499297
internal_weight=1813.01 1204.8 608.206 566.566 1093.24 544.529 1073.63 111.562 91.5942 22.0366 41.6407 28.9581 19.6078 19.9681
internal_count=4990 3337 1653 1537 3017 1475 2960 320 260 62 116 81 57 60
is_linear=0
shrinkage=0.05


Tree=14
num_leaves=11
num_cat=0
split_feature=0 1 1 1 3 3 1 1 3 3
split_gain=22.417 19.7201 14.6225 10.1695 5.08837 4.92668 4.47169 3.62206 2.7542 2.02225
threshold=-0.0035482916813159289 0.018607721735564461 0.040364344355205584 0.026312015516871227 0.81644246613667637 0.31293287159299366 0.012146201772906198 0.032170354143077111 0.32007734713805458 0.43968372811423373
decision_type=2 2 2 2 2 2 2 2 2 2
left_child=5 6 3 -3 -4 -1 9 -7 -8 -2
right_child=1 2 4 -5 -6 7 8 -9 -10 -11
leaf_value=0.010466787050148349 0.0291591912400972 -0.0026442142297872966 0.024717982693648582 -0.013926531923808595 -0.022771440243120111 0.075647013250831951 0.0092507521592419331 0.029510145367509968 0.0013525106871640658 -0.0028610190863895633
leaf_weight=7.0097715556621578 30.877497315406799 543.94282427430153 50.445356070995331 315.62230658531189 6.3507062792778006 12.229273021221163 260.84719353914261 6.5231322050094596 191.3409116268158 5.8679600059986106
leaf_count=23 100 1917 172 1128 21 36 892 21 660 20
internal_value=1.0371e-05 -0.000836931 -0.00516339 -0.00678695 0.0194079 0.0462296 0.00727174 0.059598 0.00590865 0.0240458
internal_weight=1431.06 1405.29 916.361 859.565 56.7961 25.7622 488.934 18.7524 452.188 36.7455
internal_count=4990 4910 3238 3045 193 80 1672 57 1552 120
is_linear=0
shrinkage=0.05


Tree=15
num_leaves=12
num_cat=0
split_feature=1 0 1 3 0 0 1 3 3 1 1
split_gain=27.6448 13.5126 13.1462 7.21511 5.74008 7.2442 4.45214 3.3921 2.26474 1.80272 1.5107
threshold=0.033787621471073156 0.0031534079272943498 0.015789308733392213 0.23393375519425416 0.0036441355930331158 -0.00063216923540093662 0.011314715174147647 0.29401150364191403 0.58909736168810045 0.037993816968701598 0.022930518023399304
decision_type=2 2 2 2 2 2 2 2 2 2 2
left_child=1 2 6 -4 5 8 -1 -3 -2 -7 -9
right_child=4 7 3 -5 -6 9 -8 10 -10 -11 -12
leaf_value=0.033038186711256676 -0.012181083360199255 0.012658528245711835 0.003846872380231731 -0.0041240185317124025 0.017309621592401441 -0.022976658962188826 0.0093861254216074802 0.065799133134817597 0.012929563114635681 -0.036279559705903415 0.036239091704263454
leaf_weight=21.524862200021744 43.080063909292221 8.8778764903545397 485.97862985730171 682.76408624649048 10.049268901348112 51.60208922624588 262.95575705170631 8.4492375850677508 11.343686878681181 50.282648921012878 8.8488750457763654
leaf_count=60 135 25 1463 2083 29 166 779 23 35 167 25
internal_value=4.88094e-06 0.00217795 0.00153661 -0.000809617 -0.0193199 -0.0216749 0.0111757 0.037783 -0.0069472 -0.029542 0.0506777
internal_weight=1645.76 1479.4 1453.22 1168.74 166.358 156.308 284.481 26.176 54.4238 101.885 17.2981
internal_count=4990 4458 4385 3546 532 503 839 73 170 333 48
is_linear=0
shrinkage=0.05


Tree=16
num_leaves=15
num_cat=0
split_feature=1 1 0 0 0 3 0 1 0 3 1 1 0 3
split_gain=47.9151 22.2475 7.65708 7.11839 5.6053 4.95039 4.60676 4.35756 3.52049 0.556041 0.510343 0.797073 0.331392 0.000644897
threshold=0.024603260866118873 0.013567079728965219 -0.0027416468991739436 0.0033765616901110245 0.0027847433478594978 0.87265887627921124 -0.0035482916813159289 0.011314715174147647 0.00064381541818403509 0.42760782431940308 0.034594749006012317 0.031322350531767844 0.0036441355930331158 0.33954154912002882
decision_type=2 2 2 2 2 2 2 2 2 2 2 2 2 2
left_child=1 7 10 5 6 -4 -3 13 -9 -5 11 -2 -6 -1
right_child=2 4 3 9 12 -7 -8 8 -10 -11 -12 -13 -14 -15
leaf_value=-0.0484977326603728 -0.0081061822223907586 -0.042260660534596685 0.014631048168153405 -0.023598347608231166 -0.024511987600209284 -0.024463078509365882 -0.0028896601226173308 -0.027556178571871273 -0.002994113744155878 -0.0076205538196655962 -0.00096717569101434765 -0.027112370620544668 -0.037705144332360802 -0.049107309894832397
leaf_weight=12.894684702157976 21.37601408362389 7.4820828139781943 537.68762165307999 10.158054232597353 10.737361937761309 8.2214164435863477 1065.102915674448 72.522209048271179 18.262242525815964 11.736505180597304 12.661333560943602 7.4349684417247763 8.5497547388076764 6.5391333401203147
leaf_count=40 60 23 1452 29 31 23 2937 209 51 33 35 21 26 20
internal_value=-1.63337e-05 -0.00580584 0.0114063 0.0129211 -0.0036447 0.0140423 -0.0031643 -0.0272151 -0.0226153 -0.0150335 -0.00933401 -0.0130109 -0.0303604 -0.0487028
internal_weight=1811.37 1202.09 609.276 567.804 1091.87 545.909 1072.58 110.218 90.7845 21.8946 41.4723 28.811 19.2871 19.4338
internal_count=4990 3337 1653 1537 3017 1475 2960 320 260 62 116 81 57 60
is_linear=0
shrinkage=0.05


Tree=17
num_leaves=11
num_cat=0
split_feature=0 1 1 3 3 1 1 0 3 1
split_gain=20.1747 18.1359 13.7514 7.32381 4.45672 4.0096 3.1545 2.67688 2.45059 1.86189
threshold=-0.0035482916813159289 0.018607721735564461 0.061774057599975764 0.22844376737362884 0.31293287159299366 0.012146201772906198 0.032170354143077111 -0.0011366495771618632 0.56568238001959492 0.010741141601729244
decision_type=2 2 2 2 2 2 2 2 2 2
left_child=4 5 3 -3 -1 9 -6 -7 -4 -2
right_child=1 2 8 -5 6 7 -8 -9 -10 -11
leaf_value=0.0095583238561082508 0.0067124243583554302 -0.011361826599170783 0.063174452163723749 -0.0021301323741792165 0.07070425088495233 0.016679659609535706 0.02802716269660252 0.0043212967035922518 0.024368226270221272 0.030541130650793044
leaf_weight=7.0815390944480923 12.193175435066221 357.34195598959923 6.6381433308124569 538.73669263720512 12.549044579267504 49.14059790968895 6.6109866499900809 404.49884232878685 10.508473783731459 25.017289400100708
leaf_count=23 40 1283 20 1901 36 168 21 1384 34 80
internal_value=1.50678e-05 -0.000796748 -0.00496285 -0.00581159 0.0434519 0.00695428 0.0559789 0.00566002 0.0393917 0.0227329
internal_weight=1430.32 1404.08 913.225 896.079 26.2416 490.85 19.16 453.639 17.1466 37.2105
internal_count=4990 4910 3238 3184 80 1672 57 1552 54 120
is_linear=0
shrinkage=0.05


Tree=18
num_leaves=12
num_cat=0
split_feature=1 0 1 3 3 1 0 1 0 1 3
split_gain=25.5457 12.2093 12.0464 7.04415 5.58298 4.88917 5.11497 3.92064 3.12935 3.09756 0.328843
threshold=0.034053806953049624 0.0031534079272943498 0.015789308733392213 0.23393375519425416 0.84881189510029553 0.049657982783970066 0.0031534079272943498 0.010741141601729244 0.0045983122951884789 0.022302859802591925 0.43764139772757288
decision_type=2 2 2 2 2 2 2 2 2 2 2
left_child=1 2 7 -4 5 6 -2 -1 9 -3 -7
right_child=4 8 3 -5 -6 10 -8 -9 -10 -11 -12
leaf_value=0.035925181149572195 -0.020098331035250338 0.049328470863552284 0.0037612628459232759 -0.0040906128835497199 0.022336467622533877 -0.033307423234602528 0.018584762358325093 0.0092824127206959563 0.06346081232300893 0.0083038444565559488 -0.045814839275750932
leaf_weight=14.549338132143019 117.16443744301796 7.7746514081955018 490.67709761857986 683.57874777913094 7.7358828186988822 7.7218508422374752 9.2178927958011609 271.08531868457794 7.3478954732418051 11.272457957267759 16.451884090900421
leaf_count=40 380 21 1475 2090 24 26 27 799 20 32 56
internal_value=6.14283e-06 0.00203981 0.00143047 -0.000809611 -0.019089 -0.0212176 -0.0172769 0.0106395 0.0357424 0.0250493 -0.0418196
internal_weight=1644.58 1486.29 1459.89 1174.26 158.292 150.556 126.382 285.635 26.395 19.0471 24.1737
internal_count=4990 4477 4404 3565 513 489 407 839 73 53 82
is_linear=0
shrinkage=0.05


Tree=19
num_leaves=15
num_cat=0
split_feature=1 1 0 0 0 3 0 1 0 3 1 1 3 3
split_gain=43.6391 20.4295 6.88986 6.39973 5.10198 4.63898 4.22448 4.18231 3.35923 0.539316 0.471637 0.772439 0.320093 0.000506108
threshold=0.024603260866118873 0.013567079728965219 -0.0027416468991739436 0.0033765616901110245 0.0027847433478594978 0.87265887627921124 -0.0035482916813159289 0.011314715174147647 0.00047208767631878873 0.42760782431940308 0.034594749006012317 0.031322350531767844 0.56877442018855706 0.33954154912002882
decision_type=2 2 2 2 2 2 2 2 2 2 2 2 2 2
left_child=1 7 10 5 6 -4 -3 13 -9 -5 11 -2 -6 -1
right_child=2 4 3 9 12 -7 -8 8 -10 -11 -12 -13 -14 -15
leaf_value=-0.047420286857203543 -0.0075660841207653724 -0.041007326147574213 0.013923572739956184 -0.02277417931926631 -0.033982388747298413 -0.023993050293127077 -0.0027834045259000372 -0.027505273105435653 -0.0055768650256643494 -0.0069855686087780871 -0.00080919388326621293 -0.0263382733049022 -0.020371147059630716 -0.047967998630859619
leaf_weight=12.529042989015581 21.274493992328647 7.2778278589248648 538.77766555547714 10.07516270875931 12.308996498584749 8.189457565546034 1064.4231459498405 66.242065906524658 23.718228608369827 11.677863150835035 12.64663118124008 7.3811768293380728 6.6545214653015128 6.3581055998802176
leaf_count=40 60 23 1452 29 37 23 2937 193 67 33 35 21 20 20
internal_value=-2.20087e-05 -0.00555927 0.0108661 0.0122981 -0.00349788 0.0133559 -0.00304298 -0.0262146 -0.0217238 -0.0142982 -0.00885194 -0.0124015 -0.029206 -0.0476047
internal_weight=1809.53 1199.51 610.022 568.72 1090.66 546.967 1071.7 108.847 89.9603 21.753 41.3023 28.6557 18.9635 18.8871
internal_count=4990 3337 1653 1537 3017 1475 2960 320 260 62 116 81 57 60
is_linear=0
shrinkage=0.05


Tree=20
num_leaves=11
num_cat=0
split_feature=0 1 1 3 3 1 3 3 1 3
split_gain=18.2116 16.6915 12.7287 9.61873 4.81378 4.10936 3.86096 5.36393 3.01424 1.77629
threshold=-0.0035482916813159289 0.018607721735564461 0.040364344355205584 0.84881189510029553 0.81644246613667637 0.024970110089216475 0.32007734713805458 0.25107107299449966 0.013222562212914587 0.37761931332511961
decision_type=2 2 2 2 2 2 2 2 2 2
left_child=5 6 3 -3 -4 -1 7 -2 -8 -7
right_child=1 2 4 -5 -6 9 8 -9 -10 -11
leaf_value=0.069760694688228708 0.0069245830075715907 -0.0070427017808397862 0.023070104453063227 0.032032228106539593 -0.0230195282616301 0.0066352088134998535 0.017225809263056408 0.023830468733328405 -0.00099304227933925135 0.039234128841261262
leaf_weight=8.4582543373107928 231.48834112286568 836.47282642126083 51.248234063386917 16.051519572734833 6.3693659603595725 6.5043381154537228 26.059112340211868 58.845898866653442 176.25750958919525 11.687467724084852
leaf_count=24 781 2991 172 54 21 21 87 198 606 35
internal_value=2.07929e-05 -0.000757087 -0.00476978 -0.00630699 0.0179751 0.0409665 0.00665612 0.0103511 0.00135361 0.0275786
internal_weight=1429.44 1402.79 910.142 852.524 57.6176 26.6501 492.651 290.334 202.317 18.1918
internal_count=4990 4910 3238 3045 193 80 1672 979 693 56
is_linear=0
shrinkage=0.05


Tree=21
num_leaves=10
num_cat=0
split_feature=1 0 1 3 3 1 0 1 3
split_gain=23.5124 11.0665 10.5807 6.2482 5.24042 4.51118 4.49853 3.44603 0.328894
threshold=0.034318460759526249 0.0045983122951884789 0.015789308733392213 0.18771997467642904 0.84881189510029553 0.049657982783970066 0.0031534079272943498 0.011314715174147647 0.43764139772757288
decision_type=2 2 2 2 2 2 2 2 2
left_child=1 2 7 -4 5 6 -2 -1 -7
right_child=4 -3 3 -5 -6 8 -8 -9 -10
leaf_value=0.029275774639176789 -0.019785644626628334 0.061420473269074877 0.0045858906453681561 -0.003049492256846901 0.020987482046433147 -0.032434336646892457 0.017829635116497568 0.0086407499550414761 -0.045096313695963841
leaf_weight=21.903779000043869 110.31881248950958 7.7700115442275992 404.46875569224358 793.75474986433983 7.8266597986221305 7.5509741306304958 8.5655902326107007 265.16684609651566 15.986149370670317
leaf_count=60 363 21 1214 2421 24 26 25 780 56
internal_value=7.5798e-06 0.00190483 0.00159348 -0.000472115 -0.018846 -0.021035 -0.0170755 0.0102152 -0.0410342
internal_weight=1643.31 1493.06 1485.29 1198.22 150.248 142.422 118.884 287.071 23.5371
internal_count=4990 4496 4475 3635 494 470 388 840 82
is_linear=0
shrinkage=0.05


Tree=22
num_leaves=15
num_cat=0
split_feature=1 1 0 0 0 3 1 0 0 3 3 3 3 3
split_gain=39.7907 18.7837 6.29072 5.74596 4.64063 4.24326 4.05573 3.83025 3.21915 0.50862 0.44572 1.58091 0.309202 0.000330723
threshold=0.024603260866118873 0.013567079728965219 -0.0027416468991739436 0.0033765616901110245 0.0027847433478594978 0.87265887627921124 0.011314715174147647 -0.0035482916813159289 0.00064381541818403509 0.42760782431940308 0.58909736168810045 0.43968372811423373 0.56877442018855706 0.33954154912002882
decision_type=2 2 2 2 2 2 2 2 2 2 2 2 2 2
left_child=1 6 10 5 7 -4 13 -3 -8 -5 11 -2 -6 -1
right_child=2 4 3 9 12 -7 8 -9 -10 -11 -12 -13 -14 -15
leaf_value=-0.046513865857172376 -0.012245089511576832 -0.039675263374591957 0.013260581629584002 -0.021848940266911074 -0.032841262051621599 -0.023131354221802746 -0.025663818931573608 -0.0026849680694899414 -0.0020664455722488057 -0.0064614924337979959 -0.017820450811233495 0.013369347710731064 -0.019356715961750454 -0.046962967193416388
leaf_weight=12.184046089649202 23.242215692996982 7.0446377694606772 539.73767933249474 9.9776153862476367 12.076446115970613 8.1305931806564313 70.979224890470505 1063.7618029713631 18.148252844810486 11.630045801401137 9.8032256960868818 8.1313764750957471 6.5607055723667136 6.1779507696628562
leaf_count=40 65 23 1452 29 37 23 209 2937 51 33 28 23 20 20
internal_value=-2.75504e-05 -0.0053263 0.0103585 0.0117231 -0.00335884 0.0127205 -0.0252672 -0.00292832 -0.0208589 -0.0135668 -0.00851425 -0.00560637 -0.0280944 -0.046665
internal_weight=1807.59 1196.93 610.653 569.476 1089.44 547.868 107.489 1070.81 89.1275 21.6077 41.1768 31.3736 18.6372 18.362
internal_count=4990 3337 1653 1537 3017 1475 320 2960 260 62 116 88 57 60
is_linear=0
shrinkage=0.05


Tree=23
num_leaves=11
num_cat=0
split_feature=0 1 1 3 3 3 3 1 1 3
split_gain=16.4169 15.3589 11.8475 6.61725 3.85105 3.59859 4.86706 2.73287 2.67356 2.18268
threshold=-0.0035482916813159289 0.018607721735564461 0.061774057599975764 0.22844376737362884 0.31293287159299366 0.32007734713805458 0.25107107299449966 0.013222562212914587 0.032170354143077111 0.56568238001959492
decision_type=2 2 2 2 2 2 2 2 2 2
left_child=4 5 3 -3 -1 6 -2 -7 -6 -4
right_child=1 2 9 -5 8 7 -8 -9 -10 -11
leaf_value=0.0074279329643606729 0.0066568927206597257 -0.010702960984934401 0.05812562963714249 -0.0018882303887032131 0.063356511099942101 0.016278568041306195 0.02268015095526621 -0.00099220450088439321 0.024670065952015593 0.021998384526327946
leaf_weight=7.2421402335166958 232.24867641925812 352.95515865087509 6.842923820018771 536.60647588968277 12.976398885250093 26.326654195785522 59.542027056217194 176.24833965301514 6.8094621300697318 10.746721029281614
leaf_count=23 781 1283 20 1901 36 87 198 606 21 34
internal_value=2.61411e-05 -0.000718207 -0.00458219 -0.00538569 0.0386238 0.00637213 0.00992656 0.00125231 0.0500423 0.036053
internal_weight=1428.54 1401.52 907.151 889.562 27.028 494.366 291.791 202.575 19.7859 17.5896
internal_count=4990 4910 3238 3184 80 1672 979 693 57 54
is_linear=0
shrinkage=0.05


Tree=24
num_leaves=14
num_cat=0
split_feature=1 0 1 3 0 0 1 3 3 3 1 1 3
split_gain=21.7647 10.3994 9.92888 5.64854 4.93956 7.04247 3.11202 3.08161 2.08363 1.77049 1.42547 1.23434 1.02692
threshold=0.033787621471073156 0.0031534079272943498 0.015789308733392213 0.23393375519425416 -0.00063216923540093662 0.0031534079272943498 0.010741141601729244 0.29401150364191403 0.58909736168810045 0.14225359137423957 0.034858156331648286 0.022930518023399304 0.49978365070482927
decision_type=2 2 2 2 2 2 2 2 2 2 2 2 2
left_child=1 2 6 -4 8 9 -1 -3 10 -6 -2 -9 -7
right_child=4 7 3 -5 5 12 -8 11 -10 -11 -12 -13 -14
leaf_value=0.032012210036752232 0.0076002086873332309 0.0091042142854221436 0.0033909934175213718 -0.0036612733828917604 -0.017503204756060039 0.022651262520563913 0.0084487973369115517 0.05861927531231978 0.014205135856002336 -0.032794170565985055 -0.014910118194430562 0.032128552514786649 -0.0046462710763292168
leaf_weight=14.770626008510588 8.9470659792423231 9.0136987864971179 487.99241736531258 679.01597037911415 26.286835461854935 7.2698919773101789 272.89649844169617 8.5877252817153948 11.180661678314207 67.646257519721985 32.873013824224472 9.0117946863174421 6.5489566326141357
leaf_count=40 28 25 1463 2083 88 21 799 23 35 233 107 25 20
internal_value=8.9081e-06 0.00190524 0.00133858 -0.000712321 -0.0174652 -0.0236122 0.00965869 0.0328786 -0.0049682 -0.028515 -0.0100942 0.0450548 0.00971456
internal_weight=1642.04 1481.29 1454.68 1167.01 160.753 107.752 287.667 26.6132 53.0007 93.9331 41.8201 17.5995 13.8188
internal_count=4990 4458 4385 3546 532 362 839 73 170 321 135 48 41
is_linear=0
shrinkage=0.05


Tree=25
num_leaves=15
num_cat=0
split_feature=1 1 0 0 0 1 3 0 0 3 1 1 3 3
split_gain=36.2921 17.2737 5.70311 5.18265 4.34999 3.93207 3.88094 3.52383 3.07179 0.486987 0.41353 0.773116 0.29589 0.000210364
threshold=0.024603260866118873 0.013567079728965219 -0.0027416468991739436 0.0033765616901110245 0.0027847433478594978 0.011314715174147647 0.87265887627921124 -0.0035482916813159289 0.00047208767631878873 0.42760782431940308 0.034594749006012317 0.031322350531767844 0.56877442018855706 0.33954154912002882
decision_type=2 2 2 2 2 2 2 2 2 2 2 2 2 2
left_child=1 5 10 6 7 13 -4 -3 -7 -5 11 -2 -6 -1
right_child=2 4 3 9 12 8 -8 -9 -10 -11 -12 -13 -14 -15
leaf_value=-0.045664255665052451 -0.0066154299399438067 -0.038599505375597615 0.012630286626876137 -0.021072917134063285 -0.032013838949020844 -0.025657934939234003 -0.022297414848778042 -0.0025813405156001798 -0.0045643361628794595 -0.0059658642664809297 -0.00059738394651067219 -0.025478830309779901 -0.018752163469158305 -0.04602793487201523
leaf_weight=11.826730370521547 21.088752776384357 6.834312677383422 540.53534308075905 9.8904753625392932 11.900803089141847 64.763912975788116 8.0718816816806775 1063.0683263838291 23.530460745096207 11.580789566040037 12.622066706418989 7.3162513077259055 6.5051021873950949 5.9902462363243094
leaf_count=40 60 23 1452 29 37 193 23 2937 67 33 35 21 20 20
internal_value=-3.30328e-05 -0.00510357 0.00987745 0.0111732 -0.00322603 -0.0243601 0.0121164 -0.00281142 -0.0200365 -0.0129247 -0.00812783 -0.0114741 -0.0273268 -0.0457865
internal_weight=1805.53 1194.42 611.106 570.078 1088.31 106.111 548.607 1069.9 88.2944 21.4713 41.0271 28.405 18.4059 17.817
internal_count=4990 3337 1653 1537 3017 320 1475 2960 260 62 116 81 57 60
is_linear=0
shrinkage=0.05


Tree=26
num_leaves=11
num_cat=0
split_feature=0 1 1 3 3 3 3 3 1 1
split_gain=14.8445 14.1351 11.0714 8.68848 4.39593 3.54434 3.35638 4.42709 2.49228 2.43419
threshold=-0.0035482916813159289 0.018607721735564461 0.040364344355205584 0.84881189510029553 0.81644246613667637 0.31293287159299366 0.32007734713805458 0.25107107299449966 0.013222562212914587 0.032170354143077111
decision_type=2 2 2 2 2 2 2 2 2 2
left_child=5 6 3 -3 -4 -1 7 -2 -8 -7
right_child=1 2 4 -5 -6 9 8 -9 -10 -11
leaf_value=0.0066962026812189884 0.0064002253663453098 -0.0065654100490412847 0.021449824968709438 0.030276634460535384 -0.022690430238225954 0.060011604936458254 0.015433258803108113 0.021611391007372544 -0.00099483122526925058 0.023318882122754327
leaf_weight=7.2990630269050625 232.98047456145287 829.54146629571915 52.022351503372192 16.317594885826111 6.3264951407909384 13.143987566232683 26.566626131534576 60.191652178764343 176.250065356493 6.8889154493808737
leaf_count=23 781 2991 172 54 21 36 87 198 606 21
internal_value=3.15331e-05 -0.000680829 -0.00440155 -0.00585468 0.0166639 0.0365253 0.0061022 0.00952325 0.00115706 0.0473937
internal_weight=1427.53 1400.2 904.208 845.859 58.3488 27.332 495.989 293.172 202.817 20.0329
internal_count=4990 4910 3238 3045 193 80 1672 979 693 57
is_linear=0
shrinkage=0.05


Tree=27
num_leaves=15
num_cat=0
split_feature=1 0 1 3 0 0 1 1 3 0 0 3 3 0
split_gain=20.0597 9.4593 9.2796 5.02172 4.66793 6.83508 3.22822 2.7623 2.65365 2.54003 1.71539 1.48562 0.930653 0.4873
threshold=0.034053806953049624 0.0029714166316827666 0.015789308733392213 0.18771997467642904 -0.00063216923540093662 0.0031534079272943498 0.025345379017500089 0.010741141601729244 0.35951471499847637 -0.0024114267290496478 -0.00259838519741401 0.13843454090951726 0.49978365070482927 0.0041406027272958843
decision_type=2 2 2 2 2 2 2 2 2 2 2 2 2 2
left_child=1 2 7 -4 8 11 13 -1 10 -10 -2 -6 -7 -3
right_child=4 6 3 -5 5 12 -8 -9 9 -11 -12 -13 -14 -15
leaf_value=0.030213380903361394 0.005370863775217889 0.034597185595522217 0.0037581445752361588 -0.0031623622383390513 -0.017757670151637966 0.021473226996166224 0.0085663237631760404 0.0080721837860202959 -0.013192006637529936 0.018941343516403034 -0.024358798665062305 -0.032447718182144536 -0.0044838466486555673 0.050566687422258831
leaf_weight=14.851007848978041 6.5985238850116756 12.300374358892443 397.76459628343582 768.72710797190666 23.44744174182415 7.3236594796180707 12.656842440366743 273.7033608853817 10.097623348236086 15.730250537395476 18.331609934568405 64.706800699234009 6.5339713990688324 7.8101251423358908
leaf_count=40 21 34 1191 2356 80 21 36 799 32 50 61 228 20 21
internal_value=1.00651e-05 0.00178171 0.00118343 -0.000802523 -0.0172439 -0.023409 0.0283487 0.00921172 -0.00485346 0.00637854 -0.0164899 -0.0285404 0.00923428 0.0407991
internal_weight=1640.58 1487.81 1455.05 1166.49 152.77 102.012 32.7673 288.554 50.758 25.8279 24.9301 88.1542 13.8576 20.1105
internal_count=4990 4477 4386 3547 513 349 91 839 164 82 82 308 41 55
is_linear=0
shrinkage=0.05


Tree=28
num_leaves=15
num_cat=0
split_feature=1 1 1 1 0 0 1 3 3 0 3 1 1 3
split_gain=33.1957 13.6255 6.02074 4.99531 5.01495 3.98051 3.83334 3.44076 3.35797 2.93943 2.3799 2.52328 2.29161 0.000135205
threshold=0.021890205854877522 0.013567079728965219 0.028817599326370378 0.041406968329934284 0.0029714166316827666 0.0031534079272943498 0.011314715174147647 0.45151229453555414 0.67717520286406396 0.00064381541818403509 0.729800079272239 0.022131980045256197 0.022873056253298597 0.33954154912002882
decision_type=2 2 2 2 2 2 2 2 2 2 2 2 2 2
left_child=1 6 10 4 -4 7 13 -3 -5 -8 11 -2 -12 -1
right_child=2 5 3 8 -6 -7 9 -9 -10 -11 12 -13 -14 -15
leaf_value=-0.044912356436886791 0.019356795660322154 -0.005900296750442114 0.016083572190730831 0.0076111320799951967 -0.018095171544973775 -0.039860783106672258 -0.023919240212883046 0.0015099870574037002 -0.015723464868600667 -0.0012684058694667827 -0.035063527907159539 0.0034308805327110284 -0.0023259127942249209 -0.045208391878866827
leaf_weight=11.479779601097109 26.373733371496201 625.10150030255318 284.42026376724243 46.775933772325516 11.15319576859474 7.8297298848628989 69.417945027351379 209.03042566776276 22.997712999582291 18.046574890613556 7.1514982283115414 436.5488432943821 21.166952610015869 5.8085238039493552
leaf_count=40 73 1736 766 127 32 26 209 578 63 51 20 1190 59 20
internal_value=-3.93087e-05 -0.00649218 0.00709251 0.0119533 0.0147939 -0.00437639 -0.0234981 -0.00404331 -8.00578e-05 -0.0192457 0.00347746 0.00433822 -0.0105934 -0.0450118
internal_weight=1803.3 946.714 856.588 365.347 295.573 841.962 104.753 834.132 69.7736 87.4645 491.241 462.923 28.3185 17.2883
internal_count=4990 2660 2330 988 798 2340 320 2314 190 260 1342 1263 79 60
is_linear=0
shrinkage=0.05


Tree=29
num_leaves=12
num_cat=0
split_feature=0 1 1 3 1 3 3 3 3 3 0
split_gain=13.595 12.5763 10.3282 6.2559 5.20039 4.58576 3.39486 3.74343 2.59375 1.96627 1.24198
threshold=-0.00316866763561463 0.018607721735564461 0.061774057599975764 0.66888914968277768 0.022641690093131873 0.2123967693744955 0.32007734713805458 0.25107107299449966 0.79958699046573078 0.56568238001959492 -0.0045732871096349484
decision_type=2 2 2 2 2 2 2 2 2 2 2
left_child=4 6 3 -3 -1 -6 7 -2 -8 -4 -7
right_child=1 2 9 -5 5 10 8 -9 -10 -11 -12
leaf_value=0.060192819547896542 0.0061569046430872626 -0.0063731510170669057 0.053882317110886958 0.009003933137123216 -0.017228643890716124 0.041365477069364553 -0.00085067159216839863 0.020111409663566421 0.022653305473439248 0.01996605569191039 0.017699044875678947
leaf_weight=10.015953123569487 233.67107236385345 801.32655119895935 7.0084381699562099 72.093365877866745 6.8857061564922359 11.041008025407793 189.31395009160042 60.503546327352524 12.513642668724058 10.950067907571791 11.133706241846083
leaf_count=30 781 2898 20 251 23 32 646 197 43 34 35
internal_value=3.81171e-05 -0.000781081 -0.00433216 -0.0051039 0.0291232 0.0184148 0.00560065 0.00902696 0.000606614 0.0332021 0.0294828
internal_weight=1426.46 1387.38 891.378 873.42 39.0764 29.0604 496.002 294.175 201.828 17.9585 22.1747
internal_count=4990 4870 3203 3149 120 90 1667 978 689 54 67
is_linear=0
shrinkage=0.05


Tree=30
num_leaves=12
num_cat=0
split_feature=1 0 1 3 3 1 0 3 1 1 3
split_gain=18.4792 8.68188 8.27127 5.30401 4.56881 4.56229 3.65922 2.85759 2.4407 1.03978 0.34213
threshold=0.034053806953049624 0.0031534079272943498 0.015789308733392213 0.23393375519425416 0.84881189510029553 0.049657982783970066 0.0031534079272943498 0.29401150364191403 0.010741141601729244 0.022930518023399304 0.43764139772757288
decision_type=2 2 2 2 2 2 2 2 2 2 2
left_child=1 2 8 -4 5 6 -2 -3 -1 -9 -7
right_child=4 7 3 -5 -6 10 -8 9 -10 -11 -12
leaf_value=0.028453173424129164 -0.017406384456617484 0.0071058577721528106 0.0032639457060755703 -0.0035500974381528906 0.020497823620973118 -0.030553899554568976 0.015017883413108488 0.054076150999854279 0.0076838849103006233 0.029827795599859038 -0.043864607751978556
leaf_weight=14.913766890764235 111.57690671086311 9.0751743912696856 492.83871951699257 679.10431519150734 7.8439307212829581 7.1208641678094891 9.4373590648174268 8.6027087867259997 274.51853102445602 9.0947597026824933 14.989963769912718
leaf_count=40 380 25 1475 2090 24 26 27 23 799 25 56
internal_value=1.07699e-05 0.00170171 0.00118479 -0.000684579 -0.0166573 -0.0186936 -0.0148778 0.0299173 0.00875408 0.0416149 -0.0395779
internal_weight=1639.12 1488.15 1461.38 1171.94 150.969 143.125 121.014 26.7726 289.432 17.6975 22.1108
internal_count=4990 4477 4404 3565 513 489 407 73 839 48 82
is_linear=0
shrinkage=0.05


Tree=31
num_leaves=16
num_cat=0
split_feature=1 1 0 0 1 0 3 3 0 3 3 1 1 3 1
split_gain=30.371 14.7054 4.96793 4.27796 3.74315 3.64253 3.49809 3.31035 2.81514 0.448282 0.434429 1.77342 1.43846 0.304346 0.000188664
threshold=0.024603260866118873 0.013567079728965219 -0.0027416468991739436 0.0033765616901110245 0.011314715174147647 0.0027847433478594978 0.87265887627921124 0.68517541508069368 0.00047208767631878873 0.42760782431940308 0.51236159603386666 0.032514331605532333 0.033787621471073156 0.56877442018855706 0.010741141601729244
decision_type=2 2 2 2 2 2 2 2 2 2 2 2 2 2 2
left_child=1 4 10 6 14 7 -4 -3 -6 -5 11 -2 -12 -7 -1
right_child=2 5 3 9 8 13 -8 -9 -10 -11 12 -13 -14 -15 -16
leaf_value=-0.044209060573088349 -0.00063022593530879687 -0.0018641473196136739 0.011549755179513989 -0.019701770028105747 -0.024002019673653709 -0.03027261299139395 -0.021710870367268587 -0.012968135190675021 -0.0036938591999637637 -0.0051223949713936155 -0.015472345872847154 -0.027317613808170438 0.015254230419431362 -0.016586683950289772 -0.0445637616384836
leaf_weight=11.126910328865053 14.846852093935015 996.2755788564682 541.60540866851807 9.7360048294067401 63.321103394031525 11.490905374288561 8.022251754999159 71.969208359718323 23.360109210014343 11.500441193580626 8.1828633248805982 10.719493687152861 7.1260203421115866 6.2834542393684378 5.6537941694259635
leaf_count=40 42 2760 1452 29 193 37 23 200 67 33 24 30 20 20 20
internal_value=-4.56139e-05 -0.0047017 0.00900779 0.0102135 -0.0227136 -0.00298576 0.0110643 -0.00261224 -0.0185291 -0.0118064 -0.007831 -0.0118198 -0.00116966 -0.0254345 -0.0443286
internal_weight=1801.22 1189.48 611.739 570.864 103.462 1086.02 549.628 1068.24 86.6812 21.2364 40.8752 25.5663 15.3089 17.7744 16.7807
internal_count=4990 3337 1653 1537 320 3017 1475 2960 260 62 116 72 44 57 60
is_linear=0
shrinkage=0.05


Tree=32
num_leaves=12
num_cat=0
split_feature=0 1 1 3 1 3 1 1 3 3 0
split_gain=12.6699 11.5333 9.38231 5.76447 4.67911 4.22233 3.26489 2.58037 1.84736 1.77684 1.13249
threshold=-0.00316866763561463 0.018607721735564461 0.061774057599975764 0.22844376737362884 0.022641690093131873 0.2123967693744955 0.012146201772906198 0.018574699730211783 0.56568238001959492 0.43968372811423373 -0.0045732871096349484
decision_type=2 2 2 2 2 2 2 2 2 2 2
left_child=4 6 3 -3 -1 -6 9 -8 -4 -2 -7
right_child=1 2 8 -5 5 10 7 -9 -10 -11 -12
leaf_value=0.057245700288648338 0.024016901787544037 -0.0099540378947571961 0.051283514008345313 -0.0016254822210902216 -0.016609261506091141 0.039637680418798553 0.0037426849169271263 0.036663750185968451 0.018622454570001123 -0.005437084420052289 0.017121738230808353
leaf_weight=10.164916872978209 32.321950614452362 342.63925287127495 7.1046417057514217 527.77452400326729 6.8124199509620693 11.147535711526873 453.08095723390579 6.0313868820667258 11.083528578281401 6.0841918885707846 11.191026002168654
leaf_count=30 100 1267 20 1882 23 32 1527 20 34 20 35
internal_value=4.52545e-05 -0.000748646 -0.00416134 -0.00490403 0.028035 0.0178492 0.00534667 0.00417517 0.0313805 0.0193509 0.0283578
internal_weight=1425.44 1386.12 888.602 870.414 39.3159 29.151 497.518 459.112 18.1882 38.4061 22.3386
internal_count=4990 4870 3203 3149 120 90 1667 1547 54 120 67
is_linear=0
shrinkage=0.05


Tree=33
num_leaves=10
num_cat=0
split_feature=1 0 1 3 3 1 0 1 3
split_gain=17.109 8.73318 7.29362 4.69937 4.34498 4.22281 3.22457 2.19235 0.340283
threshold=0.034318460759526249 0.0045983122951884789 0.015789308733392213 0.18771997467642904 0.84881189510029553 0.049657982783970066 0.0031534079272943498 0.010741141601729244 0.43764139772757288
decision_type=2 2 2 2 2 2 2 2 2
left_child=1 2 7 -4 5 6 -2 -1 -7
right_child=4 -3 3 -5 -6 8 -8 -9 -10
leaf_value=0.027071078574826175 -0.017191254432564917 0.054326647833312425 0.0039577663717897766 -0.0026585651400309667 0.019533168638562914 -0.029842731685247537 0.014388991944018065 0.0074113310896340105 -0.043287022877911252
leaf_weight=14.949768543243406 105.10247749090195 7.8106156289577475 406.64118757843971 789.30769830942154 7.9067993462085715 6.9632364958524731 8.7566011846065503 275.61866915225983 14.522727519273756
leaf_count=40 363 21 1214 2421 24 26 25 800 56
internal_value=1.21212e-05 0.00159449 0.00131742 -0.00040891 -0.0164944 -0.0185991 -0.0147625 0.00842283 -0.03893
internal_weight=1637.58 1494.33 1486.52 1195.95 143.252 135.345 113.859 290.568 21.486
internal_count=4990 4496 4475 3635 494 470 388 840 82
is_linear=0
shrinkage=0.05


Tree=34
num_leaves=16
num_cat=0
split_feature=1 1 1 1 0 1 0 0 3 3 0 3 3 1 1
split_gain=27.7514 11.6493 5.09954 4.48537 4.28745 3.64283 3.52915 3.91116 3.91008 3.04809 2.69138 2.20515 5.50727 2.79074 0.000284348
threshold=0.021890205854877522 0.013567079728965219 0.028817599326370378 0.041406968329934284 0.0029714166316827666 0.011314715174147647 0.00077644318770919718 -0.0014569673883528254 0.032320462910859597 0.67717520286406396 0.00064381541818403509 0.10100966009414528 0.075874336839252321 0.02221342953391698 0.010741141601729244
decision_type=2 2 2 2 2 2 2 2 2 2 2 2 2 2 2
left_child=1 5 11 4 -4 14 7 -3 -8 -5 -7 12 -2 -13 -1
right_child=2 6 3 9 -6 10 8 -9 -10 -11 -12 13 -14 -15 -16
leaf_value=-0.043496026226123648 0.0030265391886989696 -0.013264183039922245 0.014800791206819647 0.0068364421442806654 -0.016978106794100417 -0.022367947849458593 0.02298421644447491 -0.0010766319508478579 -0.01226705935588748 -0.015424594143527082 -0.00060232260601141843 0.016235978882792403 0.03198219309187559 0.00040438873111842491 -0.043938340683586728
leaf_weight=10.739739984273912 64.811165899038315 73.96975639462471 284.90800243616104 46.761495471000671 11.024263113737105 67.924313694238663 8.2748372554779035 598.09310933947563 159.3698915541172 22.911514639854431 17.957632482051849 30.070562392473221 21.994049996137619 374.63461530208588 5.4913920462131491
leaf_count=40 177 209 766 127 32 209 23 1660 448 63 51 83 60 1022 20
internal_value=-5.17959e-05 -0.00597613 0.00645802 0.0109297 0.0136169 -0.0219224 -0.00403698 -0.00241804 -0.0105271 -0.000483954 -0.0178168 0.00313176 0.0103631 0.00158071 -0.0436457
internal_weight=1798.94 941.821 857.116 365.605 295.932 102.113 839.708 672.063 167.645 69.673 85.8819 491.51 86.8052 404.705 16.2311
internal_count=4990 2660 2330 988 798 320 2340 1869 471 190 260 1342 237 1105 60
is_linear=0
shrinkage=0.05


Tree=35
num_leaves=11
num_cat=0
split_feature=0 1 1 1 3 1 1 1 0 3
split_gain=11.6135 11.0267 9.05759 7.82973 4.17414 2.94903 2.89615 2.29848 2.22326 1.22018
threshold=-0.0035482916813159289 0.018607721735564461 0.040364344355205584 0.026312015516871227 0.81644246613667637 0.024970110089216475 0.011912173354090819 0.018574699730211783 0.00054253511329516179 0.37761931332511961
decision_type=2 2 2 2 2 2 2 2 2 2
left_child=5 6 3 -3 -4 -1 8 -8 -2 -7
right_child=1 2 4 -5 -6 9 7 -9 -10 -11
leaf_value=0.055866024544128395 0.027365912825613837 -0.0016108775568518712 0.019604560669089683 -0.011682334946055686 -0.023221096867893185 0.0037463435331764831 0.0039588072734185239 0.034768342345470944 -0.0032158408387470017 0.030247935256731362
leaf_weight=8.840937018394472 24.271498143672943 534.94941367208958 52.831182688474655 301.8712370544672 6.376574605703353 6.7013247013092068 462.11398807168007 6.133909046649932 7.8700101077556601 12.343419551849363
leaf_count=24 75 1917 172 1128 21 21 1552 20 25 35
internal_value=5.14832e-05 -0.000586536 -0.00390684 -0.00524401 0.0149923 0.0320012 0.005359 0.0043624 0.0198778 0.0209227
internal_weight=1424.3 1396.42 896.028 836.821 59.2078 27.8857 500.389 468.248 32.1415 19.0447
internal_count=4990 4910 3238 3045 193 80 1672 1572 100 56
is_linear=0
shrinkage=0.05


Tree=36
num_leaves=12
num_cat=0
split_feature=1 0 1 1 0 3 1 0 1 0 3
split_gain=15.8355 8.69358 7.36818 7.46742 4.93789 4.17188 3.78848 2.7378 3.16017 2.66887 0.347052
threshold=0.034858156331648286 0.0029714166316827666 0.023802105561916927 0.026312015516871227 -0.0024990093664611353 0.84881189510029553 0.049657982783970066 0.0045983122951884789 0.026611967225302683 0.0022085404417668823 0.43764139772757288
decision_type=2 2 2 2 2 2 2 2 2 2 2
left_child=1 2 4 -4 -1 6 9 8 -3 -2 -8
right_child=5 7 3 -5 -6 -7 10 -9 -10 -11 -12
leaf_value=-0.019584317059610931 -0.018160385882844066 0.029701929083168273 -0.014355593960674005 -8.0098230937630582e-05 0.0036183460205959903 0.018297109432864368 -0.029086959297207768 0.052358968693513044 -0.0083162006354139967 0.0058486077294719278 -0.042825777396077958
leaf_weight=23.450991809368134 87.897380203008652 18.842630594968799 136.19589579105377 279.81054824590683 1032.27450761199 7.9859388768672934 6.8112426847219494 7.8058232665061942 7.6995328962802878 13.330380648374556 14.136993572115896
leaf_count=72 308 52 424 878 3065 24 26 21 22 42 56
internal_value=1.6436e-05 0.00146248 0.000882137 -0.00475374 0.00310294 -0.0167154 -0.019004 0.0263287 0.0186734 -0.0149987 -0.0383587
internal_weight=1636.24 1506.08 1471.73 416.006 1055.73 130.162 122.176 34.348 26.5422 101.228 20.9482
internal_count=4990 4534 4439 1302 3137 456 432 95 74 350 82
is_linear=0
shrinkage=0.05


Tree=37
num_leaves=15
num_cat=0
split_feature=1 1 0 0 3 3 1 1 0 0 3 1 1 1
split_gain=25.2396 12.5165 4.41331 3.85983 5.78053 3.56924 3.53982 3.49223 3.32465 2.56748 0.446161 1.71853 1.31483 0.000349592
threshold=0.024603260866118873 0.013567079728965219 -0.0027416468991739436 0.0011091005742588369 0.65402942870605774 0.037776297353106648 0.011314715174147647 0.024430637995908975 0.0031534079272943498 0.00047208767631878873 0.51236159603386666 0.032514331605532333 0.033787621471073156 0.010741141601729244
decision_type=2 2 2 2 2 2 2 2 2 2 2 2 2 2
left_child=1 6 10 4 -4 -5 13 8 -3 -8 11 -2 -12 -1
right_child=2 7 3 5 -6 -7 9 -9 -10 -11 12 -13 -14 -15
leaf_value=-0.042835880872520798 -0.0007408284914406189 -0.0021341272120163584 0.013532004223335571 0.03524519775687851 -0.0065696299839573371 0.00028833333078242819 -0.022469136392807794 -0.027794892643980024 -0.02869851286019073 -0.0029699470803198108 -0.014718254430188031 -0.027031732125295443 0.014713689822688843 -0.04333445411279694
leaf_weight=10.353863596916197 14.849029421806337 1058.2869936823845 389.61582389473915 7.7209954857826224 39.378567516803741 134.60807147622108 61.895182490348816 13.743924319744108 11.91096457839012 23.212832421064377 8.1032085716724378 10.690659046173094 7.1366540789604178 5.3238148093223563
leaf_count=40 42 2938 1043 21 107 366 193 38 41 67 24 30 20 20
internal_value=-5.89796e-05 -0.0043185 0.00818534 0.00931962 0.0116868 0.00218466 -0.0211726 -0.0027514 -0.00242978 -0.0171508 -0.00770597 -0.0117459 -0.00093561 -0.0430052
internal_weight=1796.83 1184.73 612.103 571.323 428.994 142.329 100.786 1083.94 1070.2 85.108 40.7796 25.5397 15.2399 15.6777
internal_count=4990 3337 1653 1537 1150 387 320 3017 2979 260 116 72 44 60
is_linear=0
shrinkage=0.05


Tree=38
num_leaves=12
num_cat=0
split_feature=0 1 3 1 0 1 0 3 3 3 3
split_gain=10.9005 9.73734 8.35243 6.74367 6.28064 4.10273 4.32888 3.10206 2.98951 2.43092 1.63035
threshold=-0.00316866763561463 0.018607721735564461 0.66888914968277768 0.039656329788085969 0.0022085404417668823 0.022641690093131873 -0.0058947274279000919 0.32505249822915078 0.25107107299449966 0.81644246613667637 0.2123967693744955
decision_type=2 2 2 2 2 2 2 2 2 2 2
left_child=5 7 3 -3 -4 -1 -7 8 -2 -9 -8
right_child=1 2 4 -5 -6 6 10 9 -10 -11 -12
leaf_value=0.053000009452868549 0.0054348355444042776 -0.0064993626034125646 0.016979895874974008 0.013571326423578771 -0.023344335084635737 0.052766178721839557 -0.015011801334028591 -0.0013133507291361566 0.017440880526628358 0.02294492921348322 0.014580314321535262
leaf_weight=10.322031140327452 235.6624843776226 757.67738457024097 70.118165343999863 44.298465937376022 11.198516860604284 6.389921009540557 6.4788859486579957 187.14938750863075 66.474207192659378 10.930593252182005 16.528654009103775
leaf_count=30 781 2779 239 146 39 18 22 635 214 37 50
internal_value=5.55661e-05 -0.000685857 -0.0038425 -0.00539072 0.0114266 0.0258808 0.0163587 0.00488821 0.00807633 2.52873e-05 0.00624722
internal_weight=1423.23 1383.51 883.293 801.976 81.3167 39.7195 29.3975 500.217 302.137 198.08 23.0075
internal_count=4990 4870 3203 2925 278 120 90 1667 995 672 72
is_linear=0
shrinkage=0.05


Tree=39
num_leaves=16
num_cat=0
split_feature=1 0 1 1 0 0 3 3 1 3 0 1 1 3 0
split_gain=14.6291 7.08548 6.57726 5.41742 4.89388 5.8555 4.54598 2.80378 2.17658 1.94783 2.40095 2.16029 1.91037 1.80769 1.0862
threshold=0.033787621471073156 0.0020027055093665429 0.015789308733392213 0.022930518023399304 -0.00063216923540093662 0.0022085404417668823 0.23393375519425416 0.14225359137423957 0.024325721400366176 0.35951471499847637 -0.0024114267290496478 0.036185994289412243 0.037993816968701598 0.17903914723332118 0.0036441355930331158
decision_type=2 2 2 2 2 2 2 2 2 2 2 2 2 2 2
left_child=1 2 13 7 9 12 -4 -3 -5 11 -11 -2 -6 -1 -7
right_child=4 3 6 8 5 14 -8 -9 -10 10 -12 -13 -14 -15 -16
leaf_value=0.012749044973933447 0.0052092516868838213 0.0063669976774014484 0.0027126795641152692 -0.019397140996122473 -0.019945412520209767 -0.0086430864743339466 -0.0037638498230227555 0.037010258725664345 0.009050906046491591 -0.011549616726896805 0.019832963403595649 -0.024443660028542775 -0.035522941446279231 0.0044790199705299271 0.013422232803025159
leaf_weight=102.766805768013 10.606161534786226 10.016106665134428 466.62462478876114 8.3561804294586164 40.430300027132034 12.257945731282236 646.11119827628136 29.304925888776779 34.417335659265518 9.9811894893646258 15.651721999049185 14.59309461712837 38.350986197590828 185.07928094267845 10.233670115470884
leaf_count=295 35 29 1394 24 143 43 1995 84 103 33 51 51 147 534 29
internal_value=1.66527e-05 0.0015316 0.000694775 0.0158083 -0.0147506 -0.0211046 -0.00104792 0.0292046 0.00349333 -0.00209154 0.00761291 -0.011963 -0.0275286 0.00743158 0.00139662
internal_weight=1634.78 1482.68 1400.58 82.0945 152.105 101.273 1112.74 39.321 42.7735 50.8322 25.6329 25.1993 78.7813 287.846 22.4916
internal_count=4990 4458 4218 240 532 362 3389 113 127 170 84 86 290 829 72
is_linear=0
shrinkage=0.05


Tree=40
num_leaves=16
num_cat=0
split_feature=1 1 1 1 0 1 0 3 0 1 0 3 3 1 1
split_gain=23.0073 10.1449 4.36774 3.88828 3.75403 3.49744 3.27267 3.65103 3.64714 2.77314 2.44672 2.08433 5.13577 2.7279 0.000309667
threshold=0.021890205854877522 0.013567079728965219 0.028817599326370378 0.041406968329934284 0.0029714166316827666 0.011314715174147647 0.00077644318770919718 0.032320462910859597 -0.0014569673883528254 0.049657982783970066 0.00047208767631878873 0.10100966009414528 0.075874336839252321 0.02221342953391698 0.010741141601729244
decision_type=2 2 2 2 2 2 2 2 2 2 2 2 2 2 2
left_child=1 5 11 4 -4 14 8 -8 -3 -5 -7 12 -2 -13 -1
right_child=2 6 3 9 -6 10 7 -9 -10 -11 -12 13 -14 -15 -16
leaf_value=-0.042406567045343471 0.0027134383450650671 -0.012630169796285307 0.013596959958509243 -0.010577085682534675 -0.016253222584131082 -0.021804629547515483 0.022377116085387231 -0.011641182246215969 -0.00082900808889408394 0.0093816608477826982 -0.0027282421879678727 0.015747191785483027 0.030636395004662156 0.00010730384406054063 -0.042881854133695468
leaf_weight=10.086915060877798 64.841091215610504 73.532248586416245 285.18500459194183 34.948283851146698 10.936739057302473 61.257169127464294 8.3003002107143384 158.52652455866337 597.13305974006653 34.668250918388367 23.164982497692108 30.121940433979034 22.073069930076599 374.6915717124939 5.1905858516693106
leaf_count=40 177 209 766 95 32 193 23 448 1660 95 67 83 60 1022 20
internal_value=-6.15523e-05 -0.00547665 0.00585704 0.00999482 0.0124945 -0.020554 -0.00368177 -0.00994864 -0.0021229 -0.000637855 -0.0165702 0.00277943 0.00980486 0.00127106 -0.042568
internal_weight=1794.66 937.192 857.466 365.738 296.122 99.6997 837.492 166.827 670.665 69.6165 84.4222 491.728 86.9142 404.814 15.2775
internal_count=4990 2660 2330 988 798 320 2340 471 1869 190 260 1342 237 1105 60
is_linear=0
shrinkage=0.05


Tree=41
num_leaves=11
num_cat=0
split_feature=0 1 1 3 3 3 3 3 3 1
split_gain=9.86661 9.32254 7.57901 7.19277 3.78425 2.72815 2.65775 3.34325 2.18139 2.10211
threshold=-0.0035482916813159289 0.018607721735564461 0.040364344355205584 0.84881189510029553 0.81644246613667637 0.31293287159299366 0.32007734713805458 0.25107107299449966 0.40603029173618027 0.032170354143077111
decision_type=2 2 2 2 2 2 2 2 2 2
left_child=5 6 3 -3 -4 -1 7 -2 -8 -7
right_child=1 2 4 -5 -6 9 8 -9 -10 -11
leaf_value=0.0035405923486023015 0.0052011003661697856 -0.0055118039246419524 0.01786166745765529 0.027619560584348637 -0.022970255163937681 0.050495686688363454 -0.0078360407657130995 0.018226455539601762 0.0037100269134547996 0.017054293898328503
leaf_weight=7.4946323633193996 236.31574019789696 814.19183486700058 53.71057316660881 16.718012243509293 6.3447004258632651 13.393731981515886 56.544399917125702 62.238642752170563 147.92782145738602 7.2390632033348075
leaf_count=23 781 2991 172 54 21 36 191 198 502 21
internal_value=5.85333e-05 -0.000533057 -0.00360542 -0.0048452 0.0135479 0.0293777 0.00490873 0.00791645 0.000517097 0.0387627
internal_weight=1422.12 1393.99 890.965 830.91 60.0553 28.1274 503.027 298.554 204.472 20.6328
internal_count=4990 4910 3238 3045 193 80 1672 979 693 57
is_linear=0
shrinkage=0.05


Tree=42
num_leaves=13
num_cat=0
split_feature=1 0 1 0 0 3 3 0 1 0 3 3
split_gain=13.4675 6.62607 5.70179 4.66118 5.41707 4.18653 2.49746 2.14866 1.7963 1.5421 1.52207 0.766754
threshold=0.034053806953049624 0.0045983122951884789 0.015789308733392213 -0.00063216923540093662 0.0031534079272943498 0.18771997467642904 0.35951471499847637 -0.0024114267290496478 0.010741141601729244 -0.00259838519741401 0.13843454090951726 0.49978365070482927
decision_type=2 2 2 2 2 2 2 2 2 2 2 2
left_child=1 2 8 6 10 -4 9 -8 -1 -2 -5 -6
right_child=3 -3 5 4 11 -7 7 -9 -10 -11 -12 -13
leaf_value=0.024309377012420752 0.0072558949409954393 0.048664035610980247 0.0037851157954261676 -0.014636404037613999 0.018894037498518663 -0.0024749160601911725 -0.0095634432575347449 0.020613580102500629 0.0065399253355934274 -0.021408567823372943 -0.03000168298359801 -0.0046673212237279514
leaf_weight=14.991019636392592 6.449830591678622 7.3881614208221427 405.02443730831146 22.062089115381241 7.4146720170974714 784.18585869669914 9.5525119304657 15.421479150652884 277.35045972466469 17.216869950294495 59.814446032047272 6.4626017957925797
leaf_count=40 21 20 1207 80 21 2410 32 50 800 61 228 20
internal_value=1.67239e-05 0.0014306 0.00119506 -0.0145626 -0.0209654 -0.000342858 -0.00195828 0.00907092 0.00745113 -0.0135967 -0.0258614 0.00792159
internal_weight=1633.33 1488.94 1481.55 144.395 95.7538 1189.21 48.6407 24.974 292.341 23.6667 81.8765 13.8773
internal_count=4990 4477 4457 513 349 3617 164 82 840 82 308 41
is_linear=0
shrinkage=0.05


Tree=43
num_leaves=15
num_cat=0
split_feature=1 1 0 1 0 3 1 3 0 0 3 1 1 1
split_gain=21.0619 10.889 3.89147 3.45829 3.41847 5.18545 3.4147 3.34417 2.92163 2.35271 0.451904 1.63367 1.1784 0.000286263
threshold=0.024603260866118873 0.013567079728965219 -0.0027416468991739436 0.011314715174147647 0.0011091005742588369 0.65402942870605774 0.024430637995908975 0.037776297353106648 0.0031534079272943498 0.00064381541818403509 0.51236159603386666 0.032514331605532333 0.033787621471073156 0.010741141601729244
decision_type=2 2 2 2 2 2 2 2 2 2 2 2 2 2
left_child=1 3 10 13 5 -4 8 -6 -3 -5 11 -2 -12 -1
right_child=2 6 4 9 7 -7 -8 -9 -10 -11 12 -13 -14 -15
leaf_value=-0.04196393515490101 -0.0008360697005296389 -0.0019287782309431558 0.012493422075103993 -0.020303800119750692 0.033774097401480539 -0.0065530372805427083 -0.027331943688783906 -3.3138709130969034e-05 -0.027278189185151954 0.00016114720992921729 -0.013830222007491389 -0.026506368806876443 0.014097062362739419 -0.042427360886438385
leaf_weight=9.7975161075592023 14.841356545686724 1056.5969877392054 390.02286571264267 65.813152819871902 7.7355445623397818 39.339817494153976 13.690621316432951 134.52261736989021 11.490164518356321 17.853647857904434 8.0056082606315595 10.64206802845001 7.1515038907527915 5.0498521178960791
leaf_count=40 42 2938 1043 209 21 107 38 366 41 51 24 30 20 20
internal_value=-6.52727e-05 -0.0039688 0.00745978 -0.0198832 0.00852266 0.0107483 -0.00251952 0.00180519 -0.00220148 -0.0159368 -0.00748994 -0.0115562 -0.000653432 -0.0421216
internal_weight=1792.55 1180.29 612.261 98.5142 571.621 429.363 1081.78 142.258 1068.09 83.6668 40.6405 25.4834 15.1571 14.8474
internal_count=4990 3337 1653 320 1537 1150 3017 387 2979 260 116 72 44 60
is_linear=0
shrinkage=0.05


Tree=44
num_leaves=12
num_cat=0
split_feature=0 1 3 1 0 1 0 3 3 3 3
split_gain=9.29791 8.21833 7.35136 6.64685 5.71811 3.67619 3.8624 2.72773 2.80266 2.21966 1.46732
threshold=-0.00316866763561463 0.018607721735564461 0.66888914968277768 0.019763300139482999 0.0022085404417668823 0.022641690093131873 -0.0058947274279000919 0.32007734713805458 0.25107107299449966 0.79958699046573078 0.2123967693744955
decision_type=2 2 2 2 2 2 2 2 2 2 2
left_child=5 7 3 -3 -4 -1 -7 8 -2 -9 -8
right_child=1 2 4 -5 -6 6 10 9 -10 -11 -12
leaf_value=0.049362596875620821 0.0050258960990360044 -0.01752208239347209 0.015929622211661179 -0.0033427216909118367 -0.022773770296028152 0.04896901578443516 -0.01493940455762661 -0.001350741567222368 0.016935373914180363 0.020115655681415757 0.013120967019148813
leaf_weight=10.419605761766432 236.80660337209702 93.665827751159668 70.890846461057663 702.75455968081951 11.027746126055716 6.4736245870590201 6.4665796756744447 190.54705440998077 62.421277016401291 12.854666620492933 16.665589720010757
leaf_count=30 781 337 239 2588 39 18 22 646 197 43 50
internal_value=6.31169e-05 -0.000625444 -0.00354329 -0.00501034 0.0107194 0.0238201 0.0148305 0.00447346 0.00751031 5.90074e-06 0.00527671
internal_weight=1420.99 1380.97 878.339 796.42 81.9186 40.0254 29.6058 502.63 299.228 203.402 23.1322
internal_count=4990 4870 3203 2925 278 120 90 1667 978 689 72
is_linear=0
shrinkage=0.05


Tree=45
num_leaves=12
num_cat=0
split_feature=1 0 1 3 3 1 3 0 3 0 3
split_gain=12.5052 7.1355 5.67554 3.93693 3.91923 3.75119 2.85141 2.25542 1.67924 0.681306 0.371209
threshold=0.034858156331648286 0.0031534079272943498 0.015789308733392213 0.84881189510029553 0.45151229453555414 0.049657982783970066 0.29401150364191403 0.0022085404417668823 0.01487660966341023 0.0041406027272958843 0.43764139772757288
decision_type=2 2 2 2 2 2 2 2 2 2 2
left_child=1 2 8 5 -4 7 -3 -2 -1 -8 -7
right_child=3 6 4 -5 -6 10 9 -9 -10 -11 -12
leaf_value=0.027638164393984994 -0.016425266321103575 0.0044586020762319364 0.00093148748863755592 0.019015550641151679 -0.0056994649481951001 -0.027445119855125329 0.028207735717827771 0.0057315952108903051 0.0063470171231821831 0.047472317032210748 -0.042066632255533344
leaf_weight=9.5742890834808332 84.722304135560989 9.8194916844367999 887.90770646929741 7.9081044495105735 297.50171986222267 6.4391187727451351 9.1797182559967059 13.286754608154295 282.94710624217987 9.1781796813011152 13.32099439203739
leaf_count=27 308 27 2693 24 925 26 25 42 812 25 56
internal_value=1.7308e-05 0.00128171 0.000806506 -0.0151352 -0.00073268 -0.0174284 0.0262065 -0.0134215 0.00704388 0.0378392 -0.037302
internal_weight=1631.79 1506.11 1477.93 125.677 1185.41 117.769 28.1774 98.0091 292.521 18.3579 19.7601
internal_count=4990 4534 4457 456 3618 432 77 350 839 50 82
is_linear=0
shrinkage=0.05


Tree=46
num_leaves=15
num_cat=0
split_feature=1 1 1 1 0 1 3 3 3 3 3 1 0 3
split_gain=19.4267 8.88708 3.70409 3.49301 3.32578 3.31482 3.83838 3.56429 2.70531 1.99638 4.79529 2.59783 1.10584 0.412278
threshold=0.021890205854877522 0.011912173354090819 0.028817599326370378 0.041406968329934284 0.0033765616901110245 0.01470129136962533 0.051776866513774188 0.45151229453555414 0.67717520286406396 0.10100966009414528 0.075874336839252321 0.02221342953391698 0.00071579218737494188 0.12481234827576372
decision_type=2 2 2 2 2 2 2 2 2 2 2 2 2 2
left_child=1 12 9 4 -4 6 -3 -7 -5 10 -2 -11 13 -1
right_child=2 5 3 8 -6 7 -8 -9 -10 11 -12 -13 -14 -15
leaf_value=-0.029010445803766563 0.0025433149514221647 -0.035861793786250824 0.012442338259450843 0.0059850182661674561 -0.019731606870386567 -0.0048218624768266499 -0.0083486857114859724 0.0031445197799453034 -0.015010740482192839 0.015164224511766272 0.029496464622880643 -8.3928678950049218e-05 -0.014316867875158915 -0.043813619508759838
leaf_weight=7.1255079507827821 64.847991138696671 13.862739086151121 287.76570543646812 46.752490818500519 8.2626388967037183 556.15395072102547 148.17737498879433 187.82705569267273 22.836572051048279 30.183511644601822 22.134592950344086 374.62598916888237 5.9242390841245642 13.837578207254408
leaf_count=28 177 42 773 127 25 1555 438 525 63 83 60 1022 20 52
internal_value=-6.95706e-05 -0.00506278 0.00536331 0.00917479 0.0115443 -0.00422209 -0.0107025 -0.00281065 -0.000905018 0.0025297 0.00940212 0.00105301 -0.0333914 -0.0387819
internal_weight=1790.32 932.908 857.409 365.617 296.028 906.021 162.04 743.981 69.5891 491.792 86.9826 404.81 26.8873 20.9631
internal_count=4990 2660 2330 988 798 2560 480 2080 190 1342 237 1105 100 80
is_linear=0
shrinkage=0.05


Tree=47
num_leaves=12
num_cat=0
split_feature=0 1 1 1 1 0 1 0 0 3 3
split_gain=8.53158 7.59157 6.97783 4.93837 3.43353 3.58582 2.56137 2.12684 1.99055 1.80124 1.36788
threshold=-0.00316866763561463 0.018607721735564461 0.061774057599975764 0.019631948899960529 0.022641690093131873 -0.0058947274279000919 0.011912173354090819 0.0015208637258562476 -0.00033576340737989646 0.56568238001959492 0.2123967693744955
decision_type=2 2 2 2 2 2 2 2 2 2 2
left_child=4 6 3 -3 -1 -6 8 -8 -2 -4 -7
right_child=1 2 9 -5 5 10 7 -9 -10 -11 -12
leaf_value=0.047375299774912227 0.034902094394142706 -0.01535840130684852 0.046232957035872359 -0.002790500877320426 0.046863619377844896 -0.014701208285851801 0.0042010738361491712 -0.010038437773612756 0.0089176499738765468 0.014432861039049156 0.012413883510221206
leaf_weight=10.484512776136397 11.216204553842543 86.98820772767067 7.2724123597145107 770.38494656980038 6.5168557763099662 6.4388396441936555 443.05029460787773 27.872817575931549 21.495049029588699 11.486200988292692 16.753229409456253
leaf_count=30 34 315 20 2834 18 22 1473 94 66 34 50
internal_value=6.78261e-05 -0.000593661 -0.0034056 -0.00406563 0.0227755 0.014094 0.00429804 0.00335827 0.0178273 0.0267612 0.00488589
internal_weight=1419.96 1379.77 876.132 857.373 40.1934 29.7089 503.634 470.923 32.7113 18.7586 23.1921
internal_count=4990 4870 3203 3149 120 90 1667 1567 100 54 72
is_linear=0
shrinkage=0.05


Tree=48
num_leaves=12
num_cat=0
split_feature=1 0 1 1 0 3 1 0 1 0 3
split_gain=11.561 6.63314 5.29717 6.88462 4.72313 3.65412 3.6561 2.30331 2.77541 2.08182 0.376903
threshold=0.034858156331648286 0.0029714166316827666 0.023653551326073319 0.026312015516871227 -0.0024990093664611353 0.84881189510029553 0.049657982783970066 0.0045983122951884789 0.026611967225302683 0.0022085404417668823 0.43764139772757288
decision_type=2 2 2 2 2 2 2 2 2 2 2
left_child=1 2 4 -4 -1 6 9 8 -3 -2 -8
right_child=5 7 3 -5 -6 -7 10 -9 -10 -11 -12
leaf_value=-0.019986348767472826 -0.015856685405425439 0.026317326956952471 -0.012682215242907541 0.00066727726733441912 0.0031328724705455575 0.018129018067278912 -0.026761464874987512 0.047081219056826842 -0.0092233625340364094 0.0054293752992368317 -0.041676983774080495
leaf_weight=22.578624188899994 83.735086053609848 18.925662606954578 148.2064049243927 277.26231181621552 1023.7333841323853 7.9620210528373709 6.2953943163156536 7.6779280602931967 7.7393849194049826 13.312850028276442 12.943368390202521
leaf_count=71 308 52 463 878 3027 24 26 21 22 42 56
internal_value=1.87146e-05 0.00122803 0.000721159 -0.00398284 0.00263398 -0.0146404 -0.0168841 0.0229501 0.0160018 -0.0129367 -0.0367963
internal_weight=1630.37 1506.12 1471.78 425.469 1046.31 124.249 116.287 34.343 26.665 97.0479 19.2388
internal_count=4990 4534 4439 1341 3098 456 432 95 74 350 82
is_linear=0
shrinkage=0.05


Tree=49
num_leaves=12
num_cat=0
split_feature=1 1 3 1 1 0 0 0 0 3 1
split_gain=17.853 9.35152 3.49832 3.35674 3.26409 3.07645 3.656 2.88377 2.22454 0.768568 0.000225644
threshold=0.024603260866118873 0.013567079728965219 0.87265887627921124 0.011314715174147647 0.024430637995908975 -0.0027416468991739436 0.0011091005742588369 0.0015628057760904703 0.00047208767631878873 0.51236159603386666 0.010741141601729244
decision_type=2 2 2 2 2 2 2 2 2 2 2
left_child=1 3 5 10 7 9 -7 -3 -5 -2 -1
right_child=2 4 -4 8 -6 6 -8 -9 -10 -11 -12
leaf_value=-0.041129972174727046 -0.011333534024245327 -0.0012777073934453786 -0.022150471726266063 -0.019876126117244847 -0.026668734798988125 0.010610303748526093 0.0012805776284792198 -0.010948429473078135 -0.0015347097580788909 0.0032321150480592118 -0.041553989680699635
leaf_weight=9.2119868844747526 25.424348801374435 982.7354386895895 10.223879665136336 59.328214943408966 13.620696887373922 422.58531364798546 139.72302058339119 83.648858860135078 22.917381912469864 14.067658782005308 4.7582489103078833
leaf_count=40 72 2736 30 193 38 1130 380 243 67 41 20
internal_value=-7.39143e-05 -0.00367764 0.00685192 -0.0186144 -0.00234695 0.00734464 0.00829204 -0.00203629 -0.0147654 -0.00614503 -0.0412744
internal_weight=1788.25 1176.22 612.024 96.2158 1080 601.8 562.308 1066.38 82.2456 39.492 13.9702
internal_count=4990 3337 1653 320 3017 1623 1510 2979 260 113 60
is_linear=0
shrinkage=0.05


Tree=50
num_leaves=11
num_cat=0
split_feature=0 1 3 1 0 0 3 1 3 1
split_gain=7.97576 7.27009 6.30733 6.67658 5.12366 2.4432 3.97962 2.50917 2.32414 1.96299
threshold=-0.0035482916813159289 0.018607721735564461 0.66888914968277768 0.019763300139482999 0.0022085404417668823 0.00067443111622222951 0.049907044588280151 0.011912173354090819 0.31293287159299366 0.032170354143077111
decision_type=2 2 2 2 2 2 2 2 2 2
left_child=8 5 3 -3 -4 7 -7 -2 -1 -10
right_child=1 2 4 -5 -6 6 -8 -9 9 -11
leaf_value=0.0025793642541773821 0.020900650055371586 -0.017139518870417477 0.014641408575387503 -0.0029060408534264822 -0.02219449262746067 0.034314841582408016 -0.0050979067737643557 0.0050295811122198228 0.046445751262757948 0.014307822838366964
leaf_weight=7.5312930047512081 26.672126889228821 93.253027468919754 72.803341537714005 707.23330070078373 10.846546381711958 6.855575203895568 97.414262518286705 375.52472287416458 13.353686898946764 7.3758210837841025
leaf_count=23 80 340 243 2616 39 23 325 1244 36 21
internal_value=7.16523e-05 -0.00046276 -0.003199 -0.00456418 0.00986504 0.00431388 -0.00250658 0.00608209 0.026368 0.0350107
internal_weight=1418.86 1390.6 884.136 800.486 83.6499 506.467 104.27 402.197 28.2608 20.7295
internal_count=4990 4910 3238 2956 282 1672 348 1324 80 57
is_linear=0
shrinkage=0.05


Tree=51
num_leaves=16
num_cat=0
split_feature=1 0 3 1 0 0 0 1 1 3 1 0 3 1 3
split_gain=10.7508 5.63708 5.66099 4.68821 4.68563 4.6719 4.82116 2.65153 2.60349 2.43338 2.12734 2.00402 1.51986 1.49906 0.275413
threshold=0.034053806953049624 0.0020027055093665429 0.18771997467642904 0.022930518023399304 -0.0035482916813159289 -0.00063216923540093662 0.0031534079272943498 0.019692324448123726 0.018780947477595171 0.35951471499847637 0.024325721400366176 -0.0024114267290496478 0.13843454090951726 0.036185994289412243 0.45373514323039371
decision_type=2 2 2 2 2 2 2 2 2 2 2 2 2 2 2
left_child=1 2 7 8 -4 9 12 -1 -3 13 -5 -11 -7 -2 -8
right_child=5 3 4 10 -6 6 14 -9 -10 11 -12 -13 -14 -15 -16
leaf_value=0.0086316097835816633 0.0036256474746084407 0.011160443835542051 -0.032347089140915657 -0.020090099882239698 -0.0013798652564295918 -0.013185614714773631 0.014316605036891606 0.0012598596076290297 0.037193580743255808 -0.0078281775613789385 0.0079770067097718906 0.021647289009775333 -0.028797044798110735 -0.022473378590919083 0.00021336561762981982
leaf_weight=238.85672578215599 9.1001277863979357 16.427306622266769 12.382422149181364 8.3410855531692487 904.98151537775993 21.416802078485489 7.0945147573947889 249.29309332370758 23.120637148618698 9.2812116742134112 35.419563174247742 15.228286698460577 57.307745814323425 13.914554983377455 6.760263592004776
leaf_count=693 31 47 45 24 2749 80 20 747 66 32 106 50 228 51 21
internal_value=1.98634e-05 0.00126593 0.000516896 0.0139031 -0.00179786 -0.0132216 -0.0197633 0.00486693 0.02638 -0.00047801 0.00262722 0.0104856 -0.02455 -0.0121537 0.00743511
internal_weight=1628.93 1488.82 1405.51 83.3086 917.364 140.104 92.5793 488.15 39.5479 47.5242 43.7606 24.5095 78.7245 23.0147 13.8548
internal_count=4990 4477 4234 243 2794 513 349 1440 113 164 130 82 308 82 41
is_linear=0
shrinkage=0.05


Tree=52
num_leaves=14
num_cat=0
split_feature=1 1 1 1 3 3 0 1 3 3 1 0 3
split_gain=16.4315 7.96813 3.1909 3.25953 3.18408 2.98832 2.94166 2.64715 1.85955 4.46707 2.50969 1.06606 0.421763
threshold=0.021890205854877522 0.011912173354090819 0.028817599326370378 0.041406968329934284 0.0046010004914136624 0.79958699046573078 0.0029714166316827666 0.049657982783970066 0.10100966009414528 0.075874336839252321 0.02221342953391698 0.00071579218737494188 0.12481234827576372
decision_type=2 2 2 2 2 2 2 2 2 2 2 2 2
left_child=1 11 8 6 -3 -6 -4 -5 9 -2 -10 12 -1
right_child=2 4 3 7 5 -7 -8 -9 10 -11 -12 -13 -14
leaf_value=-0.027512674700556478 0.0022917813547348089 0.027465042394614832 0.011712521246825629 -0.011023456491129902 -0.0036992253993733864 -0.021413231600403995 -0.014933089011909123 0.0084945462783189048 0.014719101772386426 0.02828190902653745 -0.00025837271137265949 -0.013304491339888706 -0.042878131133842111
leaf_weight=6.7730434387922349 64.87221547961235 8.0184054374694806 285.07802748680115 34.833376437425613 870.78481401503086 24.477846056222916 10.748680651187895 34.654661953449249 30.226891443133354 22.18721678853035 374.49158369004726 5.8140856474637976 13.111207917332647
leaf_count=28 177 23 766 95 2467 70 32 95 83 60 1022 20 52
internal_value=-7.71796e-05 -0.00468367 0.00491567 0.00845535 -0.00390261 -0.00418355 0.0107444 -0.00128955 0.00228624 0.0089154 0.000860238 -0.0321376 -0.0376443
internal_weight=1786.07 928.979 857.093 365.315 903.281 895.263 295.827 69.488 491.778 87.0594 404.718 25.6983 19.8843
internal_count=4990 2660 2330 988 2560 2537 798 190 1342 237 1105 100 80
is_linear=0
shrinkage=0.05


Tree=53
num_leaves=12
num_cat=0
split_feature=0 1 1 3 0 1 1 0 3 3 3
split_gain=7.34306 6.57683 10.4826 4.96042 4.81393 3.26239 3.13287 2.10394 1.7449 1.42821 1.15281
threshold=-0.00316866763561463 0.026312015516871227 0.036469152796874467 0.79958699046573078 -0.0016991815406883213 0.012146201772906198 0.024325721400366176 0.0002879985269259589 0.31293287159299366 0.09370246460003083 0.52086586473331786
decision_type=2 2 2 2 2 2 2 2 2 2 2
left_child=6 3 9 5 -4 -2 -1 -5 -8 -3 -10
right_child=1 2 4 7 -6 -7 8 -9 10 -11 -12
leaf_value=0.041554024682887269 0.014852906461383597 -0.020335093717349366 -0.031662371031449026 0.031379993882560631 0.010857956821216567 0.00026557386683787227 -0.0068109381978952669 0.0050700900278867478 0.036256521142066116 -0.010150306182474048 0.010644909546007138
leaf_weight=12.788390338420866 39.927174478769302 41.097793787717819 7.2001337707042685 19.12969991564751 88.163088709115982 957.42310839891434 8.7663550078868884 12.605849042534826 7.0106368064880398 211.89068296551704 11.769934833049772
leaf_count=37 120 165 25 62 296 3343 29 42 20 817 34
internal_value=7.44068e-05 -0.000541354 -0.00647962 0.00146878 0.00764758 0.000849552 0.0211024 0.0209293 0.011608 -0.0118048 0.0202055
internal_weight=1417.77 1377.44 348.352 1029.09 95.3632 997.35 40.3353 31.7355 27.5469 252.988 18.7806
internal_count=4990 4870 1303 3567 321 3463 120 104 83 982 54
is_linear=0
shrinkage=0.05


Tree=54
num_leaves=12
num_cat=0
split_feature=1 0 0 0 1 1 1 1 1 1 0
split_gain=9.91939 5.29915 4.50729 4.78491 4.35495 3.85347 1.95616 1.72555 4.56692 1.5564 0.82298
threshold=0.033787621471073156 0.0045983122951884789 -0.00063216923540093662 0.0022085404417668823 0.015789308733392213 0.018262437740363003 0.037993816968701598 0.049657982783970066 0.042663833360161725 0.010741141601729244 0.0036441355930331158
decision_type=2 2 2 2 2 2 2 2 2 2 2
left_child=1 4 7 6 9 -6 -4 8 -2 -1 -5
right_child=2 -3 3 10 5 -7 -8 -9 -10 -11 -12
leaf_value=0.022173215708713296 -0.0046423675548367578 0.043968271356280023 -0.017147388665139263 -0.0074309401435378748 -0.0061212480236774586 0.0010832913361678463 -0.033523614743033413 -0.026007558751585252 0.036656417728004008 0.0056339573077072384 0.011871087773429602
leaf_weight=14.98801153898239 35.335316985845566 7.2214705646038047 37.987935036420822 11.948375076055529 230.59819260239601 951.14449338614941 35.070350304245949 5.7286133319139472 8.2585746943950635 279.11741721630096 10.268074691295622
leaf_count=40 121 20 143 43 698 2900 147 22 27 800 29
internal_value=2.26897e-05 0.00124148 -0.0124779 -0.0188295 0.00103241 -0.000322559 -0.0250085 -0.000208769 0.00318141 0.00647682 0.00149014
internal_weight=1627.67 1483.07 144.597 95.2747 1475.85 1181.74 73.0583 49.3225 43.5939 294.105 22.2164
internal_count=4990 4458 532 362 4438 3598 290 170 148 840 72
is_linear=0
shrinkage=0.05


Tree=55
num_leaves=14
num_cat=0
split_feature=1 1 3 1 1 3 0 1 3 3 1 0 3
split_gain=14.8624 7.54612 2.97811 2.85258 2.97518 2.71742 2.69463 2.55253 1.78751 3.04115 2.19445 1.05814 0.423053
threshold=0.021890205854877522 0.011912173354090819 0.0046010004914136624 0.028817599326370378 0.041406968329934284 0.79958699046573078 0.0033765616901110245 0.04535240752982931 0.19979725463183298 0.22425383399840465 0.027895916300806924 0.00071579218737494188 0.12481234827576372
decision_type=2 2 2 2 2 2 2 2 2 2 2 2 2
left_child=1 11 -3 8 6 -4 -5 -6 10 -10 -2 12 -1
right_child=3 2 5 4 7 -7 -8 -9 9 -11 -12 -13 -14
leaf_value=-0.026837383198933491 0.0082953621996914376 0.026536370338147187 -0.0035261978971692742 0.011002770336724215 -0.015830959395826461 -0.020485888554216711 -0.01824666162960719 0.0050234572020704223 -0.018246693170394037 0.0012812154761274103 -0.0098578866753982058 -0.012681692172174755 -0.042417509704794951
leaf_weight=6.6204597651958528 152.28879377245903 8.0634456574916822 869.62580786645412 287.64016008377075 21.05308923125267 24.278336152434349 8.0957779586315137 48.416877746582031 21.35901552438736 299.52937936782837 18.691079795360565 5.7606694847345343 12.744347274303435
leaf_count=28 415 23 2467 773 57 70 25 133 58 819 50 20 52
internal_value=-7.90633e-05 -0.00446684 -0.00371395 0.00466717 0.00801479 -0.00398682 0.0102021 -0.00129654 0.00218161 -1.86037e-05 0.0063109 -0.0314945 -0.037091
internal_weight=1784.17 927.093 901.968 857.074 365.206 893.904 295.736 69.47 491.868 320.888 170.98 25.1255 19.3648
internal_count=4990 2660 2560 2330 988 2537 798 190 1342 877 465 100 80
is_linear=0
shrinkage=0.05


Tree=56
num_leaves=13
num_cat=0
split_feature=0 1 1 1 0 3 3 3 3 1 3 3
split_gain=6.84618 6.07301 7.13748 6.0406 4.56895 4.52018 2.59715 3.824 2.57626 2.55821 2.31204 1.30595
threshold=-0.0020775731888589828 0.018607721735564461 0.061774057599975764 0.022580018642294853 -0.0058947274279000919 0.22844376737362884 0.17727463310930083 0.27807544393669492 0.1034001155846649 0.018574699730211783 0.32007734713805458 0.56568238001959492
decision_type=2 2 2 2 2 2 2 2 2 2 2 2
left_child=3 9 5 6 -5 -3 -1 -8 -6 10 -2 -4
right_child=1 2 11 4 8 -7 7 -9 -10 -11 -12 -13
leaf_value=0.0056528223951881314 0.0059339338160606788 -0.0088480967780620104 0.043680751502678195 0.042966259873640417 -0.026570231842020026 -0.0011833253484755434 0.070021200695549152 0.026222313205012567 0.0034207137514470419 0.036019115741013151 -0.0010705129119545408 0.016443489876330913
leaf_weight=8.5865141749382001 292.25896599888802 317.02637685835361 7.3444145321846035 6.5576929450035086 8.458757743239401 489.1217388510704 6.6739970743656185 19.674054026603699 46.658324047923088 5.9775668978691092 197.37453846633434 10.980611592531202
leaf_count=29 948 1214 20 18 31 1772 21 63 158 19 665 32
internal_value=7.35026e-05 -0.000866794 -0.00349617 0.0129219 0.00351218 -0.00419758 0.029534 0.0373166 -0.00118196 0.00350731 0.00311039 0.0273598
internal_weight=1416.69 1320.08 824.473 96.6093 61.6748 806.148 34.9346 26.3481 55.1171 495.611 489.634 18.325
internal_count=4990 4670 3038 320 207 2986 113 84 189 1632 1613 52
is_linear=0
shrinkage=0.05


Tree=57
num_leaves=12
num_cat=0
split_feature=1 0 3 0 3 1 1 3 1 1 3
split_gain=9.21802 5.63725 4.42685 5.46488 3.40281 3.51727 2.64851 2.64151 1.82567 0.618389 0.397869
threshold=0.034858156331648286 0.0031534079272943498 0.18771997467642904 -0.0035482916813159289 0.84881189510029553 0.049657982783970066 0.019692324448123726 0.29401150364191403 0.042663833360161725 0.022930518023399304 0.43764139772757288
decision_type=2 2 2 2 2 2 2 2 2 2 2
left_child=1 2 6 -4 5 8 -1 -3 -2 -9 -7
right_child=4 7 3 -5 -6 10 -8 9 -10 -11 -12
leaf_value=0.0081723692682413723 -0.015153274237226675 0.0024078257011202623 -0.032960448024803531 -0.00089121619017856497 0.018406457911374654 -0.025159764562054307 0.0010041341326713742 0.044700849384168795 0.0021897017876997735 0.026182802190612156 -0.040962327474428684
leaf_weight=244.67975774407387 75.336437806487083 9.8146931529045123 13.473307088017462 947.68522146344185 7.9074233174324027 5.9385088533163097 272.22811079025269 8.2605865299701708 19.00195449590683 9.9248611032962781 12.096819117665289
leaf_count=708 281 27 50 2881 24 26 818 23 69 27 56
internal_value=2.31644e-05 0.00108696 0.00066593 -0.00134076 -0.0132969 -0.0155277 0.00439724 0.0233123 -0.01166 0.0345945 -0.035759
internal_weight=1626.35 1506.07 1478.07 961.159 120.281 112.374 516.908 28.0001 94.3384 18.1854 18.0353
internal_count=4990 4534 4457 2931 456 432 1526 77 350 50 82
is_linear=0
shrinkage=0.05


Tree=58
num_leaves=12
num_cat=0
split_feature=1 1 1 1 3 0 0 0 0 3 3
split_gain=13.6394 8.00188 3.22473 3.13938 3.08034 2.66571 3.2199 2.59498 2.11549 0.742516 0.000116474
threshold=0.024603260866118873 0.013567079728965219 0.024430637995908975 0.011314715174147647 0.87265887627921124 -0.0027416468991739436 0.0011091005742588369 0.0015628057760904703 0.00064381541818403509 0.51236159603386666 0.33062459553529816
decision_type=2 2 2 2 2 2 2 2 2 2 2
left_child=1 3 7 10 5 9 -7 -3 -5 -2 -1
right_child=4 2 -4 8 -6 6 -8 -9 -10 -11 -12
leaf_value=-0.040152568081845627 -0.011242488282192178 -0.000996524664347926 -0.026247392735659264 -0.017894518440680303 -0.021390414078416277 0.0094870685492778328 0.00072571437714127494 -0.010204935791462335 0.0016936072429847016 0.0030891029388897644 -0.040467372737446584
leaf_weight=8.2406527996063215 25.378462016582489 980.61266766488552 13.566154569387434 63.157730162143707 10.116327196359633 422.52509877085686 139.48659583926201 82.98189289867878 17.6316919028759 14.036198407411574 4.5663991421461096
leaf_count=39 72 2736 38 209 30 1130 380 243 51 41 21
internal_value=-8.11836e-05 -0.00324243 -0.00202394 -0.0172655 0.0059708 0.00643104 0.00731257 -0.00171497 -0.0136196 -0.00613878 -0.0402648
internal_weight=1782.3 1170.76 1077.16 93.5965 611.543 601.426 562.012 1063.59 80.7894 39.4147 12.8071
internal_count=4990 3337 3017 320 1653 1623 1510 2979 260 113 60
is_linear=0
shrinkage=0.05


Tree=59
num_leaves=11
num_cat=0
split_feature=0 1 1 3 0 0 1 1 0 3
split_gain=6.48402 5.79527 9.35971 4.31106 3.69913 3.22002 2.03484 1.9422 1.2109 0.696655
threshold=-0.0035482916813159289 0.026312015516871227 0.036469152796874467 0.79958699046573078 -0.0016991815406883213 -0.0024114267290496478 0.024970110089216475 0.016770297935016627 -0.0020775731888589828 0.37761931332511961
decision_type=2 2 2 2 2 2 2 2 2 2
left_child=6 3 8 5 -4 -2 -1 -5 -3 -8
right_child=1 2 4 7 -6 -7 9 -9 -10 -11
leaf_value=0.043925711960480854 0.018777941340548641 0.00034894031401937225 -0.025917387219852567 -0.0037923001358726033 0.010190792705705947 0.00044664568591173883 0.0019055492822042407 0.025963994701878747 -0.012045588680014208 0.021729013338032052
leaf_weight=8.6890636980533618 24.556121453642845 21.529130831360817 7.7096529304981223 7.0105510950088492 88.675301998853683 980.08164106309414 6.7892462313175228 25.179427295923233 232.64630869030952 12.764794677495955
leaf_count=24 83 80 27 23 296 3402 21 81 918 35
internal_value=7.55989e-05 -0.000407209 -0.00596471 0.00147183 0.00730257 0.000894713 0.0237926 0.0194835 -0.0109957 0.0148462
internal_weight=1415.63 1387.39 350.56 1036.83 96.385 1004.64 28.2431 32.19 254.175 19.554
internal_count=4990 4910 1321 3589 323 3485 80 104 998 56
is_linear=0
shrinkage=0.05


Tree=60
num_leaves=10
num_cat=0
split_feature=1 0 3 0 0 3 1 1 3
split_gain=8.50586 5.35382 3.99839 5.15897 3.26853 3.13941 3.42721 1.73048 0.400695
threshold=0.034858156331648286 0.0045983122951884789 0.18771997467642904 -0.0035482916813159289 0.0027847433478594978 0.84881189510029553 0.049657982783970066 0.042663833360161725 0.43764139772757288
decision_type=2 2 2 2 2 2 2 2 2
left_child=1 2 4 -4 -1 6 7 -2 -8
right_child=5 -3 3 -5 -6 -7 8 -9 -10
leaf_value=0.0038715510098972145 -0.014644667640392489 0.043215531701734956 -0.032197190590041475 -0.00063231430267941477 0.035977920264070144 0.017478163126295354 -0.024571303972727068 0.002267080853862125 -0.040616632882010818
leaf_weight=512.75031033158302 74.552300527691841 7.4871571958065024 13.120871990919111 964.49133151769638 8.0514960289001447 7.9653673768043509 5.8230285495519665 18.976338803768158 11.72685770690441
leaf_count=1512 281 21 50 2928 23 24 26 69 56
internal_value=2.28451e-05 0.00103995 0.000829209 -0.00105596 0.00436791 -0.0128435 -0.0150178 -0.0112134 -0.0352928
internal_weight=1624.95 1505.9 1498.41 977.612 520.802 119.044 111.079 93.5286 17.5499
internal_count=4990 4534 4513 2978 1535 456 432 350 82
is_linear=0
shrinkage=0.05


Tree=61
num_leaves=11
num_cat=0
split_feature=1 1 3 0 3 1 1 1 0 0
split_gain=12.5507 6.8699 2.79782 2.58173 2.52322 2.50462 2.52671 1.71266 1.03751 0.44565
threshold=0.021890205854877522 0.011912173354090819 0.0046010004914136624 -0.0058947274279000919 0.056217890393718925 0.028817599326370378 0.040364344355205584 0.022131980045256197 0.00071579218737494188 -0.00048520072302593581
decision_type=2 2 2 2 2 2 2 2 2 2
left_child=1 8 -3 -2 -4 7 -7 -5 9 -1
right_child=3 2 4 5 -6 6 -8 -9 -10 -11
leaf_value=-0.025017182953815761 -0.029835196199577686 0.025850114404424113 -0.012000167948914646 0.013934012523826953 -0.0028327042639030675 0.0097860423870408577 -0.00057641360848319082 0.0014295546404468045 -0.011721289125995094 -0.041602776117206787
leaf_weight=6.0031253546476409 5.5103765875101081 8.0919033288955671 82.736537218093872 29.112183600664139 808.74517434835434 286.86078482866287 74.00159963965416 461.03238371014595 5.651025488972663 12.449557721614838
leaf_count=26 18 23 237 80 2300 774 202 1256 20 54
internal_value=-8.09309e-05 -0.0041237 -0.00341785 0.00427883 -0.00368352 0.00449972 0.00766103 0.00217226 -0.0304665 -0.0362071
internal_weight=1780.19 923.677 899.574 856.517 891.482 851.007 360.862 490.145 24.1037 18.4527
internal_count=4990 2660 2560 2330 2537 2312 976 1336 100 80
is_linear=0
shrinkage=0.05


Tree=62
num_leaves=13
num_cat=0
split_feature=0 1 1 1 3 0 3 3 1 3 3 3
split_gain=5.9153 5.31534 6.33684 5.30684 5.03159 4.08573 3.89807 2.42295 2.35524 2.27159 3.39017 2.22789
threshold=-0.0020775731888589828 0.018607721735564461 0.040364344355205584 0.022580018642294853 0.94353424472516234 -0.0058947274279000919 0.81644246613667637 0.1034001155846649 0.018574699730211783 0.17727463310930083 0.38161398149155829 0.32007734713805458
decision_type=2 2 2 2 2 2 2 2 2 2 2 2
left_child=3 8 4 9 -3 -5 -4 -7 11 -1 -11 -2
right_child=1 2 6 5 -6 7 -8 -9 -10 10 -12 -13
leaf_value=0.0051310941395005388 0.0056632345630100982 -0.0049355716308215232 0.01724293927994424 0.040411418487136003 0.032070721479064528 -0.026119383236163668 -0.024042927524134255 0.0031213485250146927 0.034242805904440954 0.05669194057011695 0.02026107799458033 -0.0012050670740692652
leaf_weight=8.6328820586204511 293.13814759254456 753.34733265638351 51.541647344827652 6.5667234361171714 9.2986830025911313 8.3510791063308698 6.4305513203144065 46.709749713540077 6.066615253686904 10.545511603355409 16.189621865749359 197.69631439447403
leaf_count=29 948 2827 161 18 29 31 21 158 19 33 51 665
internal_value=7.56093e-05 -0.000801699 -0.00327298 0.0119923 -0.00448437 0.00313241 0.0126633 -0.00131359 0.00327955 0.0274305 0.034631 0.00289685
internal_weight=1414.51 1317.52 820.618 96.9956 762.646 61.6276 57.9722 55.0608 496.901 35.368 26.7351 490.834
internal_count=4990 4670 3038 320 2856 207 182 189 1632 113 84 1613
is_linear=0
shrinkage=0.05


Tree=63
num_leaves=10
num_cat=0
split_feature=1 0 1 1 1 3 0 3 0
split_gain=7.83387 5.05897 3.87539 3.55816 2.98504 2.71889 1.9227 1.49171 0.113818
threshold=0.034858156331648286 0.0045983122951884789 0.015789308733392213 0.018262437740363003 0.061774057599975764 0.84881189510029553 0.0022085404417668823 0.01487660966341023 8.0551635373460342e-05
decision_type=2 2 2 2 2 2 2 2 2
left_child=1 2 7 -4 5 6 -2 -1 -6
right_child=4 -3 3 -5 8 -7 -8 -9 -10
leaf_value=0.025244956692459172 -0.014699542513420908 0.042171413097876614 -0.0060562515253476138 0.00085504591724710295 -0.030236974143425657 0.020892959863345596 0.0050867811748262848 0.0052733066103408275 -0.040354869162184059
leaf_weight=9.6664893329143506 85.034291833639145 7.4227590262889853 230.29228217899799 973.29686138033867 4.5665154755115491 6.7753705978393546 14.349767342209814 285.27146822214127 7.1028309613466263
leaf_count=27 333 21 698 2975 21 20 46 813 36
internal_value=2.3872e-05 0.000995311 0.00079135 -0.000467348 -0.0123919 -0.00975338 -0.0118427 0.00592787 -0.0363955
internal_weight=1623.78 1505.95 1498.53 1203.59 117.829 106.159 99.3841 294.938 11.6693
internal_count=4990 4534 4513 3673 456 399 379 840 57
is_linear=0
shrinkage=0.05


Tree=64
num_leaves=14
num_cat=0
split_feature=1 1 3 3 1 0 1 1 0 0 3 3 3
split_gain=11.4959 6.55734 2.62035 6.31356 2.56901 2.41308 2.45351 3.86689 2.39032 1.02267 0.703338 1.49385 0.446651
threshold=0.021890205854877522 0.011912173354090819 0.68517541508069368 0.4768544933304652 0.018780947477595171 -0.0029821669261044233 0.028570424271203942 0.028378839215032977 0.0016256872329161178 0.00071579218737494188 0.54968794596815884 0.35489111759887682 0.12481234827576372
decision_type=2 2 2 2 2 2 2 2 2 2 2 2 2
left_child=1 9 3 -3 -4 10 7 -7 -8 12 11 -2 -1
right_child=5 2 4 -5 -6 6 8 -9 -10 -11 -12 -13 -14
leaf_value=-0.024843073922906127 -0.01241512092481706 -0.004495617985609524 -0.0060136618033705775 0.0071422858155258942 -0.028312902276898446 0.0030649972086809816 0.0095922060388790881 -0.023565830351279363 -0.0014586776266538592 -0.011324686337895285 -0.018359255514850983 0.013550753213071049 -0.041438564020096554
leaf_weight=6.1633196324110093 16.347316354513172 701.09669587016106 38.039152413606644 139.76990166306496 19.55610516667366 449.37120772898197 297.68241113424301 14.057581990957258 58.558883726596832 5.6172323673963538 12.025102674961088 8.3778801560401899 11.849117606878279
leaf_count=28 46 2000 110 393 57 1223 799 38 162 20 37 25 52
internal_value=-7.75449e-05 -0.00395164 -0.00326784 -0.00256115 -0.0135852 0.00409362 0.0046556 0.00225718 0.00777566 -0.0299513 -0.00844073 -0.00361685 -0.0357601
internal_weight=1778.51 922.092 898.462 840.867 57.5953 856.42 819.67 463.429 356.241 23.6297 36.7503 24.7252 18.0124
internal_count=4990 2660 2560 2393 167 2330 2222 1261 961 100 108 71 80
is_linear=0
shrinkage=0.05


Tree=65
num_leaves=12
num_cat=0
split_feature=0 1 1 1 1 1 0 3 3 3 3
split_gain=5.42228 4.88939 6.64584 5.32548 4.87943 4.74148 3.662 2.27842 2.06357 3.11891 1.20945
